version: 100
cost-factor: 1
maxid: 3183
xsize: 15

B-CRF
I-CRF
O

U018:%x[-2,0]
U019:%x[-1,0]
U020:%x[0,0]
U021:%x[1,0]
U022:%x[2,0]
U01:%x[-2,1]
U26:%x[-1,1]
U27:%x[0,1]
U28:%x[1,1]
U29:%x[2,1]
U02:%x[0,2]
U03:%x[-2,3]
U34:%x[1,3]
U35:%x[0,3]
U36:%x[1,3]
U347:%x[2,3]
U30:%x[-1,4]
U31:%x[0,4]
U32:%x[1,4]
U06:%x[0,6]
U07:%x[-2,5]
U24:%x[-1,5]
U08:%x[0,5]
U23:%x[1,5]
U25:%x[2,5]
U09:%x[0,6]
U10:%x[0,7]
U11:%x[0,8]
U12:%x[0,9]
U13:%x[0,10]
U14:%x[0,11]
U15:%x[0,12]
U16:%x[0,13]
U17:%x[0,14]
B0

0 B0
9 U018:1,
12 U018:2,
15 U018:3,
18 U018:4,
21 U018:5,
24 U018:6,
27 U018:7,
30 U018:8,
33 U018:A.
36 U018:Aen.
39 U018:E.
42 U018:F.
45 U018:G.
48 U018:H.
51 U018:Hom.
54 U018:J.
57 U018:M.
60 U018:Od.
63 U018:Ov.
66 U018:P.
69 U018:R.
72 U018:The
75 U018:W.
78 U018:_B-1
81 U018:_B-2
84 U018:ad
87 U018:am.
90 U018:and
93 U018:cit.,
96 U018:de
99 U018:di
102 U018:e
105 U018:et
108 U018:fast.
111 U018:in
114 U018:met.
117 U018:of
120 U018:pp.
123 U018:s.;
126 U018:und
129 U019:1
132 U019:1,
135 U019:10,
138 U019:11,
141 U019:14,
144 U019:2,
147 U019:3,
150 U019:4,
153 U019:5,
156 U019:6,
159 U019:7,
162 U019:8,
165 U019:9,
168 U019:A.
171 U019:Aen.
174 U019:E.
177 U019:F.
180 U019:G.
183 U019:H.
186 U019:Hom.
189 U019:J.
192 U019:M.
195 U019:Od.
198 U019:Ov.
201 U019:P.
204 U019:R.
207 U019:The
210 U019:W.
213 U019:_B-1
216 U019:ad
219 U019:am.
222 U019:and
225 U019:cit.,
228 U019:de
231 U019:di
234 U019:e
237 U019:et
240 U019:fast.
243 U019:in
246 U019:met.
249 U019:of
252 U019:p.
255 U019:pp.
258 U019:s.;
261 U019:ss.,
264 U019:und
267 U01:CONTINUING_PUNCTUATION
270 U01:FINAL_DOT
273 U01:OTHERS
276 U01:_B-1
279 U01:_B-2
282 U020:1
285 U020:1,
288 U020:10,
291 U020:11,
294 U020:14,
297 U020:1;
300 U020:2,
303 U020:3,
306 U020:4,
309 U020:5,
312 U020:6,
315 U020:7,
318 U020:8,
321 U020:9,
324 U020:A.
327 U020:Aen.
330 U020:E.
333 U020:F.
336 U020:G.
339 U020:H.
342 U020:Hom.
345 U020:J.
348 U020:M.
351 U020:Od.
354 U020:Ov.
357 U020:P.
360 U020:R.
363 U020:The
366 U020:W.
369 U020:ad
372 U020:am.
375 U020:and
378 U020:cit.,
381 U020:de
384 U020:di
387 U020:e
390 U020:et
393 U020:fast.
396 U020:in
399 U020:met.
402 U020:of
405 U020:p.
408 U020:pp.
411 U020:s.
414 U020:s.,
417 U020:s.;
420 U020:ss.
423 U020:ss.,
426 U020:ss.;
429 U020:und
432 U021:1
435 U021:1,
438 U021:10,
441 U021:11,
444 U021:14,
447 U021:1;
450 U021:2,
453 U021:3,
456 U021:4,
459 U021:5,
462 U021:6,
465 U021:7,
468 U021:8,
471 U021:9,
474 U021:P.
477 U021:The
480 U021:_B+1
483 U021:ad
486 U021:and
489 U021:cit.,
492 U021:de
495 U021:di
498 U021:e
501 U021:et
504 U021:in
507 U021:met.
510 U021:of
513 U021:p.
516 U021:pp.
519 U021:s.
522 U021:s.,
525 U021:s.;
528 U021:ss.
531 U021:ss.,
534 U021:ss.;
537 U021:und
540 U022:1
543 U022:1,
546 U022:2,
549 U022:3,
552 U022:4,
555 U022:5,
558 U022:6,
561 U022:7,
564 U022:9,
567 U022:P.
570 U022:The
573 U022:_B+1
576 U022:_B+2
579 U022:ad
582 U022:and
585 U022:cit.,
588 U022:de
591 U022:di
594 U022:e
597 U022:et
600 U022:in
603 U022:of
606 U022:p.
609 U022:pp.
612 U022:s.
615 U022:s.,
618 U022:s.;
621 U022:ss.
624 U022:ss.,
627 U022:ss.;
630 U022:und
633 U02:OTHERS
636 U02:UNPAIRED_ROUND_BRACKETS
639 U03:ALL_CAPS
642 U03:ALL_LOWER
645 U03:INIT_CAPS
648 U03:OTHERS
651 U03:_B-1
654 U03:_B-2
657 U06:0
660 U06:1
663 U06:10
666 U06:11
669 U06:12
672 U06:13
675 U06:14
678 U06:2
681 U06:3
684 U06:4
687 U06:5
690 U06:6
693 U06:7
696 U06:8
699 U06:9
702 U07:1
705 U07:13
708 U07:2
711 U07:3
714 U07:4
717 U07:5
720 U07:6
723 U07:7
726 U07:8
729 U07:_
732 U07:_B-1
735 U07:_B-2
738 U07:a
741 U07:ad
744 U07:aen
747 U07:am
750 U07:amore
753 U07:and
756 U07:cit
759 U07:de
762 U07:di
765 U07:die
768 U07:e
771 U07:et
774 U07:f
777 U07:fast
780 U07:g
783 U07:h
786 U07:hom
789 U07:il
792 U07:in
795 U07:j
798 U07:la
801 U07:m
804 U07:met
807 U07:od
810 U07:of
813 U07:ov
816 U07:ovid
819 U07:ovids
822 U07:p
825 U07:pp
828 U07:procris
831 U07:r
834 U07:s
837 U07:ss
840 U07:the
843 U07:und
846 U07:w
849 U08:1
852 U08:10
855 U08:11
858 U08:12
861 U08:13
864 U08:14
867 U08:15
870 U08:2
873 U08:3
876 U08:4
879 U08:5
882 U08:6
885 U08:7
888 U08:8
891 U08:9
894 U08:_
897 U08:a
900 U08:ad
903 U08:aen
906 U08:am
909 U08:amore
912 U08:and
915 U08:carm
918 U08:cit
921 U08:de
924 U08:di
927 U08:die
930 U08:e
933 U08:et
936 U08:f
939 U08:fast
942 U08:g
945 U08:h
948 U08:hom
951 U08:il
954 U08:in
957 U08:j
960 U08:la
963 U08:loc
966 U08:m
969 U08:met
972 U08:od
975 U08:of
978 U08:ov
981 U08:ovid
984 U08:ovids
987 U08:p
990 U08:pp
993 U08:procris
996 U08:prop
999 U08:r
1002 U08:s
1005 U08:ss
1008 U08:the
1011 U08:und
1014 U08:v
1017 U08:w
1020 U09:0
1023 U09:1
1026 U09:10
1029 U09:11
1032 U09:12
1035 U09:13
1038 U09:14
1041 U09:2
1044 U09:3
1047 U09:4
1050 U09:5
1053 U09:6
1056 U09:7
1059 U09:8
1062 U09:9
1065 U10:(
1068 U10:1
1071 U10:2
1074 U10:3
1077 U10:4
1080 U10:5
1083 U10:6
1086 U10:7
1089 U10:8
1092 U10:9
1095 U10:A
1098 U10:B
1101 U10:C
1104 U10:D
1107 U10:E
1110 U10:F
1113 U10:G
1116 U10:H
1119 U10:I
1122 U10:J
1125 U10:K
1128 U10:L
1131 U10:M
1134 U10:N
1137 U10:O
1140 U10:P
1143 U10:R
1146 U10:S
1149 U10:T
1152 U10:V
1155 U10:W
1158 U10:a
1161 U10:b
1164 U10:c
1167 U10:d
1170 U10:e
1173 U10:f
1176 U10:g
1179 U10:i
1182 U10:l
1185 U10:m
1188 U10:n
1191 U10:o
1194 U10:p
1197 U10:r
1200 U10:s
1203 U10:t
1206 U10:u
1209 U10:v
1212 U10:Â
1215 U11:1
1218 U11:1,
1221 U11:10
1224 U11:11
1227 U11:12
1230 U11:13
1233 U11:14
1236 U11:15
1239 U11:17
1242 U11:18
1245 U11:19
1248 U11:1;
1251 U11:2,
1254 U11:20
1257 U11:23
1260 U11:24
1263 U11:25
1266 U11:26
1269 U11:3,
1272 U11:30
1275 U11:33
1278 U11:4,
1281 U11:41
1284 U11:44
1287 U11:47
1290 U11:5,
1293 U11:52
1296 U11:57
1299 U11:6,
1302 U11:7,
1305 U11:8,
1308 U11:9,
1311 U11:A.
1314 U11:Ae
1317 U11:Am
1320 U11:An
1323 U11:Ap
1326 U11:Au
1329 U11:Ba
1332 U11:Be
1335 U11:Bo
1338 U11:BÃ
1341 U11:Ca
1344 U11:Da
1347 U11:De
1350 U11:Di
1353 U11:E.
1356 U11:F.
1359 U11:Fa
1362 U11:Fr
1365 U11:G.
1368 U11:H.
1371 U11:He
1374 U11:Ho
1377 U11:Hy
1380 U11:Il
1383 U11:J.
1386 U11:La
1389 U11:Le
1392 U11:Lu
1395 U11:M.
1398 U11:Ma
1401 U11:Me
1404 U11:Na
1407 U11:Od
1410 U11:Ov
1413 U11:P.
1416 U11:Pa
1419 U11:Pr
1422 U11:R.
1425 U11:Ro
1428 U11:Se
1431 U11:Si
1434 U11:Th
1437 U11:Ti
1440 U11:Va
1443 U11:Vi
1446 U11:W.
1449 U11:ad
1452 U11:am
1455 U11:an
1458 U11:ca
1461 U11:ci
1464 U11:co
1467 U11:cu
1470 U11:de
1473 U11:di
1476 U11:e
1479 U11:ep
1482 U11:et
1485 U11:fa
1488 U11:fr
1491 U11:in
1494 U11:la
1497 U11:le
1500 U11:li
1503 U11:lo
1506 U11:me
1509 U11:ne
1512 U11:of
1515 U11:p.
1518 U11:po
1521 U11:pp
1524 U11:s.
1527 U11:se
1530 U11:ss
1533 U11:su
1536 U11:te
1539 U11:tr
1542 U11:un
1545 U11:Â«
1548 U12:1
1551 U12:1,
1554 U12:10,
1557 U12:11,
1560 U12:14,
1563 U12:195
1566 U12:196
1569 U12:197
1572 U12:198
1575 U12:199
1578 U12:1;
1581 U12:2,
1584 U12:3,
1587 U12:4,
1590 U12:5,
1593 U12:6,
1596 U12:7,
1599 U12:8,
1602 U12:9,
1605 U12:A.
1608 U12:Aen
1611 U12:E.
1614 U12:F.
1617 U12:G.
1620 U12:H.
1623 U12:Hom
1626 U12:Hym
1629 U12:J.
1632 U12:Luc
1635 U12:M.
1638 U12:Met
1641 U12:Od.
1644 U12:Ov.
1647 U12:Ovi
1650 U12:P.
1653 U12:Par
1656 U12:Pro
1659 U12:R.
1662 U12:The
1665 U12:Tit
1668 U12:W.
1671 U12:ad
1674 U12:am.
1677 U12:and
1680 U12:car
1683 U12:cit
1686 U12:con
1689 U12:de
1692 U12:del
1695 U12:di
1698 U12:e
1701 U12:epi
1704 U12:et
1707 U12:fas
1710 U12:in
1713 U12:lib
1716 U12:loc
1719 U12:met
1722 U12:of
1725 U12:p.
1728 U12:pp.
1731 U12:s.
1734 U12:s.,
1737 U12:s.;
1740 U12:ss.
1743 U12:und
1746 U13:1
1749 U13:1,
1752 U13:10,
1755 U13:11,
1758 U13:14,
1761 U13:1;
1764 U13:2,
1767 U13:3,
1770 U13:4,
1773 U13:5,
1776 U13:6,
1779 U13:7,
1782 U13:8,
1785 U13:9,
1788 U13:A.
1791 U13:Aen.
1794 U13:E.
1797 U13:F.
1800 U13:G.
1803 U13:H.
1806 U13:Hom.
1809 U13:Hymn
1812 U13:J.
1815 U13:M.
1818 U13:Meta
1821 U13:Od.
1824 U13:Ov.
1827 U13:Ovid
1830 U13:P.
1833 U13:Proc
1836 U13:Prop
1839 U13:R.
1842 U13:The
1845 U13:Tith
1848 U13:W.
1851 U13:ad
1854 U13:am.
1857 U13:and
1860 U13:carm
1863 U13:cit.
1866 U13:de
1869 U13:di
1872 U13:e
1875 U13:et
1878 U13:fast
1881 U13:in
1884 U13:loc.
1887 U13:met.
1890 U13:of
1893 U13:p.
1896 U13:pp.
1899 U13:s.
1902 U13:s.,
1905 U13:s.;
1908 U13:ss.
1911 U13:ss.)
1914 U13:ss.,
1917 U13:ss.;
1920 U13:und
1923 U14:)
1926 U14:,
1929 U14:.
1932 U14:0
1935 U14:1
1938 U14:2
1941 U14:3
1944 U14:4
1947 U14:5
1950 U14:6
1953 U14:7
1956 U14:8
1959 U14:9
1962 U14::
1965 U14:;
1968 U14:a
1971 U14:d
1974 U14:e
1977 U14:f
1980 U14:g
1983 U14:i
1986 U14:l
1989 U14:m
1992 U14:n
1995 U14:o
1998 U14:r
2001 U14:s
2004 U14:t
2007 U14:u
2010 U14:»
2013 U15:),
2016 U15:).
2019 U15:);
2022 U15:.)
2025 U15:.,
2028 U15:..
2031 U15:.:
2034 U15:.;
2037 U15:0,
2040 U15:1
2043 U15:1,
2046 U15:1;
2049 U15:2,
2052 U15:21
2055 U15:26
2058 U15:3,
2061 U15:4,
2064 U15:44
2067 U15:4;
2070 U15:5,
2073 U15:6,
2076 U15:7,
2079 U15:8,
2082 U15:8;
2085 U15:9,
2088 U15:A.
2091 U15:C.
2094 U15:E.
2097 U15:F.
2100 U15:G.
2103 U15:H.
2106 U15:I,
2109 U15:J.
2112 U15:M.
2115 U15:P.
2118 U15:R.
2121 U15:W.
2124 U15:a,
2127 U15:ad
2130 U15:as
2133 U15:b.
2136 U15:c.
2139 U15:ca
2142 U15:d.
2145 U15:de
2148 U15:di
2151 U15:e
2154 U15:e,
2157 U15:en
2160 U15:er
2163 U15:es
2166 U15:et
2169 U15:g.
2172 U15:ge
2175 U15:h.
2178 U15:he
2181 U15:i,
2184 U15:ia
2187 U15:ie
2190 U15:in
2193 U15:is
2196 U15:l,
2199 U15:l.
2202 U15:le
2205 U15:m.
2208 U15:n,
2211 U15:n.
2214 U15:nd
2217 U15:ne
2220 U15:ni
2223 U15:no
2226 U15:ns
2229 U15:o,
2232 U15:of
2235 U15:on
2238 U15:os
2241 U15:p.
2244 U15:r,
2247 U15:r.
2250 U15:ra
2253 U15:re
2256 U15:s,
2259 U15:s.
2262 U15:t,
2265 U15:t.
2268 U15:ti
2271 U15:ue
2274 U15:um
2277 U15:ur
2280 U15:us
2283 U15:v.
2286 U15:Â»
2289 U16:,
2292 U16:.
2295 U16:...
2298 U16:.Â»
2301 U16:1
2304 U16:10,
2307 U16:11,
2310 U16:13,
2313 U16:14,
2316 U16:2
2319 U16:3
2322 U16:4
2325 U16:5
2328 U16:6
2331 U16:7
2334 U16:9
2337 U16:;
2340 U16:II,
2343 U16:Od.
2346 U16:Ov.
2349 U16:The
2352 U16:a
2355 U16:am.
2358 U16:and
2361 U16:che
2364 U16:d
2367 U16:e
2370 U16:en,
2373 U16:en.
2376 U16:er,
2379 U16:et.
2382 U16:f
2385 U16:hen
2388 U16:i
2391 U16:io,
2394 U16:it,
2397 U16:lle
2400 U16:n
2403 U16:nis
2406 U16:om.
2409 U16:oni
2412 U16:or.
2415 U16:ore
2418 U16:pp.
2421 U16:rg.
2424 U16:ris
2427 U16:s.,
2430 U16:s.;
2433 U16:ss.
2436 U16:st.
2439 U16:t
2442 U16:t.,
2445 U16:te,
2448 U16:und
2451 U16:us,
2454 U17:,
2457 U17:.
2460 U17:0
2463 U17:1
2466 U17:1,
2469 U17:1;
2472 U17:2
2475 U17:2,
2478 U17:3
2481 U17:3,
2484 U17:4
2487 U17:4,
2490 U17:5
2493 U17:5,
2496 U17:6
2499 U17:6,
2502 U17:7
2505 U17:7,
2508 U17:8
2511 U17:8,
2514 U17:9
2517 U17:9,
2520 U17::
2523 U17:;
2526 U17:A.
2529 U17:Aen.
2532 U17:E.
2535 U17:F.
2538 U17:G.
2541 U17:H.
2544 U17:Hom.
2547 U17:J.
2550 U17:M.
2553 U17:P.
2556 U17:R.
2559 U17:W.
2562 U17:ad
2565 U17:ast.
2568 U17:chen
2571 U17:d
2574 U17:de
2577 U17:di
2580 U17:e
2583 U17:et
2586 U17:i
2589 U17:in
2592 U17:ist.
2595 U17:it.,
2598 U17:met.
2601 U17:more
2604 U17:of
2607 U17:p.
2610 U17:r
2613 U17:s
2616 U17:s.
2619 U17:s...
2622 U17:ss.,
2625 U17:ss.;
2628 U23:1
2631 U23:10
2634 U23:11
2637 U23:12
2640 U23:13
2643 U23:14
2646 U23:15
2649 U23:2
2652 U23:3
2655 U23:4
2658 U23:5
2661 U23:6
2664 U23:7
2667 U23:8
2670 U23:9
2673 U23:_
2676 U23:_B+1
2679 U23:a
2682 U23:ad
2685 U23:amore
2688 U23:and
2691 U23:carm
2694 U23:cit
2697 U23:de
2700 U23:di
2703 U23:die
2706 U23:e
2709 U23:et
2712 U23:il
2715 U23:in
2718 U23:la
2721 U23:loc
2724 U23:met
2727 U23:of
2730 U23:ovid
2733 U23:ovids
2736 U23:p
2739 U23:pp
2742 U23:procris
2745 U23:r
2748 U23:s
2751 U23:ss
2754 U23:the
2757 U23:und
2760 U24:1
2763 U24:10
2766 U24:11
2769 U24:13
2772 U24:14
2775 U24:15
2778 U24:2
2781 U24:3
2784 U24:4
2787 U24:5
2790 U24:6
2793 U24:7
2796 U24:8
2799 U24:9
2802 U24:_
2805 U24:_B-1
2808 U24:a
2811 U24:ad
2814 U24:aen
2817 U24:am
2820 U24:amore
2823 U24:and
2826 U24:carm
2829 U24:cit
2832 U24:de
2835 U24:di
2838 U24:die
2841 U24:e
2844 U24:et
2847 U24:f
2850 U24:fast
2853 U24:g
2856 U24:h
2859 U24:hom
2862 U24:il
2865 U24:in
2868 U24:j
2871 U24:la
2874 U24:m
2877 U24:met
2880 U24:od
2883 U24:of
2886 U24:ov
2889 U24:ovid
2892 U24:ovids
2895 U24:p
2898 U24:pp
2901 U24:procris
2904 U24:prop
2907 U24:r
2910 U24:s
2913 U24:ss
2916 U24:the
2919 U24:und
2922 U24:v
2925 U24:w
2928 U25:1
2931 U25:12
2934 U25:14
2937 U25:15
2940 U25:2
2943 U25:3
2946 U25:4
2949 U25:5
2952 U25:6
2955 U25:7
2958 U25:8
2961 U25:9
2964 U25:_
2967 U25:_B+1
2970 U25:_B+2
2973 U25:a
2976 U25:ad
2979 U25:amore
2982 U25:and
2985 U25:cit
2988 U25:de
2991 U25:di
2994 U25:die
2997 U25:e
3000 U25:et
3003 U25:in
3006 U25:loc
3009 U25:of
3012 U25:ovid
3015 U25:ovids
3018 U25:p
3021 U25:pp
3024 U25:procris
3027 U25:r
3030 U25:s
3033 U25:ss
3036 U25:the
3039 U25:und
3042 U26:CONTINUING_PUNCTUATION
3045 U26:FINAL_DOT
3048 U26:OTHERS
3051 U26:_B-1
3054 U27:CONTINUING_PUNCTUATION
3057 U27:FINAL_DOT
3060 U27:OTHERS
3063 U28:CONTINUING_PUNCTUATION
3066 U28:FINAL_DOT
3069 U28:OTHERS
3072 U28:_B+1
3075 U29:CONTINUING_PUNCTUATION
3078 U29:FINAL_DOT
3081 U29:OTHERS
3084 U29:_B+1
3087 U29:_B+2
3090 U30:NO_DIGITS
3093 U30:NUMBER
3096 U30:OTHERS
3099 U30:_B-1
3102 U31:NO_DIGITS
3105 U31:NUMBER
3108 U31:OTHERS
3111 U32:NO_DIGITS
3114 U32:NUMBER
3117 U32:OTHERS
3120 U32:_B+1
3123 U347:ALL_CAPS
3126 U347:ALL_LOWER
3129 U347:INIT_CAPS
3132 U347:OTHERS
3135 U347:_B+1
3138 U347:_B+2
3141 U34:ALL_CAPS
3144 U34:ALL_LOWER
3147 U34:INIT_CAPS
3150 U34:OTHERS
3153 U34:_B+1
3156 U35:ALL_CAPS
3159 U35:ALL_LOWER
3162 U35:INIT_CAPS
3165 U35:OTHERS
3168 U36:ALL_CAPS
3171 U36:ALL_LOWER
3174 U36:INIT_CAPS
3177 U36:OTHERS
3180 U36:_B+1

-0.9225376959074811
1.8915502021089396
-1.2812899156341238
-0.6161161178851063
1.5553577610076048
-0.8824011510892010
0.7591105915446592
-3.0198418663523681
2.5161681922094035
-0.0399043275186363
0.0179176686176572
0.0219866589009961
-0.0648612082428137
0.1202275548623882
-0.0553663466195490
-0.0179408786977514
0.1113064743980914
-0.0933655957003235
-0.0235133489270211
0.2773949938524498
-0.2538816449254162
-0.0123124821940178
0.1700416425250739
-0.1577291603310390
-0.0057097306889230
0.2004164752378930
-0.1947067445489570
-0.0155725522385175
0.1483029629656540
-0.1327304107271325
-0.0173847515107011
0.1177093383471119
-0.1003245868363900
-0.0013066258378367
-0.0011962606969552
0.0025028865347984
-0.0061102026921267
0.1690862690669266
-0.1629760663747946
-0.0138980137147442
-0.0011450602167238
0.0150430739314780
-0.0013775391532016
-0.0013247664554343
0.0027023056086460
-0.0250650221278306
-0.0018730825917376
0.0269381047195794
-0.0034688092277768
-0.0011898270298565
0.0046586362576623
-0.0226772786842081
-0.1459259039822097
0.1686031826664167
-0.0081605514167738
-0.0036110189937277
0.0117715704105084
-0.0019155251778733
-0.0013411470260486
0.0032566722039513
-0.0022908649800191
0.0488435482554124
-0.0465526832753905
-0.0044641322789015
0.0339437222139711
-0.0294795899350677
-0.0054196032592751
-0.0018028650977754
0.0072224683570808
-0.0033475404767923
-0.0010357074573480
0.0043832479341669
-0.0106483769262513
-0.0013482580925379
0.0119966350188117
-0.0011796145376690
-0.0010888888175169
0.0022685033552201
0.0672547135786391
0.0964248166433004
-0.1636795302218751
0.2593597787154409
-0.3074978553935101
0.0481380766780857
-0.1484872671706832
0.0103012410276122
0.1381860261430777
-0.0361252333352992
0.2406119144999950
-0.2044866811646942
-0.0029141260162938
-0.0016527609429168
0.0045668869592202
-0.1771351610979180
0.2179939598187087
-0.0408587987207999
-0.0058117162232945
-0.0010777279234919
0.0068894441468115
-0.0107049374335720
0.0233513394853727
-0.0126464020518324
0.2091035982048580
0.0383237410013126
-0.2474273392061506
0.1077785221340583
-0.0097725901495672
-0.0980059319845040
-0.0042112894771267
0.0867053664836040
-0.0824940770064792
-0.0312998720982690
0.1626693560175397
-0.1313694839192592
-0.0082386204598086
0.4354122068607684
-0.4271735864009534
-0.1224419641452019
-0.0232687885747578
0.1457107527199679
-0.0728278866878743
-0.4497882253764516
0.5226161120643118
-0.0087572665136060
0.0626307402838203
-0.0538734737702054
-0.0680214829253604
-0.0159180188657077
0.0839395017911172
-0.0029853823952069
0.0019533525707523
0.0010320298244586
-0.1011414243323905
0.2690370219869010
-0.1678955976545061
-0.0036628120160976
0.2449127268919555
-0.2412499148758415
-0.0022146999835970
-0.2051336007536669
0.2073483007372549
-0.0044776407985519
0.1410961931110316
-0.1366185523124724
-0.0281267924417117
0.3742166007617697
-0.3460898083200292
-0.0285946743428736
0.4290994476727494
-0.4005047733298662
-0.0520695164837121
0.1360176329479733
-0.0839481164642444
-0.0066851039766354
0.0312190116772043
-0.0245339077005420
-0.0145588138549655
0.1781063175138253
-0.1635475036588370
-0.0087607205442608
0.3432139663268696
-0.3344532457826047
-0.0082753470954424
-0.1964577200287436
0.2047330671242024
-0.0192157918863494
0.0989598233968073
-0.0797440315104561
-0.0021328554365558
-0.0104414497796042
0.0125743052161713
-0.0611718756663312
0.1334705104183863
-0.0722986347520450
-0.0018694007378255
-0.0022185831331340
0.0040879838709660
-0.0012511666463610
-0.0174766798062693
0.0187278464526347
-0.0028297237715512
-0.0224694214058575
0.0252991451774165
-0.0015137886236920
-0.0057238231287916
0.0072376117525061
-0.0384420596435113
0.1368214302440615
-0.0983793706005483
-0.0025859796102490
-0.0206126084643917
0.0231985880746484
-0.0043605651197054
-0.0046515585519766
0.0090121236716911
-0.0170226216572948
0.0382216572664157
-0.0211990356091218
0.1683435915850700
-0.1239309871834593
-0.0444126044016081
-0.0025546853239135
-0.0047775675941749
0.0073322529181181
-0.0015575785285114
-0.0088184158895904
0.0103759944181133
-0.0017146950901976
-0.0007855398102473
0.0025002349004633
-0.0019067994507260
-0.0082158439458634
0.0101226433966072
0.2593597787154409
-0.3074978553935101
0.0481380766780857
0.2391413526949266
-0.1629002790167166
-0.0762410736782019
-0.0025081398899997
0.1505778290115971
-0.1480696891215889
-0.0130502869218467
-0.0010770201426077
0.0141273070644551
-0.0550394131417460
-0.0076576416852134
0.0626970548269618
-0.0052924810410412
-0.0013634880004748
0.0066559690415514
0.2080501492744720
-0.1913726833669893
-0.0166774659074990
0.1932046468076289
-0.2696714313206626
0.0764667845130693
-0.0157197978107759
-0.0012258117287140
0.0169456095395085
-0.0584990725465622
0.0908869636583928
-0.0323878911118349
0.3037348629850254
-0.1946658676852123
-0.1090689952997847
-0.0488017863973539
0.3128195263060776
-0.2640177399087146
-0.0350934700517423
-0.0017185259170228
0.0368119959687765
-0.0053900716726677
-0.3283920047672105
0.3337820764398520
-0.0204978931660830
-0.3487083806863353
0.3692062738524454
-0.1838168812047475
0.1596396860405365
0.0241771951642126
-0.0482338776478365
0.3195009397949951
-0.2712670621471771
-0.0182014671926639
-0.0022125461588922
0.0204140133516053
-0.3701298824533952
-0.1304426411681530
0.5005725236223124
-0.6037722642067951
0.7571534823202863
-0.1533812181131222
0.1271042108336130
-0.2960695610312707
0.1689653501986680
0.0672547135786391
0.0964248166433004
-0.1636795302218751
0.2593597787154409
-0.3074978553935101
0.0481380766780857
-0.0400749370132237
-0.0526535058384835
0.0927284428517148
-0.1264153032847693
0.0174478411903884
0.1089674620943845
0.1442391781797520
0.0893761213122327
-0.2336152994919667
-0.0772315655196625
0.5371046243483373
-0.4598730588286833
0.0804938254127355
-0.0316682797911185
-0.0488255456216057
-0.0028428455169357
0.2125404593974910
-0.2096976138805278
-0.1883412853839311
0.1610434111673442
0.0272978742166163
0.1292551656965932
0.0125351905812173
-0.1417903562778074
0.1834260066658068
-0.2091179967552607
0.0256919900894617
0.0616500888290350
0.0095320279757183
-0.0711821168047195
0.0309604293534187
0.0447547128940196
-0.0757151422474261
0.1791462861726731
-0.0147609474374089
-0.1643853387352554
0.1500659406150092
0.1781919179740978
-0.3282578585890840
-0.0558290982460018
-0.0034587361580564
0.0592878344040625
-0.0205508884735755
-0.0125366858607784
0.0330875743343608
0.1046893455915844
0.0605354589344315
-0.1652248045260085
-0.0091439175869434
-0.0112219626245152
0.0203658802114654
-0.0315120650653241
-0.0196558020029079
0.0511678670682306
-0.0348299859180949
-0.0196588341433840
0.0544888200614821
-0.0120571941737501
-0.0201176515839160
0.0321748457576702
0.0151022368121367
0.0327637465466510
-0.0478659833587880
-0.0382836247815848
-0.0201938442555333
0.0584774690371169
-0.0088067544917226
-0.0108686562732422
0.0196754107649737
-0.0187027550196199
0.0911321464041522
-0.0724293913845336
0.1659367736747414
-0.0112684268645979
-0.1546683468101421
-0.0272836560459330
-0.0160284946975562
0.0433121507435082
-0.0134746436590664
0.0818352109571560
-0.0683605672980840
-0.0021391270142420
-0.0006458334320531
0.0027849604462962
-0.0103947949917823
-0.0333274849688588
0.0437222799606452
-0.0734549308300287
-0.0555013658303475
0.1289562966603983
0.4606530146267390
-0.2919734613769676
-0.1686795532497671
-0.0016861870773522
-0.0016166084105385
0.0033027954878918
-0.0083444095388767
-0.0170065427139091
0.0253509522527880
-0.0004224690685062
-0.0004309319682738
0.0008534010368189
-0.0394067251117177
-0.0029088674217153
0.0423155925334150
-0.0094758735875328
-0.0308974454283970
0.0403733190159611
-0.0010240547683166
-0.0019116185977147
0.0029356733660281
0.1742343327767250
-0.0884220100463557
-0.0858123227303721
-0.0494104721115815
0.0389746964181585
0.0104357756934357
0.2002449380407858
0.0352566047772176
-0.2355015428180007
-0.0013625642087799
-0.0016283237719212
0.0029908879807068
-0.0193115353243762
-0.0610748903962984
0.0803864257206657
-0.1219377212495165
-0.0367079598775940
0.1586456811271472
-0.0066326762020178
0.1615646695482536
-0.1549319933462318
-0.0412515401928210
0.0865016740241147
-0.0452501338313097
-0.0181620197463231
-0.0271534282417146
0.0453154479880544
-0.0106556163140445
-0.0237424157779469
0.0343980320919746
-0.0649037679305729
-0.1136749368621971
0.1785787047927431
-0.0038880690707440
0.0099448474239299
-0.0060567783531854
-0.0008016550969657
-0.0010697571556122
0.0018714122526183
-0.0925591511068695
0.0290962209127451
0.0634629301941374
0.1722948144145265
0.1178527787662441
-0.2901475931807656
-0.0182669779509216
-0.3282559116237855
0.3465228895747196
-0.2659089243235150
-0.0708185057119809
0.3367274300354934
0.1495226830182354
-0.1369505447220916
-0.0125721382961300
0.2221891709123771
-0.5002675443981204
0.2780783734857662
-0.1509075725950612
0.0353707010127996
0.1155368715822847
0.0942628287097442
0.2781567374143128
-0.3724195661240515
0.2488988305463306
-0.3823881905358490
0.1334893599895373
0.1908343765618917
-0.0534816807967116
-0.1373526957651479
0.0468400732567675
0.1519125849239576
-0.1987526581807064
0.1413436506231717
-0.1622456284885914
0.0209019778654217
-0.0619463458661955
-0.0956348981213953
0.1575812439876153
-0.2151124758851827
0.2178277060841019
-0.0027152301989113
-0.0090454584758942
-0.0040462764742924
0.0130917349502045
-0.0019484397819675
-0.0009520836639261
0.0029005234459028
-0.2079060340998045
0.0627277493373797
0.1451782847623760
-0.0692841900162268
-0.0450190529049216
0.1143032429211777
-0.0022548316720674
-0.0017612803496296
0.0040161120217161
-0.0096101205042985
-0.0055618727993355
0.0151719933036454
-0.0025035669385824
-0.0029998598212549
0.0055034267598702
-0.0040285880030439
-0.0042276316638097
0.0082562196668156
-0.0328771206483309
-0.3179781604965706
0.3508552811449333
-0.0015423550219480
-0.0025694911998769
0.0041118462218194
-0.0260116187864952
-0.0143606771734335
0.0403722959599297
-0.1392396567743492
-0.3054280090230103
0.4446676657973578
-0.0019747448916140
-0.0008468754827613
0.0028216203743915
-0.0541384187068674
-0.0561711947542614
0.1103096134611344
-0.0367740093895966
-0.1553891946543263
0.1921632040439930
-0.0935300984602915
-0.0040971014929128
0.0976271999532126
-0.0099120032237071
0.1210537296343086
-0.1111417264106094
-0.0250677540969393
-0.0310575358720846
0.0561252899690393
-0.0437401325844791
-0.2573044534089224
0.3010445859934102
-0.0063547128013349
0.3968109364529513
-0.3904562236516331
-0.0049057351013366
-0.2481201649248464
0.2530259000261834
-0.0018564670246981
-0.0008670743120833
0.0027235413368203
-0.0250355119892453
-0.0120112750321919
0.0370467870214443
0.1107291540870748
-0.0774156418329428
-0.0333135122541270
0.1457529707637362
-0.0828902221341676
-0.0628627486295466
-0.3522545021690126
0.1774137854667380
0.1748407167022858
0.0050500117704377
-0.0028595579355316
-0.0021904538348899
0.2896886427798306
-0.3630573779299733
0.0733687351501678
0.2095047652422028
0.0011146856097065
-0.2106194508518944
0.0897258488679727
-0.0945172156515207
0.0047913667835484
0.0107666426971131
-0.3533756305224789
0.3426089878253752
-0.0058734801810822
-0.0115022281718874
0.0173757083529784
-0.0034311877842884
-0.0062540970114654
0.0096852847957606
-0.1905435872429015
0.0656533318741176
0.1248902553688118
-0.2079060340998045
0.0627277493373797
0.1451782847623760
-0.0344313333732832
-0.0100727616018215
0.0445040949751390
-0.0180161671350732
-0.0038075092168186
0.0218236763518820
-0.0262023934959796
-0.0056369723631614
0.0318393658591686
-0.0042946754610615
-0.0037562970483359
0.0080509725094281
-0.0167771247493559
-0.0043307751508984
0.0211078999002139
-0.1072373860893670
0.0387172318524601
0.0685201542369473
-0.0094087268045965
-0.0050618589631594
0.0144705857677599
-0.0053482019856367
-0.1368878941354403
0.1422360961210716
-0.0024063238475400
-0.0008915480222118
0.0032978718697567
-0.0380853414785859
-0.1069760255986531
0.1450613670772498
-0.0541583809154383
0.0647772891075520
-0.0106189081920054
0.1356224641728847
-0.0645226734600505
-0.0710997907128312
-0.0994459389679179
0.2601601840363845
-0.1607142450684788
-0.1467521771336932
0.0568302931605186
0.0899218839731917
-0.3118234053715258
-0.0049578867719789
0.3167812921435280
0.0493095024167824
0.3162913288715937
-0.3656008312883799
0.2119845843128732
-0.5497532545989032
0.3377686702860291
-0.0015566919929144
-0.0045861443547245
0.0061428363476754
-0.6664832877732433
0.3951689312672320
0.2713143565082628
-0.0533541746657907
0.2062523517143973
-0.1528981770486383
-0.1678572494310888
-0.6273041484613442
0.7951613978926539
0.0026901614121513
0.2067264324955145
-0.2094165939072657
-0.4353505223574571
0.5077579045400198
-0.0724073821817229
-0.2462803254501830
0.2434610915466723
0.0028192339041934
0.0672547135786391
0.0964248166433004
-0.1636795302218751
0.2593597787154409
-0.3074978553935101
0.0481380766780857
-0.0047804101601215
0.0304892644000039
-0.0257088542398739
-0.2077169905205159
0.3812700242244351
-0.1735530337036447
-0.1102792628662819
-0.0143678666688707
0.1246471295352009
-0.0107405067345043
-0.0071697933190694
0.0179103000536013
-0.0182004688373372
-0.0108359137154489
0.0290363825528062
-0.0057263327900805
-0.0062527858345932
0.0119791186247094
-0.0023306663275880
-0.1753759300716013
0.1777065963992189
0.0020272154061937
0.2440579539287772
-0.2460851693346965
-0.0090590533360585
0.2348562209886950
-0.2257971676522201
0.0382081250213365
-0.0275430568319059
-0.0106650681891894
0.3635677588401706
-0.2518321575534732
-0.1117356012865174
-0.1757309979463292
0.1842700410144356
-0.0085390430679703
-0.2720182165872460
-0.2263344745195535
0.4983526911069943
-0.1065564757398988
-0.1833164747898038
0.2898729505298692
0.0088933102533405
-0.0434593268749714
0.0345660166217842
-0.0554724268710702
0.1833109359477511
-0.1278385090766319
0.3755818684227784
-0.0984637735007496
-0.2771180949220117
-0.0652151981017841
0.1972514983487262
-0.1320363002469175
-0.0221544895186548
0.5223890201090488
-0.5002345305903766
-0.0602026359515766
0.6907864204426344
-0.6305837844910427
-0.0124242489711085
0.1981519197404857
-0.1857276707693600
-0.0431106184944721
0.1978360315508971
-0.1547254130564122
-0.0169977620712330
0.1205074065762588
-0.1035096445050195
-0.0182598211832280
0.1273109595173931
-0.1090511383341376
-0.0017272116708412
0.0319501884714772
-0.0302229768006371
0.0672547135786391
0.0964248166433004
-0.1636795302218751
0.2593597787154409
-0.3074978553935101
0.0481380766780857
-0.0441122570530464
-0.0708997197216509
0.1150119767747018
-0.0423875971649546
-0.0653299962908465
0.1077175934558093
-0.0062025073701753
0.1708746593756317
-0.1646721520054515
-0.0361252333352992
0.2406119144999950
-0.2044866811646942
-0.0018642606341808
-0.0056671309205508
0.0075313915547472
-0.0029141260162938
-0.0016527609429168
0.0045668869592202
-0.1870190302499095
0.0410472941340527
0.1459717361158447
-0.0068040641117633
-0.0041805663218239
0.0109846304336228
-0.0107049374335720
0.0233513394853727
-0.0126464020518324
-0.0078655873425125
-0.0015641359627577
0.0094297233052827
0.1892950557516729
0.0362070491383497
-0.2255021048899935
0.1071492688552923
-0.0319175883036302
-0.0752316805516764
-0.0013775391532016
-0.0013247664554343
0.0027023056086460
-0.0043883078814222
0.1497918552143360
-0.1454035473329157
-0.0250650221278306
-0.0018730825917376
0.0269381047195794
-0.0034688092277768
-0.0011898270298565
0.0046586362576623
-0.0231757379106914
-0.1393242889117194
0.1625000268224094
0.0067347763303253
-0.0388331528709652
0.0320983765406490
-0.0319054567267508
0.1618850563954112
-0.1299795996686541
-0.0081605514167738
-0.0036110189937277
0.0117715704105084
-0.0258846553182098
-0.1401619596469015
0.1660466149651215
0.0347033553318406
-0.0125756232363440
-0.0221277320954680
-0.0083247667889401
0.4364303748410792
-0.4281056080521328
-0.0022908649800191
0.0488435482554124
-0.0465526832753905
-0.1224419641452019
-0.0232687885747578
0.1457107527199679
-0.0049781430320291
0.2730647052599090
-0.2680865622278669
-0.0044220417900759
-0.0289898226892869
0.0334118644793889
-0.0037509672850406
-0.0042627309451422
0.0080136982302112
-0.0092832567339373
-0.0147572412730244
0.0240404980069887
-0.0752332294597930
-0.5440611788505701
0.6192944083103451
-0.0161747844592830
0.0837061708203348
-0.0675313863610526
0.1484051396696574
-0.0667232721543909
-0.0816818675152396
-0.0690204648613091
-0.0999544122614711
0.1689748771228231
0.2238322713994944
-0.2899797714606425
0.0661475000611489
-0.0185263187136881
-0.0023789226110778
0.0209052413248067
-0.0680214829253604
-0.0159180188657077
0.0839395017911172
-0.0011796145376690
-0.0010888888175169
0.0022685033552201
0.0411856361337110
-0.0065409145979026
-0.0346447215357699
0.3273539200797955
-0.1669406997457445
-0.1604132203340329
0.0605317553344538
0.3534249884359874
-0.4139567437704471
-0.0821626892282850
-0.0311653786491979
0.1133280678775006
0.2288525434021112
-0.0648316193580834
-0.1640209240440096
0.2786782302601394
-0.1638001210832155
-0.1148781091769121
0.1393963098786058
0.0931540746353230
-0.2325503845139179
-0.0949423300603875
-0.0531755651546547
0.1481178952150711
-0.0597238407428419
0.0463019839176741
0.0134218568251632
-0.0390584425744415
-0.0200841575626467
0.0591426001371028
0.0600126276852778
0.0467577727781206
-0.1067704004633670
0.0301553036217682
0.0065624552498875
-0.0367177588716423
0.3017954396846478
0.1181630609537241
-0.4199585006383624
0.1446242939224363
0.2006829486028493
-0.3453072425252579
-0.0569617842124932
0.1395619050770616
-0.0826001208645626
-0.0047804101601215
0.0304892644000039
-0.0257088542398739
-0.0222823682841597
-0.0160369252459164
0.0383192935300811
-0.0830871618217123
-0.0571009840889381
0.1401881459106731
0.1093891909364465
0.0572940512180798
-0.1666832421545184
0.4606530146267390
-0.2919734613769676
-0.1686795532497671
-0.0050140053296730
-0.0004035960873323
0.0054176014170249
-0.0016861870773522
-0.0016166084105385
0.0033027954878918
-0.0715612255200845
-0.1408645151451601
0.2124257406652443
-0.0756689769887236
0.4482482094284195
-0.3725792324396917
-0.0009905163219426
-0.0012233974671781
0.0022139137891666
-0.0394067251117177
-0.0029088674217153
0.0423155925334150
-0.0013376325077120
-0.0007170688030887
0.0020547013108033
-0.0186774718946088
-0.0423942852939648
0.0610717571886139
-0.0044734849522278
-0.0116613986608876
0.0161348836131130
-0.0331000364789638
0.0651186193263855
-0.0320185828474219
0.2700195979827910
-0.0923804009631247
-0.1776391970196690
-0.0348299859180949
-0.0196588341433840
0.0544888200614821
-0.0120571941737501
-0.0201176515839160
0.0321748457576702
0.0327855958870365
0.0307720436783553
-0.0635576395653924
-0.0248135471322601
-0.0773293671877257
0.1021429143199940
-0.0495297208110525
0.0388582228968994
0.0106714979141625
-0.0382836247815848
-0.0201938442555333
0.0584774690371169
-0.0607533489823185
-0.0174985818842743
0.0782519308665859
-0.0079767285850493
-0.0228708221598694
0.0308475507449285
-0.0112253843150132
-0.0128557997275943
0.0240811840426163
0.2031198317205985
0.0635479396838748
-0.2666677714044708
-0.0187027550196199
0.0911321464041522
-0.0724293913845336
-0.0013625642087799
-0.0016283237719212
0.0029908879807068
0.2728258877548962
-0.0152822703667069
-0.2575436173881920
-0.0314758766161266
-0.0032029707660527
0.0346788473822126
-0.0630324286711842
-0.0057052136219520
0.0687376422931578
-0.0465951913703092
-0.0771033850938546
0.1236985764641740
-0.1589462583757779
-0.0372812666858193
0.1962275250616328
-0.0166431203922639
-0.0008104654166578
0.0174535858089252
0.1738012893706644
-0.0667386955979289
-0.1070625937727388
-0.0157979824830805
-0.2231210634265070
0.2389190459095918
-0.0761291421888325
0.5031557000912794
-0.4270265579024048
-0.0817476385815652
0.2730488866213365
-0.1913012480398078
-0.0024297733710018
-0.0009653863723608
0.0033951597433777
-0.0008016550969657
-0.0010697571556122
0.0018714122526183
-0.1404773051158761
-0.1412782923870574
0.2817555975029363
-0.0103947949917823
-0.0333274849688588
0.0437222799606452
-0.0047804101601215
0.0304892644000039
-0.0257088542398739
-0.2077169905205159
0.3812700242244351
-0.1735530337036447
-0.1102792628662819
-0.0143678666688707
0.1246471295352009
-0.0107405067345043
-0.0071697933190694
0.0179103000536013
-0.0182004688373372
-0.0108359137154489
0.0290363825528062
-0.0057263327900805
-0.0062527858345932
0.0119791186247094
-0.0023306663275880
-0.1753759300716013
0.1777065963992189
0.0020272154061937
0.2440579539287772
-0.2460851693346965
-0.0090590533360585
0.2348562209886950
-0.2257971676522201
0.0382081250213365
-0.0275430568319059
-0.0106650681891894
0.3635677588401706
-0.2518321575534732
-0.1117356012865174
-0.1757309979463292
0.1842700410144356
-0.0085390430679703
-0.2720182165872460
-0.2263344745195535
0.4983526911069943
-0.1065564757398988
-0.1833164747898038
0.2898729505298692
0.0088933102533405
-0.0434593268749714
0.0345660166217842
0.2860250370580987
-0.6726265693732250
0.3866015323151162
-0.1332288876239499
0.0320810190072635
0.1011478686170508
-0.4787915637767922
0.6710643317460723
-0.1922727679692447
0.0730503177249922
0.2428516794036505
-0.3159019971286087
0.0143642904725127
0.2763178658495934
-0.2906821563220211
-0.0115724430097477
0.2240827517311014
-0.2125103087212799
-0.1371048101093312
-0.2624828010325127
0.3995876111418500
0.1376473207760234
-0.2086224961139346
0.0709751753379208
-0.0257919118996075
0.3400832745399602
-0.3142913626403335
-0.0658118720511437
0.1797577900073077
-0.1139459179561609
-0.2327856851319673
-0.0091413704455622
0.2419270555775974
-0.1663180079197937
0.1629930626622695
0.0033249452575953
-0.2411270541164620
0.1603030105111113
0.0808240436053776
-0.2950228871029234
-0.0122903890249129
0.3073132761278990
0.0512351512901925
-0.0550013299207877
0.0037661786306322
0.5400586897007000
-0.0993125696317877
-0.4407461200688787
0.1495083305499109
-0.0501576530372464
-0.0993506775126424
0.0605924800742900
0.1741764407891429
-0.2347689208633987
-0.1226670645983921
-0.1715917575600148
0.2942588221584596
0.4396626025026230
-0.1953850267883187
-0.2442775757142966
-0.0059100292275756
-0.0044469875495173
0.0103570167771247
0.1395891780486911
0.1820235730478297
-0.3216127510964595
-0.3277308222943545
-0.0431533735515292
0.3708841958459625
0.0281982060294848
-0.1683630156543084
0.1401648096248515
0.0970365151330111
-0.0213771521673692
-0.0756593629655270
0.2586066186255963
-0.2899572747129370
0.0313506560874295
-0.1807572905569120
0.0842441700720212
0.0965131204849160
-0.2293817306450313
0.3115706753533137
-0.0821889447082211
0.0762664452383896
-0.1108196609651991
0.0345532157268464
0.3200195909795575
0.1124944949457200
-0.4325140859252881
-0.0221618374650514
-0.0996074847193323
0.1217693221844038
0.8320515178669927
-0.4757449064107630
-0.3563066114561577
-0.0069309476215272
-0.0145151119341567
0.0214460595556879
-0.1780886359846793
-0.0313124020155997
0.2094010380003230
-0.0781496067798755
-0.5450914812012491
0.6232410879811917
-0.5325170092781395
0.3971446160566154
0.1353723932215284
0.3611182084482359
0.0571715982600842
-0.4182898067083314
0.1155353703240408
-0.1119226554928727
-0.0036127148311760
-0.0708550701176289
0.0331654725150523
0.0376895976025935
-0.1138814878788182
0.0448065268416569
0.0690749610372300
-0.1078258485661061
0.0660873480866462
0.0417385004794422
-0.0155426221241516
-0.0852679632416253
0.1008105853657987
-0.0054072473152563
-0.0033190165606559
0.0087262638758804
0.1399371471656652
0.0955826603317585
-0.2355198074973526
-0.0071052851662242
-0.0063653791879063
0.0134706643541490
-0.1642778161767855
0.6290346851451676
-0.4647568689684062
0.1091672525875924
-0.0616453677970997
-0.0475218847903934
-0.0023473683641821
-0.0358424691976789
0.0381898375618985
-0.5646512271940690
-0.0855007811797123
0.6501520083737875
-0.1481151138278237
-0.2416961838057352
0.3898112976336486
-0.0400749370132237
-0.0526535058384835
0.0927284428517148
-0.1264153032847693
0.0174478411903884
0.1089674620943845
0.1103071431344636
0.1218019679400664
-0.2321091110745016
-0.1116261517022280
0.3279325714863380
-0.2163064197841137
-0.1441613077161743
0.1580764071557003
-0.0139150994395304
0.1432635687358766
0.0894516432032522
-0.2327152119390965
0.2503072313071100
-0.1136189986293840
-0.1366882326777117
0.0360984293119093
0.0623865467543381
-0.0984849760662223
-0.0328398674421822
-0.2987176466428444
0.3315575140850542
-0.1191699915988613
0.0387532530644803
0.0804167385344530
-0.0868628232888406
-0.2659427430964177
0.3528055663853802
-0.0028428455169357
0.2125404593974910
-0.2096976138805278
-0.1883412853839311
0.1610434111673442
0.0272978742166163
-0.0073010080873292
-0.2535943105821986
0.2608953186695218
-0.1702888739169991
-0.0255192726728728
0.1958081465898754
-0.0140208375643657
-0.2449367870047547
0.2589576245691268
-0.0016004837012210
0.2183321244118884
-0.2167316407106679
-0.0075277158324315
0.0608433515407921
-0.0533156357083527
0.1292551656965932
0.0125351905812173
-0.1417903562778074
-0.0276082138648461
0.1007818009545043
-0.0731735870896329
-0.0024241086302036
-0.0420233568864559
0.0444474655166572
0.1834260066658068
-0.2091179967552607
0.0256919900894617
-0.0166324317261801
-0.2201929837312636
0.2368254154574477
-0.0042270620080872
0.4579160587914055
-0.4536889967833133
-0.0069877005084419
-0.2239243478359607
0.2309120483444248
0.0616500888290350
0.0095320279757183
-0.0711821168047195
-0.0018068467922450
-0.0001530952431277
0.0019599420353732
-0.0062650385918428
0.3266946793786674
-0.3204296407868032
0.0309604293534187
0.0447547128940196
-0.0757151422474261
0.1791462861726731
-0.0147609474374089
-0.1643853387352554
0.1500659406150092
0.1781919179740978
-0.3282578585890840
-0.0558290982460018
-0.0034587361580564
0.0592878344040625
-0.0290008530107923
-0.0381480379880188
0.0671488909988163
0.0972530597711701
0.0601370597205986
-0.1573901194917536
-0.0745740263419135
0.0590545020061352
0.0155195243357887
0.0522525995253926
-0.0137949989000900
-0.0384576006252951
0.1265662522311757
-0.0438070518093350
-0.0827592004218605
-0.1099524134061807
-0.0109919896580357
0.1209444030642239
-0.0074176425598947
-0.0024360433464659
0.0098536859063825
-0.0360609848643433
-0.0154527033040803
0.0515136881684465
-0.0541677398035283
-0.0032694339407492
0.0574371737442982
-0.1249531833987531
0.1903903408455590
-0.0654371574468051
-0.4161851334614302
0.2286364375724330
0.1875486958890280
-0.2404778030959182
-0.0028406835802975
0.2433184866762240
-0.0051244113542972
-0.0015951418799195
0.0067195532342356
-0.0049028502748465
-0.0045881501919621
0.0094910004668335
-0.0091439175869434
-0.0112219626245152
0.0203658802114654
-0.0315120650653241
-0.0196558020029079
0.0511678670682306
0.1280086989179259
-0.0070374611014902
-0.1209712378164270
-0.0079479282517122
-0.0066140437185370
0.0145619719702613
-0.0348299859180949
-0.0196588341433840
0.0544888200614821
-0.0120571941737501
-0.0201176515839160
0.0321748457576702
-0.1447260544866304
-0.0061338232454708
0.1508598777321038
0.2679479893461018
0.0127757802356568
-0.2807237695817438
-0.0405096662475779
0.1780568904476123
-0.1375472242000126
-0.0246688432239030
-0.0770995415208515
0.1017683847447607
-0.1046723090279426
-0.0320829924593488
0.1367553014872903
-0.0563352109632955
0.0120649271624546
0.0442702838008491
-0.2460907371004045
-0.0081472661027607
0.2542380032032095
0.3749079215561510
-0.0327187199806909
-0.3421892015754591
-0.0088067544917226
-0.0108686562732422
0.0196754107649737
0.0597102533654959
0.0455829189233580
-0.1052931722888564
-0.2561649229164071
-0.0470433665764457
0.3032082894928799
-0.0032068615493621
-0.0009601620965914
0.0041670236459633
-0.0187027550196199
0.0911321464041522
-0.0724293913845336
0.2150067999514379
-0.0465689662255156
-0.1684378337258066
-0.0272836560459330
-0.0160284946975562
0.0433121507435082
-0.1207513443808099
0.0375698875873917
0.0831814567934271
0.2763347712321848
-0.3155831010445715
0.0392483298124152
-0.0134746436590664
0.0818352109571560
-0.0683605672980840
-0.1112249150610747
-0.0172326056597728
0.1284575207208725
-0.1055592312017837
0.4051055461876850
-0.2995463149858912
0.0906773115677452
-0.0013861997680468
-0.0892911117997006
0.0000437088691598
-0.0198495984733236
0.0198058896041419
0.1023059822416225
-0.0533977170144401
-0.0489082652271448
0.3508096283157989
-0.0269244478080289
-0.3238851805077663
-0.0153237886542176
-0.0069282310474547
0.0222520197016478
-0.0103947949917823
-0.0333274849688588
0.0437222799606452
-0.0734994257331252
-0.0555331731098490
0.1290325988429908
0.4193298267842305
-0.3083386013686321
-0.1109912254155582
0.1521196573021295
0.0137321862520515
-0.1658518435541788
-0.0722481089765347
-0.1417028977205965
0.2139510066971371
-0.0774290408781789
0.3949924224716594
-0.3175633815934795
-0.0024136642243731
-0.0015947363947459
0.0040084006191723
-0.0124559492295226
-0.1143707768030037
0.1268267260325127
-0.0279968379543663
-0.2696409843110449
0.2976378222654660
-0.0431100060881916
-0.2656203823412777
0.3087303884294473
-0.0094758735875328
-0.0308974454283970
0.0403733190159611
0.3126015416731667
-0.1053169030719700
-0.2072846386012206
-0.0010240547683166
-0.0019116185977147
0.0029356733660281
0.4557011337371387
-0.0915916470629432
-0.3641094866741983
-0.0714245882833344
0.1109480537021351
-0.0395234654187953
-0.0653919805747427
0.0385069437101152
0.0268850368646376
-0.0477635183822714
0.0026509277950047
0.0451125905872919
-0.0011753746123130
-0.0008536952873216
0.0020290698996600
-0.0541973475955448
0.0736453553323339
-0.0194480077367786
-0.0086164967212803
-0.0238941745623264
0.0325106712836088
0.1727215017476215
0.0694522782309750
-0.2421737799785938
-0.0055643770709876
-0.0012186373599359
0.0067830144309423
-0.0013625642087799
-0.0016283237719212
0.0029908879807068
-0.0193115353243762
-0.0610748903962984
0.0803864257206657
-0.0047588857997375
-0.0030849318264900
0.0078438176262637
-0.1219377212495165
-0.0367079598775940
0.1586456811271472
-0.0791671453550929
0.4196398661870742
-0.3404727208319434
-0.0037505640161364
-0.0042489967390096
0.0079995607551616
-0.0817476385815652
0.2730488866213365
-0.1913012480398078
-0.0009378139703641
-0.0098165043760188
0.0107543183463722
-0.0014661769704616
-0.0012868604740251
0.0027530374445227
0.1119319740732692
-0.0590666257914671
-0.0528653482817949
-0.0014375792785775
-0.0015728530080163
0.0030104322866155
-0.1459438555062740
-0.2411229026706525
0.3870667581770108
-0.0400749370132237
-0.0526535058384835
0.0927284428517148
-0.1264153032847693
0.0174478411903884
0.1089674620943845
0.1442391781797520
0.0893761213122327
-0.2336152994919667
-0.0772315655196625
0.5371046243483373
-0.4598730588286833
0.0804938254127355
-0.0316682797911185
-0.0488255456216057
-0.0028926238481825
-0.0050047382817210
0.0078973621299215
-0.0099521751348357
-0.0606924325811391
0.0706446077160073
-0.0095339242806414
0.0422824733025343
-0.0327485490218881
-0.0208869989789787
-0.1294328776325953
0.1503198766115946
-0.0040232248853535
0.0879000037310375
-0.0838767788456805
-0.0028428455169357
0.2125404593974910
-0.2096976138805278
-0.1883412853839311
0.1610434111673442
0.0272978742166163
0.1292551656965932
0.0125351905812173
-0.1417903562778074
0.1834260066658068
-0.2091179967552607
0.0256919900894617
0.0616500888290350
0.0095320279757183
-0.0711821168047195
0.0309604293534187
0.0447547128940196
-0.0757151422474261
0.1791462861726731
-0.0147609474374089
-0.1643853387352554
0.1500659406150092
0.1781919179740978
-0.3282578585890840
-0.0558290982460018
-0.0034587361580564
0.0592878344040625
-0.0205508884735755
-0.0125366858607784
0.0330875743343608
0.1029605224604781
0.0602264281427784
-0.1631869506032438
-0.0091439175869434
-0.0112219626245152
0.0203658802114654
-0.0315120650653241
-0.0196558020029079
0.0511678670682306
-0.0348299859180949
-0.0196588341433840
0.0544888200614821
-0.0120571941737501
-0.0201176515839160
0.0321748457576702
0.0320162639685253
0.0306127510016316
-0.0626290149701428
-0.0436058767354428
0.1835838494390659
-0.1399779727036009
-0.0382836247815848
-0.0201938442555333
0.0584774690371169
0.3836754505308367
-0.0269096455307683
-0.3567658050000704
-0.0088067544917226
-0.0108686562732422
0.0196754107649737
-0.0047123772963549
-0.0032819192847626
0.0079942965811351
-0.0187027550196199
0.0911321464041522
-0.0724293913845336
0.1659367736747414
-0.0112684268645979
-0.1546683468101421
0.0490700262766965
-0.0353005393609177
-0.0137694869156644
-0.0272836560459330
-0.0160284946975562
0.0433121507435082
-0.0150450701115782
-0.0019185992646155
0.0169636693762048
0.1536550367725025
-0.0682388562396666
-0.0854161805328143
-0.0134746436590664
0.0818352109571560
-0.0683605672980840
0.0616703919568001
-0.0182416860904986
-0.0434287058663225
-0.0078109495469231
-0.0099036273583402
0.0177145769052968
-0.0103947949917823
-0.0333274849688588
0.0437222799606452
-0.0734549308300287
-0.0555013658303475
0.1289562966603983
0.4606530146267390
-0.2919734613769676
-0.1686795532497671
-0.0016861870773522
-0.0016166084105385
0.0033027954878918
-0.0717333366510435
-0.1412717293783772
0.2130050660294217
-0.0760525575220271
0.3881054861389000
-0.3120529286168714
-0.0017327101136760
-0.0010065675976598
0.0027392777113546
-0.0004224690685062
-0.0004309319682738
0.0008534010368189
-0.0151604847433653
-0.0151903288912739
0.0303508136346247
-0.0394067251117177
-0.0029088674217153
0.0423155925334150
-0.0094758735875328
-0.0308974454283970
0.0403733190159611
0.3144599158401516
-0.1150304473146807
-0.1994294685254725
-0.0010240547683166
-0.0019116185977147
0.0029356733660281
0.2700195979827910
-0.0923804009631247
-0.1776391970196690
-0.0494104721115815
0.0389746964181585
0.0104357756934357
-0.0012850171478993
-0.0010376651607886
0.0023226823086948
-0.0081015277031078
-0.0230970278553991
0.0311985555585150
0.1945427501276135
0.0698996402018647
-0.2644423903294756
-0.0013625642087799
-0.0016283237719212
0.0029908879807068
-0.0193115353243762
-0.0610748903962984
0.0803864257206657
-0.1219377212495165
-0.0367079598775940
0.1586456811271472
-0.0066326762020178
0.1615646695482536
-0.1549319933462318
-0.0412515401928210
0.0865016740241147
-0.0452501338313097
-0.0181620197463231
-0.0271534282417146
0.0453154479880544
-0.0815745261811414
0.2784350736125777
-0.1968605474314755
-0.0008016550969657
-0.0010697571556122
0.0018714122526183
-0.0400749370132237
-0.0526535058384835
0.0927284428517148
-0.1264153032847693
0.0174478411903884
0.1089674620943845
0.1442391781797520
0.0893761213122327
-0.2336152994919667
-0.0772315655196625
0.5371046243483373
-0.4598730588286833
0.0804938254127355
-0.0316682797911185
-0.0488255456216057
-0.0028428455169357
0.2125404593974910
-0.2096976138805278
-0.1883412853839311
0.1610434111673442
0.0272978742166163
0.1292551656965932
0.0125351905812173
-0.1417903562778074
0.1834260066658068
-0.2091179967552607
0.0256919900894617
0.0616500888290350
0.0095320279757183
-0.0711821168047195
0.0309604293534187
0.0447547128940196
-0.0757151422474261
0.1791462861726731
-0.0147609474374089
-0.1643853387352554
0.1500659406150092
0.1781919179740978
-0.3282578585890840
-0.0558290982460018
-0.0034587361580564
0.0592878344040625
-0.0205508884735755
-0.0125366858607784
0.0330875743343608
0.1046893455915844
0.0605354589344315
-0.1652248045260085
-0.0091439175869434
-0.0112219626245152
0.0203658802114654
-0.0315120650653241
-0.0196558020029079
0.0511678670682306
-0.0348299859180949
-0.0196588341433840
0.0544888200614821
-0.0120571941737501
-0.0201176515839160
0.0321748457576702
0.0151022368121367
0.0327637465466510
-0.0478659833587880
-0.0436058767354428
0.1835838494390659
-0.1399779727036009
-0.0382836247815848
-0.0201938442555333
0.0584774690371169
-0.0088067544917226
-0.0108686562732422
0.0196754107649737
-0.0047123772963549
-0.0032819192847626
0.0079942965811351
-0.0187027550196199
0.0911321464041522
-0.0724293913845336
0.1659367736747414
-0.0112684268645979
-0.1546683468101421
0.0490700262766965
-0.0353005393609177
-0.0137694869156644
-0.0272836560459330
-0.0160284946975562
0.0433121507435082
-0.0173243996071764
-0.0010718273047143
0.0183962269118990
0.1724874509211329
-0.0669862478399864
-0.1055012030811440
-0.0134746436590664
0.0818352109571560
-0.0683605672980840
-0.0021391270142420
-0.0006458334320531
0.0027849604462962
-0.0078109495469231
-0.0099036273583402
0.0177145769052968
-0.0103947949917823
-0.0333274849688588
0.0437222799606452
-0.0734549308300287
-0.0555013658303475
0.1289562966603983
0.4606530146267390
-0.2919734613769676
-0.1686795532497671
-0.0016861870773522
-0.0016166084105385
0.0033027954878918
-0.0715612255200845
-0.1408645151451601
0.2124257406652443
-0.0729526589668758
0.4549843991121825
-0.3820317401453063
-0.0004224690685062
-0.0004309319682738
0.0008534010368189
-0.0394067251117177
-0.0029088674217153
0.0423155925334150
-0.0094758735875328
-0.0308974454283970
0.0403733190159611
-0.0010240547683166
-0.0019116185977147
0.0029356733660281
0.2700195979827910
-0.0923804009631247
-0.1776391970196690
-0.0494104721115815
0.0389746964181585
0.0104357756934357
-0.0077284170349503
-0.0218044658029756
0.0295328828379310
0.2002449380407858
0.0352566047772176
-0.2355015428180007
-0.0013625642087799
-0.0016283237719212
0.0029908879807068
-0.0193115353243762
-0.0610748903962984
0.0803864257206657
-0.1219377212495165
-0.0367079598775940
0.1586456811271472
-0.0066326762020178
0.1615646695482536
-0.1549319933462318
-0.0412515401928210
0.0865016740241147
-0.0452501338313097
-0.0181620197463231
-0.0271534282417146
0.0453154479880544
-0.0106556163140445
-0.0237424157779469
0.0343980320919746
-0.0017523068278614
0.1710269983994370
-0.1692746915715790
-0.0649037679305729
-0.1136749368621971
0.1785787047927431
-0.0038880690707440
0.0099448474239299
-0.0060567783531854
-0.0008016550969657
-0.0010697571556122
0.0018714122526183
-0.0089834917634174
0.5440841783814115
-0.5351006866179974
0.1699854263780406
-0.3214583453794689
0.1514729190021548
0.0982297498340391
0.3032273564319276
-0.4014571062657161
-0.0381869463927686
-0.0002837245024186
0.0384706708951885
-0.0681545229614202
0.0552154679981701
0.0129390549632647
-0.0198123175748538
0.0657479475517688
-0.0459356299769332
-0.0605755044450090
-0.0037829173062443
0.0643584217512545
-0.0887504639936284
0.1336353032710227
-0.0448848392773843
-0.0211157707795925
0.1857384929604204
-0.1646227221808122
-0.0335550178092103
-0.2425735872948119
0.2761286051040240
-0.0336851475655376
-0.1858471385796122
0.2195322861451521
-0.0065865799449403
0.3306143394181681
-0.3240277594732229
-0.0139983672351731
-0.3902434472218846
0.4042418144570658
0.1464375286263203
-0.0432882559875460
-0.1031492726387334
-0.4381915993428246
0.2718457952504090
0.1663458040925903
-0.2952366302530876
0.4785209253559761
-0.1832842951029025
-0.1177054732687763
-0.0676015603327088
0.1853070336015820
-0.2225844718389724
-0.1805987559021104
0.4031832277413368
-0.0079523956030602
0.2094031899096502
-0.2014507943065801
-0.0130095419025795
-0.0034954122624355
0.0165049541650133
-0.0959613115678226
-0.0342480620213222
0.1302093735891726
-0.0473776825133920
-0.1214048792793022
0.1687825617926886
0.0030387725655082
-0.1625205780506499
0.1594818054851990
0.0698513850908350
-0.0703237595411614
0.0004723744504279
-0.1140538919854642
-0.0516459372649406
0.1656998292504192
-0.0908999256590295
-0.0127155693724154
0.1036154950315231
0.1425693747811528
-0.0753570128936793
-0.0672123618872437
0.3186771790443575
-0.0386236942102704
-0.2800534848340579
-0.0005455540451939
-0.0087432552355626
0.0092888092807539
-0.0458787649038790
-0.3644092113441226
0.4102879762480764
-0.0340081075019113
-0.0539566653285100
0.0879647728304088
-0.0880144666033157
-0.3731192107920744
0.4611336773953886
-0.0210329852394450
-0.2281168405071127
0.2491498257465595
-0.0015574701681487
0.0838188399678731
-0.0822613697997229
-0.0239763171409788
-0.0404662197909802
0.0644425369319196
-0.1228087324153429
0.0793258209278565
0.0434829114875115
0.0915436688490869
0.0841208880658501
-0.1756645569149095
-0.0461480931665732
-0.0150713077468186
0.0612194009134149
0.2101148374084314
-0.0660052390011950
-0.1441095984072129
-0.0400749370132237
-0.0526535058384835
0.0927284428517148
0.0487891288040138
0.6330438766510363
-0.6818330054550433
-0.0464244476289211
0.2736822623209054
-0.2272578146919380
-0.2223149819441972
0.0464749937873061
0.1758399881569706
-0.0056355953413804
0.1389712760295538
-0.1333356806881734
-0.0098764060584703
-0.0192737119573983
0.0291501180158548
0.1215858254732019
-0.4576581683158309
0.3360723428426493
0.1230883887013678
-0.0001700929667487
-0.1229182957345673
-0.0051611267569105
-0.3596769772665096
0.3648381040234234
0.1425503261973406
-0.0686618421968505
-0.0738884840004791
0.0463126505591094
-0.0614757288643144
0.0151630783052646
-0.0074165101253582
0.0054074647279767
0.0020090453974146
0.2563180457647301
-0.0459290735376319
-0.2103889722270215
-0.0039564292246226
0.0717275637998158
-0.0677711345751654
-0.0079531096951550
0.0931272556397013
-0.0851741459445109
-0.2009869158496542
-0.1091016206555679
0.3100885365052676
-0.0257539247559679
-0.0358180174293995
0.0615719421853722
-0.0662132043199311
-0.0192489045929200
0.0854621089128365
-0.0091439175869434
-0.0112219626245152
0.0203658802114654
-0.0347589933201484
-0.0219858225615271
0.0567448158816747
-0.0348299859180949
-0.0196588341433840
0.0544888200614821
-0.0120571941737501
-0.0201176515839160
0.0321748457576702
-0.0489479168238543
0.0005200514248915
0.0484278653989975
-0.0382836247815848
-0.0201938442555333
0.0584774690371169
-0.0155072913146456
-0.0143945010565919
0.0299017923712453
-0.0282629532071322
0.1634988499454471
-0.1352358967382967
-0.0134746436590664
0.0818352109571560
-0.0683605672980840
-0.0103947949917823
-0.0333274849688588
0.0437222799606452
-0.1782430018324562
0.0061860116021206
0.1720569902303898
-0.0737976761426013
-0.0562666218602712
0.1300642980028950
-0.0070251424021140
-0.0012489474623446
0.0082740898644534
0.3194690288501548
-0.0260532329179339
-0.2934157959322199
0.1243494900519280
0.1358525367224185
-0.2602020267743453
-0.1478089631255516
0.5803572089344058
-0.4325482458088371
0.0177398011678433
0.0688494716144384
-0.0865892727822761
-0.0101636948637674
-0.0026473971150627
0.0128110919788716
-0.0410390737288964
-0.0037916409730011
0.0448307147018564
-0.0094758735875328
-0.0308974454283970
0.0403733190159611
-0.2792384048471052
-0.0179897062324123
0.2972281110795359
-0.0065973601062141
-0.0042707467541291
0.0108681068604128
-0.0882613396848081
-0.0104394935984634
0.0987008332833308
-0.0306549661625146
-0.0173126325814782
0.0479675987440721
-0.0012561337981484
-0.0022010761726228
0.0034572099707778
0.1302602649898260
0.1708250239288818
-0.3010852889187060
-0.0032743532440681
-0.0025776882477730
0.0058520414918757
-0.0837136631715557
0.1249587399437876
-0.0412450767722334
0.2251421568018688
-0.0853173573365497
-0.1398247994652954
-0.0647514606623845
-0.0044859074790088
0.0692373681413803
-0.0413534560018304
-0.1865364326996558
0.2278898887014618
-0.0031845377921120
-0.0020315063996892
0.0052160441918172
-0.0763589934799220
0.0258775802518944
0.0504814132280450
-0.0372924742639985
-0.0039812823648244
0.0412737566288553
-0.0136681413769531
-0.0068811075464786
0.0205492489234521
-0.3714274604946292
0.4776986087093579
-0.1062711482147060
-0.0941326882696421
-0.0081802894112360
0.1023129776808948
0.3443947856125057
-0.0377463855251079
-0.3066484000873927
-0.0151588832251970
-0.0089826718543926
0.0241415550796248
0.0210309119300661
0.0395153377610497
-0.0605462496910915
-0.0069772124358369
-0.0034382853582642
0.0104154977941400
-0.0091402464883872
-0.0043331899158945
0.0134734364043049
-0.0636677852585569
-0.0332540093765195
0.0969217946351169
-0.0218135207752594
-0.0321664876654710
0.0539800084407224
-0.0012692489468280
-0.0005711388115115
0.0018403877583807
0.0821631507410845
-0.0051439888336790
-0.0770191619073830
-0.0013625642087799
-0.0016283237719212
0.0029908879807068
-0.0268988644681283
-0.0117881843481692
0.0386870488163175
-0.0095886077100549
-0.0168258896817183
0.0264144973917984
0.2125719526175654
-0.3907200120451663
0.1781480594276285
-0.0525703196197292
-0.0073817495709414
0.0599520691906969
0.2577107904726887
-0.3063128918202166
0.0486021013475204
-0.0100842897085786
-0.0058685633529908
0.0159528530615493
-0.0059087788466278
-0.0045512298423976
0.0104600086890402
-0.0338686752175565
-0.0065917286868548
0.0404604039044426
-0.0419987720636563
0.1168445583303870
-0.0748457862667083
-0.0108256015385345
-0.0078244993036903
0.0186501008422446
0.4339843133901345
0.6272253489120740
-1.0612096623021885
0.1734166209604578
0.0747326115096098
-0.2481492324700678
-0.0008269702183489
-0.0065575278564709
0.0073844980748260
-0.0094723089774993
-0.1581776983959822
0.1676500073735143
-0.0008997418907713
-0.0012495728546602
0.0021493147454657
-0.0535593922899877
-0.0030416944503332
0.0566010867403397
-0.1393632466502525
-0.2456630115169732
0.3850262581672296
-0.0458787649038790
-0.3644092113441226
0.4102879762480764
0.3548176511277704
0.1815691961086727
-0.5363868472363181
-0.3311081075419626
-0.1673741268192800
0.4984822343612900
-0.1228087324153429
0.0793258209278565
0.0434829114875115
-0.0037657651962087
-0.1369082453938067
0.1406740105900507
-0.0456761973204122
-0.0768833768579497
0.1225595741783607
0.3554042618797264
0.0501642346871257
-0.4055684965668333
0.0663663035535865
0.3967917751076364
-0.4631580786612316
0.2331777473942849
0.0106567644988684
-0.2438345118931291
0.0797118316786324
-0.0337468729950077
-0.0459649586836151
-0.0047573261605325
-0.1503203168579555
0.1550776430184686
-0.0438018339460154
-0.0820243350407056
0.1258261689867142
-0.0762465974366813
-0.0178306377458339
0.0940772351825183
-0.0069963803572772
0.1358008966341654
-0.1288045162768760
-0.0112287315721180
-0.2500797832965504
0.2613085148686793
-0.0078930120536132
-0.0705701187615713
0.0784631308151956
-0.0018593487653275
-0.2136557572852878
0.2155151060506090
-0.0192260965618760
0.3730380542835902
-0.3538119577216784
-0.0133342531170046
0.0816206910652277
-0.0682864379481999
-0.0187027550196199
0.0911321464041522
-0.0724293913845336
0.2728258877548962
-0.0152822703667069
-0.2575436173881920
-0.0021391270142420
-0.0006458334320531
0.0027849604462962
-0.0619759451960069
-0.0188882520545843
0.0808641972505729
0.4569074813424116
-0.2939666533754483
-0.1629408279669587
-0.0018165524315005
-0.0017375969573813
0.0035541493888796
0.2275719301728706
-0.0843519709641888
-0.1432199592086730
-0.0827444165091398
-0.0563357280590144
0.1390801445681764
-0.0114134545898991
-0.0461947145038903
0.0576081690938887
-0.0044896453186047
-0.0045286494082620
0.0090182947268820
-0.1142707903791095
0.1071519519739437
0.0071188384051728
-0.0408968799143165
-0.0066548091074872
0.0475516890218082
0.2088220196337708
0.0289049042592277
-0.2377269238929958
-0.0013625642087799
-0.0016283237719212
0.0029908879807068
-0.0014959489906320
-0.0022835731830699
0.0037795221737242
-0.0765430220403476
-0.0121822794320612
0.0887253014723888
-0.0457668053653951
-0.0010947861524288
0.0468615915178202
-0.0026626595783768
-0.0018298155219610
0.0044924751003471
-0.0062025909497711
-0.0063395139070827
0.0125421048568621
0.1329042825658732
0.0070055455375925
-0.1399098281034599
-0.0090515270170626
-0.0007730468086580
0.0098245738257288
-0.0485395574591219
0.0199172882105793
0.0286222692485405
-0.0012781608265129
-0.0006718011451115
0.0019499619716523
0.2228414111496850
-0.2317371146630708
0.0088957035133838
-0.0056253210760408
-0.0007388959956114
0.0063642170716685
-0.1713945763157711
-0.0193729609240580
0.1907675372398644
0.1501437641211647
-0.2483183680897132
0.0981746039685486
-0.0222395189704345
-0.0011551798973268
0.0233946988677663
-0.1061553081233939
-0.0271732628380824
0.1333285709614334
-0.0220500888170672
-0.0172085808177850
0.0392586696348691
-0.0234485880755116
-0.0297403172005158
0.0531889052760356
0.2253541126014776
0.1261071130331623
-0.3514612256346430
-0.0010240547683166
-0.0019116185977147
0.0029356733660281
0.0874408556671894
-0.0209649336306782
-0.0664759220365089
-0.0028634025552681
-0.0024569994347826
0.0053204019900536
-0.0051606600043364
-0.0017006884008829
0.0068613484052604
-0.0025840069884157
-0.0013365039514692
0.0039205109398470
-0.0370288333948184
0.3701128076002858
-0.3330839742053076
-0.2192736754962864
-0.3816283692590487
0.6009020447553698
-0.0041483165657353
0.4542698109364255
-0.4501214943706800
-0.0617741184512045
0.0788147253007694
-0.0170406068495477
-0.1264153032847693
0.0174478411903884
0.1089674620943845
-0.0028428455169357
0.2125404593974910
-0.2096976138805278
-0.0123785346408430
0.0673677056075839
-0.0549891709667355
-0.1883412853839311
0.1610434111673442
0.0272978742166163
-0.0200903037136739
0.0463816812092032
-0.0262913774955268
0.1292551656965932
0.0125351905812173
-0.1417903562778074
-0.0792887633291866
-0.4173205319920300
0.4966092953212266
0.1834260066658068
-0.2091179967552607
0.0256919900894617
-0.0135800441657017
0.0636276207454830
-0.0500475765797825
0.0616500888290350
0.0095320279757183
-0.0711821168047195
-0.0213289044699447
-0.0597863946055339
0.0811152990754639
0.0309604293534187
0.0447547128940196
-0.0757151422474261
-0.0280451434414895
0.1112943973792845
-0.0832492539378032
0.1791462861726731
-0.0147609474374089
-0.1643853387352554
-0.0045252898233418
0.0881217462809037
-0.0835964564575594
0.1500659406150092
0.1781919179740978
-0.3282578585890840
-0.0116835788510493
-0.0238458127082179
0.0355293915592827
-0.0558290982460018
-0.0034587361580564
0.0592878344040625
-0.0053242242553252
0.4237948526915759
-0.4184706284362297
0.1105245319083199
0.2589839768480198
-0.3695085087562949
-0.0205508884735755
-0.0125366858607784
0.0330875743343608
0.1093891909364465
0.0572940512180798
-0.1666832421545184
-0.0091439175869434
-0.0112219626245152
0.0203658802114654
-0.0315120650653241
-0.0196558020029079
0.0511678670682306
-0.0348299859180949
-0.0196588341433840
0.0544888200614821
-0.0120571941737501
-0.0201176515839160
0.0321748457576702
0.0151022368121367
0.0327637465466510
-0.0478659833587880
-0.0382836247815848
-0.0201938442555333
0.0584774690371169
-0.0088067544917226
-0.0108686562732422
0.0196754107649737
-0.0272836560459330
-0.0160284946975562
0.0433121507435082
-0.0134746436590664
0.0818352109571560
-0.0683605672980840
-0.0103947949917823
-0.0333274849688588
0.0437222799606452
-0.0734549308300287
-0.0555013658303475
0.1289562966603983
0.1742343327767250
-0.0884220100463557
-0.0858123227303721
-0.0014959489906320
-0.0022835731830699
0.0037795221737242
-0.0028305874868904
-0.0034516215960744
0.0062822090830069
-0.0004224690685062
-0.0004309319682738
0.0008534010368189
-0.0394067251117177
-0.0029088674217153
0.0423155925334150
-0.0165318710363520
-0.1052062870118664
0.1217381580482614
-0.0010240547683166
-0.0019116185977147
0.0029356733660281
-0.0041933056530114
-0.0379569250517016
0.0421502307047176
-0.0494104721115815
0.0389746964181585
0.0104357756934357
0.0538831731902958
0.2080243237431650
-0.2619074969334613
-0.0083444095388767
-0.0170065427139091
0.0253509522527880
0.2088220196337708
0.0289049042592277
-0.2377269238929958
-0.0055115304368398
-0.0006512724148972
0.0061628028517562
-0.0013625642087799
-0.0016283237719212
0.0029908879807068
-0.0193115353243762
-0.0610748903962984
0.0803864257206657
-0.0308759141181944
-0.0020953818453356
0.0329712959635877
0.3622266122623413
-0.0278007990117483
-0.3344258132505595
-0.0066326762020178
0.1615646695482536
-0.1549319933462318
-0.0016889670616899
-0.0033402922377650
0.0050292592994561
-0.0649037679305729
-0.1136749368621971
0.1785787047927431
-0.0038880690707440
0.0099448474239299
-0.0060567783531854
0.1395818411521471
-0.3225889387683449
0.1830070976162360
-0.1705898067939925
-0.3653364743575979
0.5359262811516035
-0.2998011047547054
-0.1843904492043558
0.4841915539590607
-0.0034194542825309
0.0461390653213978
-0.0427196110388535
-0.0075635935589620
-0.0607925167239753
0.0683561102829578
0.1408516936340704
-0.1376200069596510
-0.0032316866744059
-0.0436991328873881
0.1772514797254363
-0.1335523468380378
-0.1312392897426772
-0.1465197810062865
0.2777590707489881
0.1144796101922367
0.3691818551479076
-0.4836614653401454
-0.0547574284563232
0.2438266508217617
-0.1890692223654116
0.2215826972608178
-0.0358444159626370
-0.1857382812981477
0.0093289091624374
-0.0443118444239371
0.0349829352615187
0.0888757118307112
0.0345038853062680
-0.1233795971369821
-0.0414297650996483
-0.0916732346746497
0.1331029997743278
-0.2471585578503434
0.3984109125832946
-0.1512523547329405
-0.0039619935267630
-0.0356237922234605
0.0395857857502361
-0.2079060340998045
0.0627277493373797
0.1451782847623760
-0.0024928996460107
-0.0194551198446166
0.0219480194906390
-0.0695417937611292
-0.0527944172399949
0.1223362110011547
-0.0014270651980224
-0.0017358284252959
0.0031628936233271
-0.0022548316720674
-0.0017612803496296
0.0040161120217161
0.3601439118204881
-0.0193039415441738
-0.3408399702763161
-0.1269573008634279
-0.0897066266818057
0.2166639275452532
-0.0064014302661130
-0.0063807943921902
0.0127822246583373
-0.0040285880030439
-0.0042276316638097
0.0082562196668156
-0.0025161601387196
-0.0020247120895999
0.0045408722283267
-0.0381911927832832
-0.3238473417618531
0.3620385345451783
-0.0108105171258289
-0.0027337947536774
0.0135443118795031
0.0292720777312560
-0.1415054942568356
0.1122334165255915
-0.0261290338711691
-0.0144683911967681
0.0405974250679268
-0.0136256838686195
-0.0183835093887515
0.0320091932573725
-0.0009172681130129
-0.0021011768042254
0.0030184449172512
-0.1120417505424390
-0.3079173602063195
0.4199591107487570
-0.0019747448916140
-0.0008468754827613
0.0028216203743915
-0.0092587271407830
-0.0046729794958216
0.0139317066366274
-0.0015901812843467
-0.0586650836757616
0.0602552649601244
-0.0631838771827616
-0.0602174712285538
0.1234013484113389
-0.0368784422084660
-0.1554392663683536
0.1923177085768879
-0.0034996600653594
-0.0012950107785737
0.0047946708439383
-0.0344500628585125
0.4764454160752825
-0.4419953532167616
-0.1675562829643559
-0.0286798053764380
0.1962360883408389
-0.0977209301098983
0.2141787839379424
-0.1164578538280431
-0.0024437982959652
-0.0016038328303853
0.0040476311263694
-0.0018564670246981
-0.0008670743120833
0.0027235413368203
-0.1198052758952856
0.2806984367986340
-0.1608931609033089
-0.0042818044481916
0.1492245205792084
-0.1449427161309991
-0.0033834192716037
-0.2755856095367384
0.2789690288083397
-0.0114288106993170
-0.1260310950411168
0.1374599057404461
-0.0057199484084435
0.1656330710835301
-0.1599131226750811
-0.0158641628300643
0.1784892374173471
-0.1626250745872757
-0.0310076112664633
0.4210551918246916
-0.3900475805581989
-0.0601512176959442
0.1711728076334837
-0.1110215899375348
0.4807736638497925
0.1757314354944849
-0.6565050993442554
-0.0073023769044609
0.0674967584733412
-0.0601943815688533
-0.0152262225949986
0.1760362123830927
-0.1608099897880710
-0.0285693480318454
0.6211031934603701
-0.5925338454285187
-0.0088485664461740
-0.1905361122526351
0.1993846786988306
-0.0218102840574567
0.2203272908556677
-0.1985170067982078
-0.0043872030193560
0.0218131857917436
-0.0174259827723792
0.2593597787154409
-0.3074978553935101
0.0481380766780857
-0.0688009266489050
-0.0160880221360933
0.0848889487850093
0.2200432229641288
-0.1752146596233546
-0.0448285633407644
-0.0614276947751267
0.1339620470469602
-0.0725343522718232
-0.0025081398899997
0.1505778290115971
-0.1480696891215889
-0.0008344511879840
-0.0013417222014760
0.0021761733894756
-0.0130502869218467
-0.0010770201426077
0.0141273070644551
-0.0239585661692452
0.4076977484476066
-0.3837391822783596
-0.0693376918630228
-0.0672836650146875
0.1366213568777124
-0.0094898823291663
-0.0028151269548245
0.0123050092840320
0.2080501492744720
-0.1913726833669893
-0.0166774659074990
-0.0037693547589719
-0.0014510638397137
0.0052204185986906
0.1910989660769765
-0.2722059339153287
0.0811069678383942
-0.0161090476148654
-0.0107809127344545
0.0268899603493380
-0.0014500068741808
0.0733705729488056
-0.0719205660746197
-0.0615536766013105
0.1468180855953660
-0.0852644089940595
-0.0028297237715512
-0.0224694214058575
0.0252991451774165
-0.0015137886236920
-0.0057238231287916
0.0072376117525061
-0.0551095048333883
0.1586153779207296
-0.1035058730873386
-0.0215550777181123
-0.1151854635015249
0.1367405412196433
0.3007342139207195
-0.1947939519986585
-0.1059402619220374
-0.0025859796102490
-0.0206126084643917
0.0231985880746484
-0.0235584002214363
-0.0637622288594153
0.0873206290808487
-0.0109084842079144
-0.0106547389174038
0.0215632231253268
-0.0500434926286454
0.3372575713524416
-0.2872140787237875
-0.0170226216572948
0.0382216572664157
-0.0211990356091218
-0.0350934700517423
-0.0017185259170228
0.0368119959687765
0.1626773826807769
-0.0103299383477853
-0.1523474443329893
-0.0083725454538127
-0.0373228365801686
0.0456953820340065
-0.0057223822268745
-0.0186392954921068
0.0243616777190145
-0.0079447569965811
-0.3331695723613855
0.3411143293579704
-0.0209091181354765
-0.3921264761216944
0.4130355942571984
0.0856831806320209
-0.0056806949621658
-0.0800024856698548
-0.0059318347164973
0.0589004312730718
-0.0529685965565755
-0.0029030461616456
-0.0426059587873256
0.0455090049489816
-0.2411738263909761
0.0190287362367155
0.2221450901542761
-0.2886845130726727
0.0914568946255841
0.1972276184470874
-0.0029974034695032
-0.0011117147460064
0.0041091182155472
-0.0182014671926639
-0.0022125461588922
0.0204140133516053
0.0288031089588955
0.3752230297206446
-0.4040261386795319
-0.0019067994507260
-0.0082158439458634
0.0101226433966072
0.2356276081104469
-0.3279374594983211
0.0923098513879073
0.0139656730480444
0.1774807730542849
-0.1914464461023181
0.2038830292453293
-0.2532241095670690
0.0493410803217552
0.1381645599270575
0.0444694750246085
-0.1826340349516404
0.0774988462651000
-0.0979786939375850
0.0204798476725073
0.0931176397429522
-0.0739551912019032
-0.0191624485410403
0.2432836849984364
-0.2168073743733295
-0.0264763106250837
0.2793396370909192
-0.1948855316550751
-0.0844541054358192
0.2352769825997452
0.0643204023879189
-0.2995973849876480
0.0553249479856703
0.1178801119366416
-0.1732050599223133
0.2333844537471388
-0.2229117814702659
-0.0104726722768458
0.1048067783056983
-0.2121400799589333
0.1073333016532444
-0.0057045664631028
0.0962658962974800
-0.0905613298343693
-0.1905435872429015
0.0656533318741176
0.1248902553688118
-0.2079060340998045
0.0627277493373797
0.1451782847623760
-0.0285433048738991
-0.0152023309182728
0.0437456357921733
-0.0346400620632026
-0.0115706688133629
0.0462107308766002
-0.0021191107814227
-0.0031014551811405
0.0052205659625720
-0.0180161671350732
-0.0038075092168186
0.0218236763518820
-0.1071247032108976
-0.0123023973178785
0.1194271005288138
-0.0052751987304920
-0.0057465284790993
0.0110217272096234
-0.0167771247493559
-0.0043307751508984
0.0211078999002139
-0.0046682461291885
-0.0062623233807982
0.0109305695099854
-0.1556482734931071
0.0381861102001014
0.1174621632930502
-0.0095608716993399
-0.0051841765734014
0.0147450482727524
-0.0055557721282681
-0.1370641995661252
0.1426199716943740
-0.0094129891520314
-0.0326679048633622
0.0420808940154076
-0.0024063238475400
-0.0008915480222118
0.0032978718697567
-0.0070254388297164
-0.0157530506720061
0.0227784895017324
-0.0033924095334785
-0.0710552142581623
0.0744476237916626
-0.0439588216596682
-0.1184782537705405
0.1624370754302283
-0.0542018183112667
0.0647243897841817
-0.0105225714728108
-0.0009601915228219
-0.0006952658565580
0.0016554573793905
0.1323211355795311
0.0487551712840285
-0.1810763068635564
-0.0854342822040517
0.0563481687080176
0.0290861134960622
0.8689362613166368
-0.8536630806953209
-0.0152731806212950
-0.0043192689044456
-0.0070970569080076
0.0114163258124750
-0.0015566919929144
-0.0045861443547245
0.0061428363476754
0.3774362746886161
-0.4181432618292934
0.0407069871415416
-1.3364038568094498
0.4435805650705947
0.8928232917391559
0.1794243598728960
0.4016287935228620
-0.5810531533947160
0.2593597787154409
-0.3074978553935101
0.0481380766780857
-0.1217686443384629
-0.0929008061166058
0.2146694504560105
0.2210384822493817
0.2239015355040717
-0.4449400177532289
-0.6194532814434157
-0.0114324880168150
0.6308857694612849
-0.7153213666849632
0.3313906681019740
0.3839306985838811
0.3565893968574858
-0.4020497775330288
0.0454603806758507
0.0464545603947843
0.1274996014643267
-0.1739541618580394
-0.2079060340998045
0.0627277493373797
0.1451782847623760
0.0355619812578011
0.1864467781524979
-0.2220087594093811
0.1293904093898621
-0.1005946311565216
-0.0287957782330060
-0.2866862128374544
-0.0946649868368216
0.3813511996752689
-0.1905435872429015
0.0656533318741176
0.1248902553688118
-0.2079060340998045
0.0627277493373797
0.1451782847623760
-0.0111393907101618
-0.0138694590248380
0.0250088497364206
-0.2636272231158601
0.0818342217619812
0.1817930013544273
-0.3172917713185598
0.0766034183278927
0.2406883529908899
0.2593597787154409
-0.3074978553935101
0.0481380766780857
-0.2231807815990538
-0.5182985549224992
0.7414793365228969
-0.0786488553557717
0.4692729706234260
-0.3906241152670320
-0.2057995034073867
-0.4576306891905342
0.6634301925981799
-0.2593868173149220
0.0192774555167629
0.2401093617994236
-0.0394165094594270
-0.4113899523141141
0.4508064617742811
-0.2791881493218055
0.1311052588479517
0.1480828904741240
-0.2079060340998045
0.0627277493373797
0.1451782847623760
-0.1706913674628989
0.0653992043606115
0.1052921631023350
0.2261776966740187
0.1485230730405924
-0.3747007697141043
-0.3548979659931106
-0.0390298683433096
0.3939278343369789
0.1776778145922009
-0.1837052488987381
0.0060274343076698
-0.1905435872429015
0.0656533318741176
0.1248902553688118
-0.2079060340998045
0.0627277493373797
0.1451782847623760
-0.2685676896364904
0.0779571127217656
0.1906105769147978
-0.0314645939546418
-0.0531290878464607
0.0845936818016718
0.0407955738976723
-0.0053417156603258
-0.0354538582367317
-0.0530406997392332
0.0373541828182937
0.0156865169219549
-0.2079060340998045
0.0627277493373797
0.1451782847623760
-0.4968902311010110
0.0972230219681887
0.3996672091329213
-0.6476627483613592
-0.2508393610260692
0.8985021093878699
0.9372154008085158
-0.3623259885052962
-0.5748894123024318
-0.3128458648786439
0.6355105689338266
-0.3226647040542914
-0.2685676896364904
0.0779571127217656
0.1906105769147978
-0.0314645939546418
-0.0531290878464607
0.0845936818016718
0.0407955738976723
-0.0053417156603258
-0.0354538582367317
-0.0530406997392332
0.0373541828182937
0.0156865169219549
-0.2079060340998045
0.0627277493373797
0.1451782847623760
