version: 100
cost-factor: 1
maxid: 3123
xsize: 15

B-CRF
I-CRF
O

U018:%x[-2,0]
U019:%x[-1,0]
U020:%x[0,0]
U021:%x[1,0]
U022:%x[2,0]
U01:%x[-2,1]
U26:%x[-1,1]
U27:%x[0,1]
U28:%x[1,1]
U29:%x[2,1]
U02:%x[0,2]
U03:%x[-2,3]
U34:%x[1,3]
U35:%x[0,3]
U36:%x[1,3]
U347:%x[2,3]
U30:%x[-1,4]
U31:%x[0,4]
U32:%x[1,4]
U06:%x[0,6]
U07:%x[-2,5]
U24:%x[-1,5]
U08:%x[0,5]
U23:%x[1,5]
U25:%x[2,5]
U09:%x[0,6]
U10:%x[0,7]
U11:%x[0,8]
U12:%x[0,9]
U13:%x[0,10]
U14:%x[0,11]
U15:%x[0,12]
U16:%x[0,13]
U17:%x[0,14]
B0

0 B0
9 U018:1,
12 U018:2,
15 U018:3,
18 U018:4,
21 U018:5,
24 U018:6,
27 U018:7,
30 U018:8,
33 U018:A.
36 U018:Aen.
39 U018:E.
42 U018:F.
45 U018:G.
48 U018:H.
51 U018:Hom.
54 U018:J.
57 U018:M.
60 U018:Od.
63 U018:Ov.
66 U018:P.
69 U018:R.
72 U018:The
75 U018:W.
78 U018:_B-1
81 U018:_B-2
84 U018:ad
87 U018:am.
90 U018:and
93 U018:cit.,
96 U018:de
99 U018:di
102 U018:e
105 U018:et
108 U018:fast.
111 U018:in
114 U018:met.
117 U018:of
120 U018:pp.
123 U018:s.;
126 U018:und
129 U019:1
132 U019:1,
135 U019:10,
138 U019:11,
141 U019:14,
144 U019:2,
147 U019:3,
150 U019:4,
153 U019:5,
156 U019:6,
159 U019:7,
162 U019:8,
165 U019:9,
168 U019:A.
171 U019:Aen.
174 U019:E.
177 U019:F.
180 U019:G.
183 U019:H.
186 U019:Hom.
189 U019:J.
192 U019:M.
195 U019:Od.
198 U019:Ov.
201 U019:P.
204 U019:R.
207 U019:The
210 U019:W.
213 U019:_B-1
216 U019:ad
219 U019:am.
222 U019:and
225 U019:cit.,
228 U019:de
231 U019:di
234 U019:e
237 U019:et
240 U019:fast.
243 U019:in
246 U019:met.
249 U019:of
252 U019:p.
255 U019:pp.
258 U019:s.;
261 U019:ss.,
264 U019:und
267 U01:OTHERS
270 U01:UNPAIRED_ROUND_BRACKETS
273 U01:_B-1
276 U01:_B-2
279 U020:1
282 U020:1,
285 U020:10,
288 U020:11,
291 U020:14,
294 U020:1;
297 U020:2,
300 U020:3,
303 U020:4,
306 U020:5,
309 U020:6,
312 U020:7,
315 U020:8,
318 U020:9,
321 U020:A.
324 U020:Aen.
327 U020:E.
330 U020:F.
333 U020:G.
336 U020:H.
339 U020:Hom.
342 U020:J.
345 U020:M.
348 U020:Od.
351 U020:Ov.
354 U020:P.
357 U020:R.
360 U020:The
363 U020:W.
366 U020:ad
369 U020:am.
372 U020:and
375 U020:cit.,
378 U020:de
381 U020:di
384 U020:e
387 U020:et
390 U020:fast.
393 U020:in
396 U020:met.
399 U020:of
402 U020:p.
405 U020:pp.
408 U020:s.
411 U020:s.,
414 U020:s.;
417 U020:ss.
420 U020:ss.,
423 U020:ss.;
426 U020:und
429 U021:1
432 U021:1,
435 U021:10,
438 U021:11,
441 U021:14,
444 U021:1;
447 U021:2,
450 U021:3,
453 U021:4,
456 U021:5,
459 U021:6,
462 U021:7,
465 U021:8,
468 U021:9,
471 U021:P.
474 U021:The
477 U021:_B+1
480 U021:ad
483 U021:and
486 U021:cit.,
489 U021:de
492 U021:di
495 U021:e
498 U021:et
501 U021:in
504 U021:met.
507 U021:of
510 U021:p.
513 U021:pp.
516 U021:s.
519 U021:s.,
522 U021:s.;
525 U021:ss.
528 U021:ss.,
531 U021:ss.;
534 U021:und
537 U022:1
540 U022:1,
543 U022:2,
546 U022:3,
549 U022:4,
552 U022:5,
555 U022:6,
558 U022:7,
561 U022:9,
564 U022:P.
567 U022:The
570 U022:_B+1
573 U022:_B+2
576 U022:ad
579 U022:and
582 U022:cit.,
585 U022:de
588 U022:di
591 U022:e
594 U022:et
597 U022:in
600 U022:of
603 U022:p.
606 U022:pp.
609 U022:s.
612 U022:s.,
615 U022:s.;
618 U022:ss.
621 U022:ss.,
624 U022:ss.;
627 U022:und
630 U02:ALL_CAPS
633 U02:ALL_LOWER
636 U02:INIT_CAPS
639 U02:OTHERS
642 U03:1
645 U03:13
648 U03:2
651 U03:3
654 U03:4
657 U03:5
660 U03:6
663 U03:7
666 U03:8
669 U03:_
672 U03:_B-1
675 U03:_B-2
678 U03:a
681 U03:ad
684 U03:aen
687 U03:am
690 U03:amore
693 U03:and
696 U03:cit
699 U03:de
702 U03:di
705 U03:die
708 U03:e
711 U03:et
714 U03:f
717 U03:fast
720 U03:g
723 U03:h
726 U03:hom
729 U03:il
732 U03:in
735 U03:j
738 U03:la
741 U03:m
744 U03:met
747 U03:od
750 U03:of
753 U03:ov
756 U03:ovid
759 U03:ovids
762 U03:p
765 U03:pp
768 U03:procris
771 U03:r
774 U03:s
777 U03:ss
780 U03:the
783 U03:und
786 U03:w
789 U06:0
792 U06:1
795 U06:10
798 U06:11
801 U06:12
804 U06:13
807 U06:14
810 U06:2
813 U06:3
816 U06:4
819 U06:5
822 U06:6
825 U06:7
828 U06:8
831 U06:9
834 U07:CONTINUING_PUNCTUATION
837 U07:FINAL_DOT
840 U07:OTHERS
843 U07:_B-1
846 U07:_B-2
849 U08:CONTINUING_PUNCTUATION
852 U08:FINAL_DOT
855 U08:OTHERS
858 U09:0
861 U09:1
864 U09:10
867 U09:11
870 U09:12
873 U09:13
876 U09:14
879 U09:2
882 U09:3
885 U09:4
888 U09:5
891 U09:6
894 U09:7
897 U09:8
900 U09:9
903 U10:(
906 U10:1
909 U10:2
912 U10:3
915 U10:4
918 U10:5
921 U10:6
924 U10:7
927 U10:8
930 U10:9
933 U10:A
936 U10:B
939 U10:C
942 U10:D
945 U10:E
948 U10:F
951 U10:G
954 U10:H
957 U10:I
960 U10:J
963 U10:K
966 U10:L
969 U10:M
972 U10:N
975 U10:O
978 U10:P
981 U10:R
984 U10:S
987 U10:T
990 U10:V
993 U10:W
996 U10:a
999 U10:b
1002 U10:c
1005 U10:d
1008 U10:e
1011 U10:f
1014 U10:g
1017 U10:i
1020 U10:l
1023 U10:m
1026 U10:n
1029 U10:o
1032 U10:p
1035 U10:r
1038 U10:s
1041 U10:t
1044 U10:u
1047 U10:v
1050 U10:Â
1053 U11:1
1056 U11:1,
1059 U11:10
1062 U11:11
1065 U11:12
1068 U11:13
1071 U11:14
1074 U11:15
1077 U11:17
1080 U11:18
1083 U11:19
1086 U11:1;
1089 U11:2,
1092 U11:20
1095 U11:23
1098 U11:24
1101 U11:25
1104 U11:26
1107 U11:3,
1110 U11:30
1113 U11:33
1116 U11:4,
1119 U11:41
1122 U11:44
1125 U11:47
1128 U11:5,
1131 U11:52
1134 U11:57
1137 U11:6,
1140 U11:7,
1143 U11:8,
1146 U11:9,
1149 U11:A.
1152 U11:Ae
1155 U11:Am
1158 U11:An
1161 U11:Ap
1164 U11:Au
1167 U11:Ba
1170 U11:Be
1173 U11:Bo
1176 U11:BÃ
1179 U11:Ca
1182 U11:Da
1185 U11:De
1188 U11:Di
1191 U11:E.
1194 U11:F.
1197 U11:Fa
1200 U11:Fr
1203 U11:G.
1206 U11:H.
1209 U11:He
1212 U11:Ho
1215 U11:Hy
1218 U11:Il
1221 U11:J.
1224 U11:La
1227 U11:Le
1230 U11:Lu
1233 U11:M.
1236 U11:Ma
1239 U11:Me
1242 U11:Na
1245 U11:Od
1248 U11:Ov
1251 U11:P.
1254 U11:Pa
1257 U11:Pr
1260 U11:R.
1263 U11:Ro
1266 U11:Se
1269 U11:Si
1272 U11:Th
1275 U11:Ti
1278 U11:Va
1281 U11:Vi
1284 U11:W.
1287 U11:ad
1290 U11:am
1293 U11:an
1296 U11:ca
1299 U11:ci
1302 U11:co
1305 U11:cu
1308 U11:de
1311 U11:di
1314 U11:e
1317 U11:ep
1320 U11:et
1323 U11:fa
1326 U11:fr
1329 U11:in
1332 U11:la
1335 U11:le
1338 U11:li
1341 U11:lo
1344 U11:me
1347 U11:ne
1350 U11:of
1353 U11:p.
1356 U11:po
1359 U11:pp
1362 U11:s.
1365 U11:se
1368 U11:ss
1371 U11:su
1374 U11:te
1377 U11:tr
1380 U11:un
1383 U11:Â«
1386 U12:1
1389 U12:1,
1392 U12:10,
1395 U12:11,
1398 U12:14,
1401 U12:195
1404 U12:196
1407 U12:197
1410 U12:198
1413 U12:199
1416 U12:1;
1419 U12:2,
1422 U12:3,
1425 U12:4,
1428 U12:5,
1431 U12:6,
1434 U12:7,
1437 U12:8,
1440 U12:9,
1443 U12:A.
1446 U12:Aen
1449 U12:E.
1452 U12:F.
1455 U12:G.
1458 U12:H.
1461 U12:Hom
1464 U12:Hym
1467 U12:J.
1470 U12:Luc
1473 U12:M.
1476 U12:Met
1479 U12:Od.
1482 U12:Ov.
1485 U12:Ovi
1488 U12:P.
1491 U12:Par
1494 U12:Pro
1497 U12:R.
1500 U12:The
1503 U12:Tit
1506 U12:W.
1509 U12:ad
1512 U12:am.
1515 U12:and
1518 U12:car
1521 U12:cit
1524 U12:con
1527 U12:de
1530 U12:del
1533 U12:di
1536 U12:e
1539 U12:epi
1542 U12:et
1545 U12:fas
1548 U12:in
1551 U12:lib
1554 U12:loc
1557 U12:met
1560 U12:of
1563 U12:p.
1566 U12:pp.
1569 U12:s.
1572 U12:s.,
1575 U12:s.;
1578 U12:ss.
1581 U12:und
1584 U13:1
1587 U13:1,
1590 U13:10,
1593 U13:11,
1596 U13:14,
1599 U13:1;
1602 U13:2,
1605 U13:3,
1608 U13:4,
1611 U13:5,
1614 U13:6,
1617 U13:7,
1620 U13:8,
1623 U13:9,
1626 U13:A.
1629 U13:Aen.
1632 U13:E.
1635 U13:F.
1638 U13:G.
1641 U13:H.
1644 U13:Hom.
1647 U13:Hymn
1650 U13:J.
1653 U13:M.
1656 U13:Meta
1659 U13:Od.
1662 U13:Ov.
1665 U13:Ovid
1668 U13:P.
1671 U13:Proc
1674 U13:Prop
1677 U13:R.
1680 U13:The
1683 U13:Tith
1686 U13:W.
1689 U13:ad
1692 U13:am.
1695 U13:and
1698 U13:carm
1701 U13:cit.
1704 U13:de
1707 U13:di
1710 U13:e
1713 U13:et
1716 U13:fast
1719 U13:in
1722 U13:loc.
1725 U13:met.
1728 U13:of
1731 U13:p.
1734 U13:pp.
1737 U13:s.
1740 U13:s.,
1743 U13:s.;
1746 U13:ss.
1749 U13:ss.)
1752 U13:ss.,
1755 U13:ss.;
1758 U13:und
1761 U14:)
1764 U14:,
1767 U14:.
1770 U14:0
1773 U14:1
1776 U14:2
1779 U14:3
1782 U14:4
1785 U14:5
1788 U14:6
1791 U14:7
1794 U14:8
1797 U14:9
1800 U14::
1803 U14:;
1806 U14:a
1809 U14:d
1812 U14:e
1815 U14:f
1818 U14:g
1821 U14:i
1824 U14:l
1827 U14:m
1830 U14:n
1833 U14:o
1836 U14:r
1839 U14:s
1842 U14:t
1845 U14:u
1848 U14:»
1851 U15:),
1854 U15:).
1857 U15:);
1860 U15:.)
1863 U15:.,
1866 U15:..
1869 U15:.:
1872 U15:.;
1875 U15:0,
1878 U15:1
1881 U15:1,
1884 U15:1;
1887 U15:2,
1890 U15:21
1893 U15:26
1896 U15:3,
1899 U15:4,
1902 U15:44
1905 U15:4;
1908 U15:5,
1911 U15:6,
1914 U15:7,
1917 U15:8,
1920 U15:8;
1923 U15:9,
1926 U15:A.
1929 U15:C.
1932 U15:E.
1935 U15:F.
1938 U15:G.
1941 U15:H.
1944 U15:I,
1947 U15:J.
1950 U15:M.
1953 U15:P.
1956 U15:R.
1959 U15:W.
1962 U15:a,
1965 U15:ad
1968 U15:as
1971 U15:b.
1974 U15:c.
1977 U15:ca
1980 U15:d.
1983 U15:de
1986 U15:di
1989 U15:e
1992 U15:e,
1995 U15:en
1998 U15:er
2001 U15:es
2004 U15:et
2007 U15:g.
2010 U15:ge
2013 U15:h.
2016 U15:he
2019 U15:i,
2022 U15:ia
2025 U15:ie
2028 U15:in
2031 U15:is
2034 U15:l,
2037 U15:l.
2040 U15:le
2043 U15:m.
2046 U15:n,
2049 U15:n.
2052 U15:nd
2055 U15:ne
2058 U15:ni
2061 U15:no
2064 U15:ns
2067 U15:o,
2070 U15:of
2073 U15:on
2076 U15:os
2079 U15:p.
2082 U15:r,
2085 U15:r.
2088 U15:ra
2091 U15:re
2094 U15:s,
2097 U15:s.
2100 U15:t,
2103 U15:t.
2106 U15:ti
2109 U15:ue
2112 U15:um
2115 U15:ur
2118 U15:us
2121 U15:v.
2124 U15:Â»
2127 U16:,
2130 U16:.
2133 U16:...
2136 U16:.Â»
2139 U16:1
2142 U16:10,
2145 U16:11,
2148 U16:13,
2151 U16:14,
2154 U16:2
2157 U16:3
2160 U16:4
2163 U16:5
2166 U16:6
2169 U16:7
2172 U16:9
2175 U16:;
2178 U16:II,
2181 U16:Od.
2184 U16:Ov.
2187 U16:The
2190 U16:a
2193 U16:am.
2196 U16:and
2199 U16:che
2202 U16:d
2205 U16:e
2208 U16:en,
2211 U16:en.
2214 U16:er,
2217 U16:et.
2220 U16:f
2223 U16:hen
2226 U16:i
2229 U16:io,
2232 U16:it,
2235 U16:lle
2238 U16:n
2241 U16:nis
2244 U16:om.
2247 U16:oni
2250 U16:or.
2253 U16:ore
2256 U16:pp.
2259 U16:rg.
2262 U16:ris
2265 U16:s.,
2268 U16:s.;
2271 U16:ss.
2274 U16:st.
2277 U16:t
2280 U16:t.,
2283 U16:te,
2286 U16:und
2289 U16:us,
2292 U17:,
2295 U17:.
2298 U17:0
2301 U17:1
2304 U17:1,
2307 U17:1;
2310 U17:2
2313 U17:2,
2316 U17:3
2319 U17:3,
2322 U17:4
2325 U17:4,
2328 U17:5
2331 U17:5,
2334 U17:6
2337 U17:6,
2340 U17:7
2343 U17:7,
2346 U17:8
2349 U17:8,
2352 U17:9
2355 U17:9,
2358 U17::
2361 U17:;
2364 U17:A.
2367 U17:Aen.
2370 U17:E.
2373 U17:F.
2376 U17:G.
2379 U17:H.
2382 U17:Hom.
2385 U17:J.
2388 U17:M.
2391 U17:P.
2394 U17:R.
2397 U17:W.
2400 U17:ad
2403 U17:ast.
2406 U17:chen
2409 U17:d
2412 U17:de
2415 U17:di
2418 U17:e
2421 U17:et
2424 U17:i
2427 U17:in
2430 U17:ist.
2433 U17:it.,
2436 U17:met.
2439 U17:more
2442 U17:of
2445 U17:p.
2448 U17:r
2451 U17:s
2454 U17:s.
2457 U17:s...
2460 U17:ss.,
2463 U17:ss.;
2466 U23:CONTINUING_PUNCTUATION
2469 U23:FINAL_DOT
2472 U23:OTHERS
2475 U23:_B+1
2478 U24:CONTINUING_PUNCTUATION
2481 U24:FINAL_DOT
2484 U24:OTHERS
2487 U24:_B-1
2490 U25:CONTINUING_PUNCTUATION
2493 U25:FINAL_DOT
2496 U25:OTHERS
2499 U25:_B+1
2502 U25:_B+2
2505 U26:OTHERS
2508 U26:UNPAIRED_ROUND_BRACKETS
2511 U26:_B-1
2514 U27:OTHERS
2517 U27:UNPAIRED_ROUND_BRACKETS
2520 U28:OTHERS
2523 U28:UNPAIRED_ROUND_BRACKETS
2526 U28:_B+1
2529 U29:OTHERS
2532 U29:UNPAIRED_ROUND_BRACKETS
2535 U29:_B+1
2538 U29:_B+2
2541 U30:NO_DIGITS
2544 U30:NUMBER
2547 U30:OTHERS
2550 U30:_B-1
2553 U31:NO_DIGITS
2556 U31:NUMBER
2559 U31:OTHERS
2562 U32:NO_DIGITS
2565 U32:NUMBER
2568 U32:OTHERS
2571 U32:_B+1
2574 U347:1
2577 U347:12
2580 U347:14
2583 U347:15
2586 U347:2
2589 U347:3
2592 U347:4
2595 U347:5
2598 U347:6
2601 U347:7
2604 U347:8
2607 U347:9
2610 U347:_
2613 U347:_B+1
2616 U347:_B+2
2619 U347:a
2622 U347:ad
2625 U347:amore
2628 U347:and
2631 U347:cit
2634 U347:de
2637 U347:di
2640 U347:die
2643 U347:e
2646 U347:et
2649 U347:in
2652 U347:loc
2655 U347:of
2658 U347:ovid
2661 U347:ovids
2664 U347:p
2667 U347:pp
2670 U347:procris
2673 U347:r
2676 U347:s
2679 U347:ss
2682 U347:the
2685 U347:und
2688 U34:1
2691 U34:10
2694 U34:11
2697 U34:12
2700 U34:13
2703 U34:14
2706 U34:15
2709 U34:2
2712 U34:3
2715 U34:4
2718 U34:5
2721 U34:6
2724 U34:7
2727 U34:8
2730 U34:9
2733 U34:_
2736 U34:_B+1
2739 U34:a
2742 U34:ad
2745 U34:amore
2748 U34:and
2751 U34:carm
2754 U34:cit
2757 U34:de
2760 U34:di
2763 U34:die
2766 U34:e
2769 U34:et
2772 U34:il
2775 U34:in
2778 U34:la
2781 U34:loc
2784 U34:met
2787 U34:of
2790 U34:ovid
2793 U34:ovids
2796 U34:p
2799 U34:pp
2802 U34:procris
2805 U34:r
2808 U34:s
2811 U34:ss
2814 U34:the
2817 U34:und
2820 U35:1
2823 U35:10
2826 U35:11
2829 U35:12
2832 U35:13
2835 U35:14
2838 U35:15
2841 U35:2
2844 U35:3
2847 U35:4
2850 U35:5
2853 U35:6
2856 U35:7
2859 U35:8
2862 U35:9
2865 U35:_
2868 U35:a
2871 U35:ad
2874 U35:aen
2877 U35:am
2880 U35:amore
2883 U35:and
2886 U35:carm
2889 U35:cit
2892 U35:de
2895 U35:di
2898 U35:die
2901 U35:e
2904 U35:et
2907 U35:f
2910 U35:fast
2913 U35:g
2916 U35:h
2919 U35:hom
2922 U35:il
2925 U35:in
2928 U35:j
2931 U35:la
2934 U35:loc
2937 U35:m
2940 U35:met
2943 U35:od
2946 U35:of
2949 U35:ov
2952 U35:ovid
2955 U35:ovids
2958 U35:p
2961 U35:pp
2964 U35:procris
2967 U35:prop
2970 U35:r
2973 U35:s
2976 U35:ss
2979 U35:the
2982 U35:und
2985 U35:v
2988 U35:w
2991 U36:1
2994 U36:10
2997 U36:11
3000 U36:12
3003 U36:13
3006 U36:14
3009 U36:15
3012 U36:2
3015 U36:3
3018 U36:4
3021 U36:5
3024 U36:6
3027 U36:7
3030 U36:8
3033 U36:9
3036 U36:_
3039 U36:_B+1
3042 U36:a
3045 U36:ad
3048 U36:amore
3051 U36:and
3054 U36:carm
3057 U36:cit
3060 U36:de
3063 U36:di
3066 U36:die
3069 U36:e
3072 U36:et
3075 U36:il
3078 U36:in
3081 U36:la
3084 U36:loc
3087 U36:met
3090 U36:of
3093 U36:ovid
3096 U36:ovids
3099 U36:p
3102 U36:pp
3105 U36:procris
3108 U36:r
3111 U36:s
3114 U36:ss
3117 U36:the
3120 U36:und

-0.8449498236541219
1.9994443141088816
-1.3519548750504395
-0.5451585077327664
1.5933827661278268
-0.9130413016534771
0.8329461315790248
-3.1374970638860153
2.3668283601607989
-0.0356906653033567
0.0103460293722683
0.0253446359310999
-0.0537752689746082
0.1248150810550975
-0.0710398120804578
-0.0156279025966569
0.1158901344247354
-0.1002622318280865
-0.0179647121657344
0.3100078794423671
-0.2920431672766321
-0.0119278025372914
0.1804633307283476
-0.1685355281910841
-0.0054116041957811
0.2451650939338793
-0.2397534897380893
-0.0349769596045946
0.1144555221685809
-0.0794785625639691
-0.0123000730302922
0.1250888359943851
-0.1127887629640903
-0.0021916717166100
-0.0042808324579294
0.0064725041745038
-0.0058237034973398
0.1819610010291714
-0.1761372975318349
-0.0155388977560073
-0.0039516256702569
0.0194905234262252
-0.0031929143889308
-0.0068618334470118
0.0100547478359511
-0.0350837533669291
-0.0054701274360412
0.0405538808029598
-0.0047622432590777
-0.0032706745487627
0.0080329178078325
-0.0280012098191345
-0.1088353343670631
0.1368365441862097
-0.0091478383708126
-0.0129624889777592
0.0221103273485433
-0.0036946561241870
-0.0045741506657837
0.0082688067899607
-0.0023621322819320
0.0506648972428866
-0.0483027649609455
-0.0043335914956337
0.0530778452622727
-0.0487442537666356
-0.0095847305133050
-0.0073673692819721
0.0169520997952642
-0.0058319567498511
-0.0045629200320592
0.0103948767819055
-0.0105317681705948
-0.0017171624409936
0.0122489306115703
-0.0029288290402313
-0.0042193325707174
0.0071481616109417
0.0370611071024440
0.0527626968191036
-0.0898238039215541
0.1775706522055087
-0.2813739697804595
0.1038033175749777
-0.1208656543181417
0.0329809773320580
0.0878846769860829
-0.0264696506620065
0.2736425382754760
-0.2471728876134670
-0.0027834514128723
-0.0022575471302835
0.0050409985431253
-0.1459888531424425
0.1864066729919102
-0.0404178198494933
-0.0027798836610369
-0.0014601687223222
0.0042400523833555
-0.0123871560891682
0.0277827632874012
-0.0153956071982545
0.2545929819938776
0.0217703383677261
-0.2763633203616316
0.1263729185572826
-0.0085177907077384
-0.1178551278495374
-0.0021261823928603
0.0920074837395973
-0.0898813013467380
-0.0263063834430365
0.1810598519955116
-0.1547534685524272
-0.0074240187359299
0.4743074726593133
-0.4668834539233633
-0.0771441465213944
-0.0270775060274420
0.1042216525488295
-0.0544973169159530
-0.4633396177669871
0.5178369346829282
-0.0052787107232646
0.0874579188437523
-0.0821792081204825
-0.0691067674868643
-0.0123822856036272
0.0814890530905339
-0.0037977435736645
0.0677543866127801
-0.0639566430391182
-0.0919085822448198
0.3343822414465644
-0.2424736592017391
-0.0038108181488217
0.3006700656739780
-0.2968592475251723
-0.0018203911880169
-0.2272725611489755
0.2290929523370004
-0.0027781500268998
0.1729054237835135
-0.1701272737566109
-0.0269623570816804
0.5390005848178678
-0.5120382277361526
-0.0193111907064017
0.4411403179622896
-0.4218291272559010
-0.0181430200632175
0.2155148171549262
-0.1973717970916951
-0.0059181716693069
0.0086273249136081
-0.0027091532443163
-0.0094356430130033
0.2149980600310013
-0.2055624170179871
-0.0088566039420453
0.4421079610859823
-0.4332513571439197
-0.0044915009319245
-0.2237913639865297
0.2282828649184518
-0.0111272925835281
0.1218332929776236
-0.1107060003941226
-0.0029548336021452
-0.0138343297885735
0.0167891633907004
-0.0605617715057312
0.1527898960623132
-0.0922281245565808
-0.0033047926031224
-0.0043165732611082
0.0076213658642083
-0.0018953669570068
-0.0245870648429861
0.0264824318000032
-0.0043936400775240
-0.0276248849612135
0.0320185250387339
-0.0018147262795911
-0.0077485829989794
0.0095633092785670
-0.0419630466684786
0.1400389400075549
-0.0980758933390732
-0.0045516570960231
-0.0302331476561134
0.0347848047521162
-0.0062054687655783
-0.0075890879833156
0.0137945567488966
-0.0203318379753840
0.0462116611595444
-0.0258798231841537
0.1774606587600909
-0.1165524729203490
-0.0609081858397433
-0.0067477079468990
-0.0131357751509390
0.0198834830978289
-0.0019796829218971
-0.0177295333209738
0.0197092162428742
-0.0051737562829885
-0.0012098625947816
0.0063836188777559
-0.0036734640288859
-0.0134649814758944
0.0171384455047756
0.1775706522055087
-0.2813739697804595
0.1038033175749777
0.2354349753915757
-0.1409494897612389
-0.0944854856303411
-0.0023329410306142
0.1924817930051673
-0.1901488519745508
-0.0144291753463207
-0.0015083567628736
0.0159375321091634
-0.0447328376778257
-0.0093730342918423
0.0541058719696381
-0.0039538008949927
-0.0012986052115563
0.0052524061065399
0.2299309275286004
-0.2094508402152495
-0.0204800873134072
0.2034373320580040
-0.3151865746927259
0.1117492426346828
-0.0109139886695383
-0.0015816054696532
0.0124955941391977
-0.0529226059596477
0.0944568898803278
-0.0415342839206872
0.3159385505442867
-0.1700992856814471
-0.1458392648628078
-0.0554794112958062
0.3319718946615550
-0.2764924833657283
-0.0401630734660114
-0.0018974215610843
0.0420604950270745
-0.0066337976747965
-0.4489188127316188
0.4555526104064282
-0.0242491620601634
-0.4425097997243869
0.4667589617845093
-0.2106123908066010
0.1733147908684685
0.0372975999381372
-0.0405723041992868
0.3267871223398536
-0.2862148181405712
-0.0195311451037720
-0.0022693639082893
0.0218005090120971
-0.5724001792295540
0.1522071538005582
0.4201930254286950
-0.0190626122823856
0.0677530745179168
-0.0486904622355479
0.0370611071024440
0.0527626968191036
-0.0898238039215541
0.1775706522055087
-0.2813739697804595
0.1038033175749777
-0.0348281282557834
-0.0561850526378494
0.0910131808936340
-0.1236240670745787
-0.0144230749150413
0.1380471419896179
0.1948359227586709
0.0846845607659797
-0.2795204835246729
-0.0689958703984808
0.5332856351470369
-0.4642897647485544
0.1018757305322480
-0.0253926690809574
-0.0764830614512838
-0.0038414640027522
0.2150155196248167
-0.2111740556220412
-0.1632363545709224
0.2077077186188238
-0.0444713640478722
0.1274238679270114
0.0330266950185117
-0.1604505629455223
0.1969150784930864
-0.1979422879666626
0.0010272094735899
0.0865142999120417
0.0046759665563390
-0.0911902664683891
0.0459110425314669
0.0419928951079046
-0.0879039376393668
0.1762503712751783
-0.0351055023509331
-0.1411448689242275
0.1627645425853300
0.1622329996432681
-0.3249975422286078
-0.0535104551674704
0.0061463066433082
0.0473641485241391
-0.0235820295214823
-0.0097503250222985
0.0333323545437680
0.1037137017770515
0.0664470998413127
-0.1701608016183639
-0.0099231313696513
-0.0115063146441644
0.0214294460138058
-0.0442911551656036
-0.0221783860586970
0.0664695412242959
-0.0401313081369553
-0.0205670846713111
0.0606983928082657
-0.0167683441255465
-0.0204715349094688
0.0372398790350184
0.0174995270124646
0.0228875990135583
-0.0403871260260233
-0.0563164496538218
-0.0214269326111905
0.0777433822650004
-0.0146603756565073
-0.0111124653519064
0.0257728410084249
-0.0138720196944577
0.0744080228686568
-0.0605360031741973
0.1714323188352518
-0.0103157397921832
-0.1611165790430699
-0.0307827944784922
-0.0213720483773100
0.0521548428557979
-0.0235612924320327
0.0827366218657546
-0.0591753294337171
-0.0026761992599352
-0.0021574007905210
0.0048336000504392
-0.0172082587119845
-0.0490464527960627
0.0662547115080421
-0.0715329001427488
-0.0463425399291589
0.1178754400719048
0.4866586338223587
-0.2813432009905767
-0.2053154328317846
-0.0016559172465192
-0.0018140300668706
0.0034699473133522
-0.0067956020359438
-0.0190884927059150
0.0258840947418238
-0.0005870977540539
-0.0008406890105919
0.0014277867646410
-0.0399971577694435
-0.0034738188403667
0.0434709766097744
-0.0132237129156521
-0.0289183573578505
0.0421420702734775
-0.0010663707036489
-0.0018765833518270
0.0029429540554831
0.1802698902437391
-0.0884950057439569
-0.0917748844997850
-0.0479393475493720
0.0276710207911823
0.0202683267582262
0.1998646777480976
0.0342929713227362
-0.2341576490708329
-0.0011500914943980
-0.0019784074087798
0.0031284989031478
-0.0453930349542777
-0.0556198401419992
0.1010128750962700
-0.1123795934769813
-0.0414363127903208
0.1538159062672393
-0.0068762097157670
0.1731736096946307
-0.1662973999788784
-0.0359146214711957
0.0510187181756880
-0.0151040967044687
-0.0157610945676778
-0.0228206455600437
0.0385817401277508
-0.0117610437311246
-0.0344055776540358
0.0461666213851834
-0.0537053928216785
-0.0966339024330909
0.1503392952547678
-0.0041381227672758
0.0000678236251476
0.0040702991421101
-0.0010153011921322
-0.0017260564472621
0.0027413576394268
-0.1105510623414530
0.0294424577820675
0.0811086045593937
0.1322466554593622
0.1723050093902352
-0.3045516648495850
-0.0290038373312213
-0.2652504216527722
0.2942542589839682
-0.2484775043979489
-0.0432356208482417
0.2917131252461908
0.1285558735963079
-0.1213003363691712
-0.0072555372271348
0.2200922592470777
-0.5028836779814718
0.2827914187344032
-0.1311981886432960
0.0936471022415809
0.0375510864017340
0.0685063991988420
0.2441099083855240
-0.3126163075843633
0.2291699332589212
-0.3809283100026228
0.1517583767437104
0.1147838122402339
-0.0205692815342819
-0.0942145307059667
0.0547381366163113
0.1521241928109499
-0.2068623294272692
0.1143038880977718
-0.1620251309622853
0.0477212428645249
-0.0799822285499030
-0.0941767759534778
0.1741590045033703
-0.1256724392342926
0.1193554255580376
0.0063170136762419
-0.0291578505386353
-0.0050986434503868
0.0342564939890245
-0.0055905587030486
-0.0026412701651425
0.0082318288681817
-0.1821311630066721
0.0387730898286896
0.1433580731780993
-0.0578644168665943
-0.0363451893043557
0.0942096061709347
-0.0043665169274697
-0.0025201816752924
0.0068866986027329
-0.0102370305788270
-0.0051091479865105
0.0153461785652903
-0.0042039185388560
-0.0039060499429134
0.0081099684817758
-0.0038677653273082
-0.0036559041176185
0.0075236694448997
-0.0528078744389501
-0.2207707956204329
0.2735786700593250
-0.0020205945573131
-0.0031508879851522
0.0051714825424623
-0.0497032040039040
-0.0137031512631341
0.0634063552670797
-0.1270328398854965
-0.3031334366430120
0.4301662765285134
-0.0052444520199827
-0.0012676736447779
0.0065121256647364
-0.0408062914006628
-0.0431852058962421
0.0839914972968893
-0.0293593745650626
-0.1255065014243333
0.1548658759893138
-0.0889077395333287
0.0251321760408608
0.0637755634924556
-0.0083579177226383
0.0722646731849256
-0.0639067554622672
-0.0232903386524215
-0.0115132096453269
0.0348035482977738
-0.0381615664156452
-0.1940460587044878
0.2322076251201409
-0.0062153463090953
0.3889922399803940
-0.3827768936713020
-0.0055850398935434
-0.2371603110228149
0.2427453509163334
-0.0046155627847595
-0.0020048471521767
0.0066204099369676
-0.0293212655876778
-0.0264692606326976
0.0557905262203777
0.1360521883306779
-0.0844244869387740
-0.0516277013918983
0.1635505392149478
-0.0491806913190761
-0.1143698478958595
-0.3435748660118846
0.1853540729241601
0.1582207930877254
0.0335168823095783
-0.0109739287387738
-0.0225429535708107
0.3217957409408898
-0.3521377790518205
0.0303420381109110
0.2102574662273098
0.0060380636403661
-0.2162955298676784
0.0870799649822988
-0.1722136702490006
0.0851337052667112
0.0221127413658622
-0.3642528197739379
0.3421400784080637
-0.0051489502212999
-0.0128283338180877
0.0179772840393923
-0.0048772697125945
-0.0066100067859140
0.0114872764985067
-0.1950593017301076
0.0256758274402653
0.1693834742898823
-0.1821311630066721
0.0387730898286896
0.1433580731780993
-0.0265410050596201
-0.0096575367758536
0.0361985418354590
-0.0154169898258727
-0.0059464014874880
0.0213633913133369
-0.0160146218459678
-0.0041179885064261
0.0201326103523536
-0.0042052360058377
-0.0103406023556569
0.0145458383614880
-0.0135574609613576
-0.0038512052610077
0.0174086662223455
-0.1005417564960657
0.0954046671381664
0.0051370893578713
-0.0080035546675826
-0.0048013043129696
0.0128048589805542
-0.0049593030125680
-0.1128965858421879
0.1178558888547994
-0.0023245000393792
-0.0023881576801154
0.0047126577194747
-0.0289596017172884
-0.0860219847868654
0.1149815865041200
-0.0393303377997513
0.0993573754954141
-0.0600270376957449
0.2154045030996529
-0.0911189923441426
-0.1242855107555177
-0.1187002983854887
0.2685466535098370
-0.1498463551243312
-0.1483057723199368
0.1241152325306047
0.0241905397893517
-0.2934406475855066
0.0480544486835906
0.2453861989019231
0.0599952055592692
0.3139899702539187
-0.3739851758132000
0.2351946787853019
-0.5459187556353080
0.3107240768499822
-0.0015550697321140
-0.0048025081809540
0.0063575779131136
-0.5895030238973684
0.0313378034416024
0.5581652204557208
-0.5652010586590243
-0.1988213955106615
0.7640224541696342
1.0561324810550716
-0.3512296461833955
-0.7049028348717880
-0.2810199461010527
0.6926692848227036
-0.4116493387217275
-0.0538383652237676
0.1952263343901311
-0.1413879691663436
0.4024942530707475
-0.1407430536569788
-0.2617511994137720
-0.0542209518165537
0.2026693881807869
-0.1484484363642022
-0.0199920539463459
0.4703129780325313
-0.4503209240861893
-0.0586443444317334
0.7631353808192020
-0.7044910363874589
-0.0121263911184432
0.2023979767069042
-0.1902715855884906
-0.0778027212790090
0.2348940173798847
-0.1570912961008688
-0.0363795875014342
0.0969973077042138
-0.0606177202027660
-0.0134834149507461
0.1364114642746160
-0.1229280493238564
-0.0016060682817188
0.0163185258068073
-0.0147124575250575
0.0370611071024440
0.0527626968191036
-0.0898238039215541
0.1775706522055087
-0.2813739697804595
0.1038033175749777
-0.0201791090548322
-0.2159742033799678
0.2361533124347514
-0.0331600348247891
-0.0352106478264493
0.0683706826512362
-0.0059485842333403
0.1834111657038770
-0.1774625814705392
-0.0264696506620065
0.2736425382754760
-0.2471728876134670
-0.0015332620325435
-0.0056333347504464
0.0071665967829642
-0.0027834514128723
-0.0022575471302835
0.0050409985431253
-0.1520013870110484
-0.0109899265784387
0.1629913135894554
-0.0049652204648860
-0.0047292896910220
0.0096945101558929
-0.0123871560891682
0.0277827632874012
-0.0153956071982545
-0.0066421296794725
-0.0019589853972081
0.0086011150766658
0.2312950844057669
0.0166872814207199
-0.2479823658265533
0.1257329727880994
-0.0180411734649677
-0.1076917993231270
-0.0031929143889308
-0.0068618334470118
0.0100547478359511
-0.0022497974816538
0.1667736196860322
-0.1645238222043789
-0.0350837533669291
-0.0054701274360412
0.0405538808029598
-0.0047622432590777
-0.0032706745487627
0.0080329178078325
-0.0287097739544927
-0.0997036453896152
0.1284134193441193
0.0190351026684865
-0.0857518542699261
0.0667167516014477
-0.0266177083639043
0.1807016839702911
-0.1540839756063451
-0.0091478383708126
-0.0129624889777592
0.0221103273485433
-0.0224111308173671
-0.1435349590592819
0.1659460898766576
0.0416683334729718
-0.0358965281393191
-0.0057718053336620
-0.0075315801709855
0.4753135698390128
-0.4677819896680072
-0.0023621322819320
0.0506648972428866
-0.0483027649609455
-0.0771441465213944
-0.0270775060274420
0.1042216525488295
-0.0049886052128923
0.2944211010731201
-0.2894324958602110
-0.0060286958891598
-0.0467837628808990
0.0528124587700421
-0.0033252114111088
-0.0032337481163278
0.0065589595274276
-0.0122564651775642
-0.0231571454168445
0.0354136105943977
-0.0578226058418135
-0.6288935238531421
0.6867161296949416
-0.0246387911421389
0.0709983368525183
-0.0463595457103831
0.1101394017006545
-0.0789172974996635
-0.0312221042009937
-0.0553462553570527
-0.0911956933179866
0.1465419486750470
0.2235180595127629
-0.2303779493276449
0.0068598898149129
-0.0143949077039044
-0.0026966286273938
0.0170915363312686
-0.0691067674868643
-0.0123822856036272
0.0814890530905339
-0.0029288290402313
-0.0042193325707174
0.0071481616109417
-0.0038454457433697
0.0266275049483506
-0.0227820592049576
-0.1622874258097176
0.4078054711473860
-0.2455180453376455
-0.1173316232271170
-0.0164609539441799
0.1337925771713149
-0.0103153148952763
-0.0144854784123404
0.0248007933076377
-0.0257608107307342
-0.0105245293290432
0.0362853400597651
-0.0046199415538709
-0.0049592004901955
0.0095791420440777
-0.0029035259035961
-0.1490847006423795
0.1519882265459919
-0.0108767033239364
0.2562071367731726
-0.2453304334492544
-0.0150829697649572
0.2426941347808665
-0.2276111650160839
0.0265300679328560
-0.0152026517577351
-0.0113274161751147
0.3739879829995963
-0.2561047880926484
-0.1178831949069675
-0.1224261640033209
0.2080187044701446
-0.0855925404668270
-0.2434916573418054
-0.2381197625161927
0.4816114198578837
-0.0951797057493752
-0.2105117441337462
0.3056914498830226
0.0453339695646297
-0.0427327294126219
-0.0026012401519714
-0.3117911269342888
-0.1649827810491127
0.4767739079832070
-0.5844223810870678
0.8896204368105912
-0.3051980557235328
0.3019902011110287
-0.3220703362298721
0.0200801351187451
0.0370611071024440
0.0527626968191036
-0.0898238039215541
0.1775706522055087
-0.2813739697804595
0.1038033175749777
-0.0832615266635872
-0.0100387180194618
0.0933002446828744
0.2525977333589800
0.2167290889742989
-0.4693268223332692
-0.5489277542977672
-0.0327343243845887
0.5816620786822353
-0.0038454457433697
0.0266275049483506
-0.0227820592049576
-0.1622874258097176
0.4078054711473860
-0.2455180453376455
-0.1173316232271170
-0.0164609539441799
0.1337925771713149
-0.0103153148952763
-0.0144854784123404
0.0248007933076377
-0.0257608107307342
-0.0105245293290432
0.0362853400597651
-0.0046199415538709
-0.0049592004901955
0.0095791420440777
-0.0029035259035961
-0.1490847006423795
0.1519882265459919
-0.0108767033239364
0.2562071367731726
-0.2453304334492544
-0.0150829697649572
0.2426941347808665
-0.2276111650160839
0.0265300679328560
-0.0152026517577351
-0.0113274161751147
0.3739879829995963
-0.2561047880926484
-0.1178831949069675
-0.1224261640033209
0.2080187044701446
-0.0855925404668270
-0.2434916573418054
-0.2381197625161927
0.4816114198578837
-0.0951797057493752
-0.2105117441337462
0.3056914498830226
0.0453339695646297
-0.0427327294126219
-0.0026012401519714
0.3207518060662781
-0.7104205132115776
0.3896687071453264
-0.1162320774524720
0.0571981277528764
0.0590339496995437
-0.4569855885152497
0.6112231216244887
-0.1542375331092757
0.0559249577973745
0.2243362836543784
-0.2802612414517457
0.0418018193100907
0.2822823226175810
-0.3240841419276604
0.0142955590733734
0.2036689487790608
-0.2179645078524604
-0.1149656488159802
-0.3081593781671567
0.4231250269831521
0.1401922505140040
-0.1271188934486172
-0.0130733570653520
-0.0752810048440441
0.3913913118560032
-0.3161103070119765
-0.0631607409495819
0.2485823287092859
-0.1854215877597288
-0.2484381080518905
-0.0292287449501705
0.2776668530020521
-0.1727479493215328
0.2606373055606531
-0.0878893562391495
-0.2668849986615998
0.1843361898325625
0.0825488088289669
-0.3307145477274069
-0.0202218649848615
0.3509364127122585
0.0853709308683822
-0.0489534845739181
-0.0364174462944569
0.5614972362292412
-0.0952789460744718
-0.4662182901547889
0.1811623741252793
-0.0517785013108508
-0.1293838728144349
0.0319344414483597
0.1983916434579209
-0.2303260849062946
-0.1404305529104995
-0.2005395497242218
0.3409701026347038
0.4448020111273553
-0.1670644716088994
-0.2777375395184747
-0.0111591482640464
-0.0090737944855575
0.0202329427496168
0.1534787174302349
0.1930519478949811
-0.3465306653252620
-0.3161912896295444
-0.0412171846116429
0.3574084742411757
0.0208586248509517
-0.1861608924958405
0.1653022676449162
0.1715891081737345
-0.0327508660552740
-0.1388382421184682
0.2732598764427132
-0.3374618793956522
0.0642020029529184
-0.2058063827673779
0.0999820691674555
0.1058243135999269
-0.1782797917515969
0.2820857990955097
-0.1038060073439085
0.0062552303281938
-0.0944436189371903
0.0881883886089965
0.3283007926422007
0.0877017723690297
-0.4160025650112205
-0.0344436461298436
-0.1142593369399319
0.1487029830698071
0.8710323382275913
-0.5016932363423861
-0.3693391018852994
-0.0091752562906759
-0.0201789096207221
0.0293541659114031
-0.1532051816650361
-0.0317914472817547
0.1849966289467430
-0.0769150548713559
-0.5268293995943475
0.6037444544656941
-0.5364484328839080
0.3892081858142475
0.1472402470696307
0.3871749413072955
0.1209918403399645
-0.5081667816472372
0.1223963860367892
-0.1187408821749617
-0.0036555038618266
-0.0680336083046892
0.0211963040961521
0.0468373042086124
-0.1282343656555603
0.0710784997219085
0.0571558659336635
-0.1011611562028369
0.0768830746384832
0.0242780815643582
-0.0171557298834049
-0.0860251399894197
0.1031808698728250
-0.0045295749279110
-0.0045550290073074
0.0090846039351512
0.1385078314212905
0.0943585893815224
-0.2328664208028831
-0.0054927136769085
-0.0084024991781109
0.0138952128550009
-0.1868005445596645
0.6357511922430207
-0.4489506476833816
0.1079874621890206
-0.0588794792895576
-0.0491079828994452
-0.0023999120373960
-0.0387576867640603
0.0411575988015385
-0.5776920746143804
-0.0713034254933009
0.6489955001076889
-0.1479099248753274
-0.2915044277964877
0.4394143526718128
-0.0348281282557834
-0.0561850526378494
0.0910131808936340
-0.1236240670745787
-0.0144230749150413
0.1380471419896179
0.1811963865119585
0.1519787066043943
-0.3331750931163874
-0.1026146206335393
0.2929913839111402
-0.1903767632776030
-0.1135407653843669
0.0889710650271953
0.0245697003571510
0.1311016728668601
0.0985322614827485
-0.2296339343496088
0.2966783522614761
-0.0825178129095734
-0.2141605393518972
-0.0759416211069043
0.0718052146942248
0.0041364064126827
-0.0230077744139102
-0.2841000522343886
0.3071078266482734
-0.1636500278961753
0.0589855411524337
0.1046644867437364
-0.0745586849480368
-0.2493498881360691
0.3239085730840929
-0.0038414640027522
0.2150155196248167
-0.2111740556220412
-0.1632363545709224
0.2077077186188238
-0.0444713640478722
-0.0059159438297977
-0.2822303396470626
0.2881462834768492
-0.1359718654271196
-0.0422493065961643
0.1782211720232793
-0.0137398681834179
-0.1985642401613119
0.2123041083447269
-0.0014520128390399
0.3063299230591909
-0.3048779102201661
-0.0060247920277681
0.0781635905385989
-0.0721387985108106
0.1274238679270114
0.0330266950185117
-0.1604505629455223
-0.0494593858200610
0.1351577532630421
-0.0856983674430095
-0.0026728956061038
-0.0642063197043669
0.0668792153104711
0.1969150784930864
-0.1979422879666626
0.0010272094735899
-0.0114123216043712
-0.1761113925431365
0.1875237141475155
-0.0067968900176896
0.4459380577850950
-0.4391411677673959
-0.0067529517582244
-0.2607805616382569
0.2675335133964817
0.0865142999120417
0.0046759665563390
-0.0911902664683891
-0.0018318785424915
0.0020944415375766
-0.0002625629950859
-0.0069396257347874
0.3505575478294402
-0.3436179220946622
0.0459110425314669
0.0419928951079046
-0.0879039376393668
0.1762503712751783
-0.0351055023509331
-0.1411448689242275
0.1627645425853300
0.1622329996432681
-0.3249975422286078
-0.0535104551674704
0.0061463066433082
0.0473641485241391
-0.0363792132568263
-0.0457385808947870
0.0821177941515989
0.0960369913295414
0.0659031907794555
-0.1619401821090014
-0.0785016738706239
0.0591811968692108
0.0193204770014002
0.0807177377288949
-0.0128758020931919
-0.0678419356356870
0.1315703219420471
-0.0404831009011637
-0.0910872210408833
-0.1377296501941846
-0.0109077475636439
0.1486373977578374
-0.0215746905393428
-0.0034060478101009
0.0249807383494367
-0.0286205703238054
-0.0150928136616166
0.0437133839854270
-0.0447237060875632
-0.0039706998350122
0.0486944059225683
-0.1426340448510699
0.2917591536874944
-0.1491251088364212
-0.4153414250985696
0.2584395013756126
0.1569019237229210
-0.2358175490237403
-0.0038606994321730
0.2396782484559061
-0.0052313883570524
-0.0028400270197243
0.0080714153767653
0.0037841762472768
-0.0067379177076572
0.0029537414603743
-0.0099231313696513
-0.0115063146441644
0.0214294460138058
-0.0442911551656036
-0.0221783860586970
0.0664695412242959
0.1529519550772596
-0.0100216501109674
-0.1429303049662997
-0.0087486859988902
-0.0065556064623732
0.0153042924612599
-0.0401313081369553
-0.0205670846713111
0.0606983928082657
-0.0167683441255465
-0.0204715349094688
0.0372398790350184
-0.1564582831603078
0.0185775208263482
0.1378807623339501
0.2378640110235518
0.0038452485655502
-0.2417092595891055
-0.0178515754392430
0.1828726830310612
-0.1650211075918264
-0.0356529569634851
-0.0827835440198081
0.1184365009832923
-0.1238364760622342
-0.0310609286045962
0.1548974046668178
-0.0413833143075162
-0.0359766697647742
0.0773599840722695
-0.3040298075344782
-0.0132722008845557
0.3173020084190464
0.4111017036987463
-0.0344290441182539
-0.3766726595804952
-0.0146603756565073
-0.0111124653519064
0.0257728410084249
0.0606373288494278
0.0455543871843247
-0.1061917160337595
-0.2439618346441136
-0.0366115711801094
0.2805734058242189
-0.0049646373721937
-0.0017902334042016
0.0067548707763988
-0.0138720196944577
0.0744080228686568
-0.0605360031741973
0.2435831761016980
-0.0607517932279681
-0.1828313828737371
-0.0307827944784922
-0.0213720483773100
0.0521548428557979
-0.1056140639627346
0.0430051913127446
0.0626088726499832
0.2760868213131096
-0.3135232040624727
0.0374363827493553
-0.0235612924320327
0.0827366218657546
-0.0591753294337171
-0.1096427660456800
-0.0129720520376706
0.1226148180833379
-0.0703705320689865
0.3225547595211266
-0.2521842274521380
0.0911725766099945
0.0309564066154042
-0.1221289832254077
-0.0664632592585597
-0.0303548344371849
0.0968180936957227
0.0925214646510434
-0.0469619321465488
-0.0455595325044900
0.3522604151496845
-0.0324190759430387
-0.3198413392066511
-0.0071655421352855
-0.0081961620782570
0.0153617042135504
-0.0172082587119845
-0.0490464527960627
0.0662547115080421
-0.0715858453946867
-0.0464022939966838
0.1179881393913618
0.4499764351511947
-0.3203091822768164
-0.1296672528743983
0.1431313529918670
0.0182713501567594
-0.1614027031486673
-0.0621144865584129
-0.1572273102735948
0.2193417968320130
-0.0632707127336102
0.4066877319837041
-0.3434170192501431
-0.0033582109546153
-0.0023228861068996
0.0056810970614982
-0.0133281053373772
-0.1157498471971897
0.1290779525345673
-0.0255155715932944
-0.2688218298982378
0.2943374014915550
-0.0448790837564585
-0.2482341988570159
0.2931132826134329
-0.0132237129156521
-0.0289183573578505
0.0421420702734775
0.2927579368325771
-0.1028324916900754
-0.1899254451425140
-0.0010663707036489
-0.0018765833518270
0.0029429540554831
0.4612466042595331
-0.0941716088317509
-0.3670749954277847
-0.0569661239730408
0.1695105327955076
-0.1125444088224611
-0.0628553259057492
0.0268934208831657
0.0359619050226153
-0.0560690411899114
0.0180139145003356
0.0380551266895989
-0.0010898347717407
-0.0009955602154109
0.0020853949871569
-0.0615077012495165
0.0916681643840808
-0.0301604631345848
-0.0074765094406206
-0.0298921892534457
0.0373686986940713
0.1707401140876110
0.0814768342442321
-0.2522169483318419
-0.0096259504385314
-0.0020648245428844
0.0116907749814071
-0.0011500914943980
-0.0019784074087798
0.0031284989031478
-0.0453930349542777
-0.0556198401419992
0.1010128750962700
-0.0054476883249443
-0.0027266579914957
0.0081743463164436
-0.1123795934769813
-0.0414363127903208
0.1538159062672393
-0.1119833027747647
0.3820806183287115
-0.2700973155539136
-0.0032574687871867
-0.0037101339868831
0.0069676027740289
-0.0728459658603789
0.2446023102455251
-0.1717563443851376
-0.0011723524402139
-0.0052026417338334
0.0063749941740240
-0.0015371190299040
-0.0019085642290445
0.0034456832589684
0.1109719435751356
-0.0549385176137991
-0.0560334259613416
-0.0013408674402170
-0.0020912673333783
0.0034321347736332
-0.1470206686594525
-0.2909557606675311
0.4379764293269712
-0.0348281282557834
-0.0561850526378494
0.0910131808936340
-0.1236240670745787
-0.0144230749150413
0.1380471419896179
0.1948359227586709
0.0846845607659797
-0.2795204835246729
-0.0689958703984808
0.5332856351470369
-0.4642897647485544
0.1018757305322480
-0.0253926690809574
-0.0764830614512838
-0.0031406316639871
-0.0089946031241451
0.0121352347881401
-0.0108672759064133
-0.0659082240560897
0.0767754999625039
-0.0073454210972052
0.0280467814915053
-0.0207013603943311
-0.0105977053522330
-0.1477242572483019
0.1583219626005194
-0.0027420946235705
0.0841068791037111
-0.0813647844801422
-0.0038414640027522
0.2150155196248167
-0.2111740556220412
-0.1632363545709224
0.2077077186188238
-0.0444713640478722
0.1274238679270114
0.0330266950185117
-0.1604505629455223
0.1969150784930864
-0.1979422879666626
0.0010272094735899
0.0865142999120417
0.0046759665563390
-0.0911902664683891
0.0459110425314669
0.0419928951079046
-0.0879039376393668
0.1762503712751783
-0.0351055023509331
-0.1411448689242275
0.1627645425853300
0.1622329996432681
-0.3249975422286078
-0.0535104551674704
0.0061463066433082
0.0473641485241391
-0.0235820295214823
-0.0097503250222985
0.0333323545437680
0.1017421715114311
0.0660225063560344
-0.1677646778674632
-0.0099231313696513
-0.0115063146441644
0.0214294460138058
-0.0442911551656036
-0.0221783860586970
0.0664695412242959
-0.0401313081369553
-0.0205670846713111
0.0606983928082657
-0.0167683441255465
-0.0204715349094688
0.0372398790350184
0.0443544084220838
0.0208148046798711
-0.0651692131019587
-0.0228219021965950
0.1886939317053100
-0.1658720295087226
-0.0563164496538218
-0.0214269326111905
0.0777433822650004
0.4199871664384547
-0.0287492431758214
-0.3912379232626336
-0.0146603756565073
-0.0111124653519064
0.0257728410084249
-0.0056800504928581
-0.0030655023821479
0.0087455528750065
-0.0138720196944577
0.0744080228686568
-0.0605360031741973
0.1714323188352518
-0.0103157397921832
-0.1611165790430699
0.0721508572664463
-0.0504360534357849
-0.0217148038306673
-0.0307827944784922
-0.0213720483773100
0.0521548428557979
-0.0066831058526050
-0.0020690931971046
0.0087521990497064
0.1812926207770619
-0.0627225561610428
-0.1185700646160290
-0.0235612924320327
0.0827366218657546
-0.0591753294337171
0.0737014495850517
-0.0281138696974221
-0.0455875798876531
-0.0055780629004506
-0.0052105955716172
0.0107886584720713
-0.0172082587119845
-0.0490464527960627
0.0662547115080421
-0.0715329001427488
-0.0463425399291589
0.1178754400719048
0.4866586338223587
-0.2813432009905767
-0.2053154328317846
-0.0016559172465192
-0.0018140300668706
0.0034699473133522
-0.0608173807152499
-0.1564081859815964
0.2172255666968601
-0.0618169619940551
0.4001553308519293
-0.3383383688579226
-0.0023603184387331
-0.0012063147033200
0.0035666331420288
-0.0005870977540539
-0.0008406890105919
0.0014277867646410
-0.0139333363499672
-0.0231345465248914
0.0370678828748244
-0.0399971577694435
-0.0034738188403667
0.0434709766097744
-0.0132237129156521
-0.0289183573578505
0.0421420702734775
0.2946821001353598
-0.1103585501136043
-0.1843235500217642
-0.0010663707036489
-0.0018765833518270
0.0029429540554831
0.2822490489015454
-0.0933454367882346
-0.1889036121133134
-0.0479393475493720
0.0276710207911823
0.0202683267582262
-0.0017819870167462
-0.0017094964851624
0.0034914835018873
-0.0069938961804631
-0.0286438850975396
0.0356377812780028
0.1952872313768542
0.0820768351738137
-0.2773640665506670
-0.0011500914943980
-0.0019784074087798
0.0031284989031478
-0.0453930349542777
-0.0556198401419992
0.1010128750962700
-0.1123795934769813
-0.0414363127903208
0.1538159062672393
-0.0068762097157670
0.1731736096946307
-0.1662973999788784
-0.0359146214711957
0.0510187181756880
-0.0151040967044687
-0.0157610945676778
-0.0228206455600437
0.0385817401277508
-0.0726660391377790
0.2501814348004519
-0.1775153956626623
-0.0010153011921322
-0.0017260564472621
0.0027413576394268
-0.0348281282557834
-0.0561850526378494
0.0910131808936340
-0.1236240670745787
-0.0144230749150413
0.1380471419896179
0.1948359227586709
0.0846845607659797
-0.2795204835246729
-0.0689958703984808
0.5332856351470369
-0.4642897647485544
0.1018757305322480
-0.0253926690809574
-0.0764830614512838
-0.0038414640027522
0.2150155196248167
-0.2111740556220412
-0.1632363545709224
0.2077077186188238
-0.0444713640478722
0.1274238679270114
0.0330266950185117
-0.1604505629455223
0.1969150784930864
-0.1979422879666626
0.0010272094735899
0.0865142999120417
0.0046759665563390
-0.0911902664683891
0.0459110425314669
0.0419928951079046
-0.0879039376393668
0.1762503712751783
-0.0351055023509331
-0.1411448689242275
0.1627645425853300
0.1622329996432681
-0.3249975422286078
-0.0535104551674704
0.0061463066433082
0.0473641485241391
-0.0235820295214823
-0.0097503250222985
0.0333323545437680
0.1037137017770515
0.0664470998413127
-0.1701608016183639
-0.0099231313696513
-0.0115063146441644
0.0214294460138058
-0.0442911551656036
-0.0221783860586970
0.0664695412242959
-0.0401313081369553
-0.0205670846713111
0.0606983928082657
-0.0167683441255465
-0.0204715349094688
0.0372398790350184
0.0174995270124646
0.0228875990135583
-0.0403871260260233
-0.0228219021965950
0.1886939317053100
-0.1658720295087226
-0.0563164496538218
-0.0214269326111905
0.0777433822650004
-0.0146603756565073
-0.0111124653519064
0.0257728410084249
-0.0056800504928581
-0.0030655023821479
0.0087455528750065
-0.0138720196944577
0.0744080228686568
-0.0605360031741973
0.1714323188352518
-0.0103157397921832
-0.1611165790430699
0.0721508572664463
-0.0504360534357849
-0.0217148038306673
-0.0307827944784922
-0.0213720483773100
0.0521548428557979
-0.0147251114418194
-0.0014644435681900
0.0161895550099998
0.1985256974205710
-0.0609807976273701
-0.1375448997932037
-0.0235612924320327
0.0827366218657546
-0.0591753294337171
-0.0026761992599352
-0.0021574007905210
0.0048336000504392
-0.0055780629004506
-0.0052105955716172
0.0107886584720713
-0.0172082587119845
-0.0490464527960627
0.0662547115080421
-0.0715329001427488
-0.0463425399291589
0.1178754400719048
0.4866586338223587
-0.2813432009905767
-0.2053154328317846
-0.0016559172465192
-0.0018140300668706
0.0034699473133522
-0.0606408096570799
-0.1560881178212943
0.2167289274783829
-0.0590730470782743
0.4634142318213853
-0.4043411847431492
-0.0005870977540539
-0.0008406890105919
0.0014277867646410
-0.0399971577694435
-0.0034738188403667
0.0434709766097744
-0.0132237129156521
-0.0289183573578505
0.0421420702734775
-0.0010663707036489
-0.0018765833518270
0.0029429540554831
0.2822490489015454
-0.0933454367882346
-0.1889036121133134
-0.0479393475493720
0.0276710207911823
0.0202683267582262
-0.0066106090488356
-0.0266543895187706
0.0332649985676089
0.1998646777480976
0.0342929713227362
-0.2341576490708329
-0.0011500914943980
-0.0019784074087798
0.0031284989031478
-0.0453930349542777
-0.0556198401419992
0.1010128750962700
-0.1123795934769813
-0.0414363127903208
0.1538159062672393
-0.0068762097157670
0.1731736096946307
-0.1662973999788784
-0.0359146214711957
0.0510187181756880
-0.0151040967044687
-0.0157610945676778
-0.0228206455600437
0.0385817401277508
-0.0117610437311246
-0.0344055776540358
0.0461666213851834
-0.0025411707803733
0.1855317493279074
-0.1829905785475333
-0.0537053928216785
-0.0966339024330909
0.1503392952547678
-0.0041381227672758
0.0000678236251476
0.0040702991421101
-0.0010153011921322
-0.0017260564472621
0.0027413576394268
-0.0089808245590997
0.5963512113261548
-0.5873703867670476
0.1371884738468240
-0.3265342605076692
0.1893457866606628
0.1138704797250779
0.3113933370984948
-0.4252638168236109
-0.0168073702312359
0.0743337940551654
-0.0575264238239274
-0.0653104735733489
0.0179145351812717
0.0473959383920671
-0.0200636057909704
0.0225226254542762
-0.0024590196633230
-0.0559407166288665
-0.0030484506014584
0.0589891672303069
-0.0747260531331602
0.1099129525803974
-0.0351868994471975
-0.0179069777782525
0.2166159839520140
-0.1987090061737405
-0.0339057860018181
-0.2683719605206087
0.3022777465224529
-0.0341007133378292
-0.2209767098495906
0.2550774231874101
-0.0064434222893192
0.3229172664890899
-0.3164738441997725
-0.0102339276141310
-0.3938765069592430
0.4041104345733894
0.1912974796109481
0.0929600186652174
-0.2842574982761799
-0.4117474801213597
0.2235355238229941
0.1882119562983922
-0.2639837846341156
0.4600104437882081
-0.1960266591541825
-0.1408946391801072
-0.0599793904459772
0.2008740296260517
-0.1331110225054007
-0.1796466211973151
0.3127576437025976
-0.0086909869264425
0.2031325607397400
-0.1944415738133235
-0.0113449381685397
-0.0040244931642704
0.0153694313328586
-0.1180456643061847
-0.0367999140155270
0.1548455783216244
-0.0315649439580041
-0.1437932660769010
0.1753582100348917
0.0184924269357379
-0.1411152483066317
0.1226228213708870
0.0708172815272602
-0.0696024271838663
-0.0012148543433539
-0.1283654733910422
-0.0557445729433599
0.1841100463343413
-0.0691611041038511
-0.0137746623180868
0.0829357664220311
0.1341059290132471
-0.0856795042942873
-0.0484264247188845
0.3106093171818380
-0.0327492713441964
-0.2778600458376175
-0.0007691828841529
-0.0049513399826384
0.0057205228667953
-0.0425934469879322
-0.3560997338901058
0.3986931808780326
-0.1083359969342132
-0.0226616051409750
0.1309976020751900
-0.0666330789187867
-0.3724886691468184
0.4391217480656145
-0.0197751163600379
-0.2933510264851175
0.3131261428451804
-0.0016573166971239
0.1044323796332212
-0.1027750629360915
0.0006695405740175
-0.0666962152284927
0.0660266746544616
-0.1387272536339021
0.0946642481241956
0.0440630055096579
0.1163154933173100
0.1012736830755012
-0.2175891763928117
-0.0454463263947662
-0.0054990592606109
0.0509453856553842
0.1742085388040553
-0.0022212886468982
-0.1719872501572280
-0.0348281282557834
-0.0561850526378494
0.0910131808936340
0.0426520009366149
0.6657783720535332
-0.7084303729901733
-0.0516803326626254
0.2807892817599416
-0.2291089490973021
-0.1829474726672080
0.0777386533074693
0.1052088193597194
-0.0061886523938104
0.1363406997946690
-0.1301520474008643
-0.0094522706364588
-0.0538737247109634
0.0633259953474279
0.1149481455482485
-0.4852883091806556
0.3703401636324018
0.1829410730921091
0.0022353350828355
-0.1851764081749235
-0.0053602048892907
-0.4039980109278606
0.4093582158171636
0.1758359445929485
-0.1011928659736769
-0.0746430786192630
0.0991414825165361
-0.1123143926503432
0.0131729101338200
-0.0512371292434158
-0.0100315857133545
0.0612687149567583
0.2906769371032277
-0.0411651247318453
-0.2495118123714050
-0.0785559210581493
0.0703455128717415
0.0082104081863878
-0.0069486877301241
0.0717607912916550
-0.0648121035615453
-0.2376205084963623
-0.1538563184140323
0.3914768269103831
-0.0324484437033190
-0.0441214856889127
0.0765699293922180
-0.0685312853667036
-0.0195883904628577
0.0881196758295446
-0.0099231313696513
-0.0115063146441644
0.0214294460138058
-0.0482219247191109
-0.0237954812645713
0.0720174059836768
-0.0401313081369553
-0.0205670846713111
0.0606983928082657
-0.0167683441255465
-0.0204715349094688
0.0372398790350184
-0.0640500471279454
-0.0306590434047407
0.0947090905327005
-0.0563164496538218
-0.0214269326111905
0.0777433822650004
-0.0218881742927983
-0.0138486910278219
0.0357368653206309
-0.0312826918554450
0.1944205388524147
-0.1631378469969739
-0.0235612924320327
0.0827366218657546
-0.0591753294337171
-0.0172082587119845
-0.0490464527960627
0.0662547115080421
-0.1383512935228061
0.0399445719490335
0.0984067215737895
-0.0718284095246529
-0.0467287432691437
0.1185571527937947
-0.0042316707133283
-0.0017769800909313
0.0060086508042711
0.3479410912610721
-0.0239588838392506
-0.3239822074218200
0.1627305717697735
0.1514348586822280
-0.3141654304519976
-0.1202972014057426
0.5206819949036297
-0.4003847934978767
0.0162282177138646
0.0554625725023952
-0.0716907902162430
-0.0083229111343374
-0.0032747402532279
0.0115976513875311
-0.0419036144837241
-0.0039147704714009
0.0458183849550805
-0.0132237129156521
-0.0289183573578505
0.0421420702734775
-0.3098727794472173
-0.0234982806761113
0.3333710601233124
-0.0106849671862527
-0.0062672696252999
0.0169522368115659
-0.0662661679209184
-0.0107304362201532
0.0769966041411551
-0.0418637148012005
-0.0261521936189423
0.0680159084201656
-0.0013582153101494
-0.0022780439452666
0.0036362592554317
0.0663738209988401
0.1837909187052893
-0.2501647397041297
-0.0028914072303940
-0.0024587961945434
0.0053502034249259
-0.1376535274446212
0.1349833398751406
0.0026701875694819
0.2624884248359432
-0.0818871161358140
-0.1806013087001645
-0.0557435777137828
-0.0069163872300592
0.0626599649438233
-0.0412914768552346
-0.1837777375291848
0.2250692143844012
-0.0032291922219845
-0.0028402338145101
0.0060694260364909
-0.0706066801244366
0.0148023529788288
0.0558043271456414
-0.0225607681518866
-0.0057667337965457
0.0283275019484494
-0.0166057901740858
-0.0072896265540785
0.0238954167281569
-0.3972263611163747
0.5800822628266685
-0.1828559017102948
-0.0639478526028971
-0.0081841660792363
0.0721320186821118
0.3851326834542085
-0.0572452946105971
-0.3278873888436007
-0.0183142845187430
-0.0151980084017547
0.0335122929205097
0.0357997623218664
0.0630594950817989
-0.0988592574036505
-0.0069760967557378
-0.0043299960796232
0.0113060928353498
-0.0104530912927973
-0.0057213473487084
0.0161744386415296
-0.0758572690611281
-0.0225853638665810
0.0984426329276962
-0.0165707042728148
-0.0395179048265276
0.0560886090993261
-0.0020329119730821
-0.0007370114585131
0.0027699234315992
0.1086699214304594
-0.0075764527798572
-0.1010934686506005
-0.0011500914943980
-0.0019784074087798
0.0031284989031478
-0.0200210881901147
-0.0137656359611925
0.0337867241513082
-0.0127790910421991
-0.0127453161188270
0.0255244071610290
0.2153681938754054
-0.4197489477411347
0.2043807538656723
-0.0601189636725197
-0.0106012678968766
0.0707202315693892
0.2663568352391543
-0.3073662570015274
0.0410094217623950
-0.0110042467869509
-0.0062219168008543
0.0172261635878011
-0.0048902056226033
-0.0056533899025985
0.0105435955251985
-0.0343673196189700
-0.0100387229400568
0.0444060425590283
-0.0016907280108649
0.1159474107127089
-0.1142566827018570
-0.0108547654628173
-0.0091411830723781
0.0199959485351872
0.4458501072109308
0.6014102286618558
-1.0472603358727708
0.1762420840481524
0.0607245321855036
-0.2369666162336717
-0.0012421035150800
-0.0070310769481412
0.0082731804632408
-0.0084265391623472
-0.1369535208154797
0.1453800599778145
-0.0010635733013966
-0.0016623493352716
0.0027259226366841
-0.0449829103012797
-0.0047746864613724
0.0497575967626841
-0.1262474201819802
-0.2221883047095458
0.3484357248915295
-0.0425934469879322
-0.3560997338901058
0.3986931808780326
0.4429256123307687
0.1857031623472717
-0.6286287746780264
-0.4276082647436395
-0.1554570864537818
0.5830653511973710
-0.1387272536339021
0.0946642481241956
0.0440630055096579
-0.0029056289869054
-0.1244350026364088
0.1273406316233249
-0.0408571907616271
-0.0996587856638418
0.1405159764254713
0.3791647418176928
0.0573168591981886
-0.4364816010159061
0.0557996471276627
0.4117840381218178
-0.4675836852494785
0.2202668237763867
-0.0147338715809880
-0.2055329521954035
0.1010518250520618
-0.0278284743163669
-0.0732233507356863
-0.0045051898337926
-0.2143462671516409
0.2188514569854274
-0.0421491974836836
-0.0680256150537052
0.1101748125373775
-0.0639812651633331
-0.0458454492204986
0.1098267143838472
-0.0067825794718650
0.1368447470817198
-0.1300621676098395
-0.0091487919718079
-0.2140345202985092
0.2231833122703331
-0.0077265232209574
-0.0785417827393156
0.0862683059602635
-0.0014540263302989
-0.1913076964218956
0.1927617227522013
-0.0215327363166402
0.3702867379094729
-0.3487540015927942
-0.0359200035053352
0.0610621843644289
-0.0251421808590667
-0.0138720196944577
0.0744080228686568
-0.0605360031741973
0.2772691429216027
-0.0118114611697667
-0.2654576817518268
-0.0026761992599352
-0.0021574007905210
0.0048336000504392
-0.0544435339040509
-0.0174523124643776
0.0718958463684316
0.4852406140428169
-0.2826039539277925
-0.2026366601150352
-0.0017522338965132
-0.0019743030439729
0.0037265369404445
0.2656833329939651
-0.0792439042030380
-0.1864394287909346
-0.0946970961402633
-0.0475584130278359
0.1422555091680962
-0.0159641364547303
-0.0459944757938160
0.0619586122484963
-0.0068071589105253
-0.0065811863705875
0.0133883452811172
-0.1014719973426348
0.1233499768663651
-0.0218779795237298
-0.0529629556872374
-0.0092530004764399
0.0622159561636709
0.2109583450718591
0.0262554458192878
-0.2372137908911460
-0.0011500914943980
-0.0019784074087798
0.0031284989031478
-0.0017537225305641
-0.0036323092090171
0.0053860317395848
-0.0725724880627714
-0.0087787554882640
0.0813512435509917
-0.0377216326946258
-0.0018002641931723
0.0395218968877990
-0.0024193001279710
-0.0018909843589803
0.0043102844869494
-0.0065613242672376
-0.0054788039054470
0.0120401281726636
0.1268804768249692
-0.0062441594079180
-0.1206363174170122
-0.0088069393573795
-0.0014263404618752
0.0102332798192472
-0.0484763761422369
0.0151885723902988
0.0332878037519479
-0.0015612158053888
-0.0013638654173647
0.0029250812227465
0.1842309599271372
-0.2218642141904643
0.0376332542633304
-0.0044947773933353
-0.0014577290451758
0.0059525064384822
-0.1915332716495749
-0.0574566788208403
0.2489899504703550
0.1224202019363584
-0.2118834794559064
0.0894632775195493
-0.0089273316688398
-0.0016385394991683
0.0105658711680253
-0.0896200142928743
-0.0456151842574028
0.1352351985502990
-0.0198992173349536
-0.0227528219348959
0.0426520392698608
-0.0175879293750013
-0.0430605978385543
0.0606485272135587
0.2183149250044915
0.1080948827309404
-0.3264098077354324
-0.0010663707036489
-0.0018765833518270
0.0029429540554831
0.0951835566218625
-0.0239389237501927
-0.0712446328717045
-0.0029603192615231
-0.0037568086269923
0.0067171278885136
-0.0052238628592246
-0.0023556930356503
0.0075795558949053
-0.0037087195838755
-0.0023028497153032
0.0060115692991778
0.0166017804853253
0.4144464487401381
-0.4310482292254035
-0.2019798708198224
-0.3768006519147608
0.5787805227345609
-0.0043753683466574
0.4903129594433334
-0.4859375910966743
-0.0583793142192265
0.0994573338139373
-0.0410780195947252
-0.1236240670745787
-0.0144230749150413
0.1380471419896179
-0.0038414640027522
0.2150155196248167
-0.2111740556220412
-0.0112107719626600
-0.0338817156213484
0.0450924875840019
-0.1632363545709224
0.2077077186188238
-0.0444713640478722
-0.0167153697825579
0.0268274733020901
-0.0101121035195375
0.1274238679270114
0.0330266950185117
-0.1604505629455223
-0.0667425151367557
-0.3899957825748553
0.4567382977116340
0.1969150784930864
-0.1979422879666626
0.0010272094735899
-0.0109316308221257
0.0890853881068356
-0.0781537572847055
0.0865142999120417
0.0046759665563390
-0.0911902664683891
-0.0245064450300387
-0.0817688943015539
0.1062753393315942
0.0459110425314669
0.0419928951079046
-0.0879039376393668
-0.0280945754271923
0.1575948056314007
-0.1295002302042060
0.1762503712751783
-0.0351055023509331
-0.1411448689242275
-0.0046579073785081
0.0844339352287087
-0.0797760278502040
0.1627645425853300
0.1622329996432681
-0.3249975422286078
-0.0082585461251398
-0.0394230319621179
0.0476815780872706
-0.0535104551674704
0.0061463066433082
0.0473641485241391
-0.0065572305316126
0.4531521371739868
-0.4465949066423905
0.1489599376145805
0.2356816237894788
-0.3846415614040220
-0.0235820295214823
-0.0097503250222985
0.0333323545437680
0.1103647874501231
0.0617381269040488
-0.1721029143541709
-0.0099231313696513
-0.0115063146441644
0.0214294460138058
-0.0442911551656036
-0.0221783860586970
0.0664695412242959
-0.0401313081369553
-0.0205670846713111
0.0606983928082657
-0.0167683441255465
-0.0204715349094688
0.0372398790350184
0.0174995270124646
0.0228875990135583
-0.0403871260260233
-0.0563164496538218
-0.0214269326111905
0.0777433822650004
-0.0146603756565073
-0.0111124653519064
0.0257728410084249
-0.0307827944784922
-0.0213720483773100
0.0521548428557979
-0.0235612924320327
0.0827366218657546
-0.0591753294337171
-0.0172082587119845
-0.0490464527960627
0.0662547115080421
-0.0715329001427488
-0.0463425399291589
0.1178754400719048
0.1802698902437391
-0.0884950057439569
-0.0917748844997850
-0.0017537225305641
-0.0036323092090171
0.0053860317395848
-0.0029667278205556
-0.0039262898541174
0.0068930176746690
-0.0005870977540539
-0.0008406890105919
0.0014277867646410
-0.0399971577694435
-0.0034738188403667
0.0434709766097744
-0.0199758951012970
-0.1002572936644584
0.1202331887656962
-0.0010663707036489
-0.0018765833518270
0.0029429540554831
-0.0054622378545865
-0.0392377866991554
0.0447000245537502
-0.0479393475493720
0.0276710207911823
0.0202683267582262
0.0417878087421948
0.1889783206168581
-0.2307661293590501
-0.0067956020359438
-0.0190884927059150
0.0258840947418238
0.2109583450718591
0.0262554458192878
-0.2372137908911460
-0.0043069052771565
-0.0012365440961468
0.0055434493732783
-0.0011500914943980
-0.0019784074087798
0.0031284989031478
-0.0453930349542777
-0.0556198401419992
0.1010128750962700
-0.0173768812769017
-0.0021543705139380
0.0195312517909115
0.3581139880831516
-0.0264392714351254
-0.3316747166480233
-0.0068762097157670
0.1731736096946307
-0.1662973999788784
-0.0021401260198093
-0.0029870017654535
0.0051271277852441
-0.0537053928216785
-0.0966339024330909
0.1503392952547678
-0.0041381227672758
0.0000678236251476
0.0040702991421101
-0.6482031346802902
0.3351879721926557
0.3130151624874296
0.3576819849786118
-0.4028853917034938
0.0452034067248592
0.0930607651059756
0.2028803762523993
-0.2959411413585523
-0.1821311630066721
0.0387730898286896
0.1433580731780993
0.3700359936994657
-0.3733383472502617
0.0033023535505664
-1.3160943245526773
0.4794309591495227
0.8366633654032158
0.3888961310453273
0.3492374044514510
-0.7381335354969213
0.1775706522055087
-0.2813739697804595
0.1038033175749777
0.0805708860966391
0.1676953548051311
-0.2482662409020736
0.1322544212813709
-0.0102550910945619
-0.1219993301868125
-0.2152263902436040
-0.0479331344092713
0.2631595246527416
-0.1950593017301076
0.0256758274402653
0.1693834742898823
-0.1821311630066721
0.0387730898286896
0.1433580731780993
-0.7381009223360356
0.3386227513171848
0.3994781710185490
-0.0710612615351794
0.3552742441174829
-0.2842129825823238
0.1775706522055087
-0.2813739697804595
0.1038033175749777
-0.5128732298142337
0.4835663575224033
0.0293068722914694
-0.0543360261841723
0.1630171027662331
-0.1086810765820044
0.0803685195809040
-0.3915590038059093
0.3111904842245342
-0.2761394239882360
-0.0548923684871824
0.3310317924754667
-0.1821311630066721
0.0387730898286896
0.1433580731780993
0.0072871534501815
-0.1490242839238631
0.1417371304731972
-0.1899779352671862
0.1325078500717494
0.0574700851954728
-0.1950593017301076
0.0256758274402653
0.1693834742898823
-0.1821311630066721
0.0387730898286896
0.1433580731780993
0.0523538965089638
-0.0087235330878293
-0.0436303634214170
-0.1563629333701957
0.0859801044461610
0.0703828289239595
-0.3088454561655234
0.0808203070426459
0.2280251491229244
0.1775706522055087
-0.2813739697804595
0.1038033175749777
-0.1160222406731227
-0.5217749390606399
0.6377971797335507
-0.0322561679700442
0.4754190827451628
-0.4431629147752117
-0.2194977023352619
-0.4634132946048614
0.6829109969401460
-0.1632813265834711
0.0096747379831945
0.1536065886000345
0.0209629194095085
-0.3776938306560951
0.3567309112463944
-0.3331050562830585
0.1606788374172446
0.1724262188658376
-0.1821311630066721
0.0387730898286896
0.1433580731780993
0.2245406757639742
-0.3181874201558804
0.0936467443919288
-0.0084502317182491
0.1898208680057395
-0.1813706362875117
0.1919582542295284
-0.2366066302579387
0.0446483760284080
0.1222133939781254
0.0401901370470521
-0.1624035310251684
0.0825927244948190
-0.0711755399065883
-0.0114171845882193
0.0714716709016088
-0.0918508767977859
0.0203792058961725
0.2788610449501266
-0.2334609153871332
-0.0454001295629829
0.3116578388218980
-0.2078699796195539
-0.1037878592023646
0.2485192351697742
0.0689337092097734
-0.3174529443795520
0.0517260194625294
0.0815429570581427
-0.1332689765206565
0.2175329748395310
-0.2006624665839418
-0.0168705082556020
0.1421519426771995
-0.2418078416272923
0.0996558989500815
-0.0048005989543891
0.0661180577396694
-0.0613174587852561
-0.1950593017301076
0.0256758274402653
0.1693834742898823
-0.1821311630066721
0.0387730898286896
0.1433580731780993
-0.0348695459185930
-0.0130385275947460
0.0479080735133201
-0.0267284022915698
-0.0109645701363736
0.0376929724279283
-0.0028670510249817
-0.0031119458262971
0.0059789968512676
-0.0154169898258727
-0.0059464014874880
0.0213633913133369
-0.0704994233633128
-0.0077684281813303
0.0782678515445948
-0.0056035357675366
-0.0123550944613902
0.0179586302289215
-0.0135574609613576
-0.0038512052610077
0.0174086662223455
-0.0058539411386294
-0.0057245675728663
0.0115785087115011
-0.1272361720923100
0.0945130632563127
0.0327231088359626
-0.0082748338074659
-0.0049987153405484
0.0132735491480138
-0.0051569276200310
-0.1133582979391865
0.1185152255592637
-0.0076823248217232
-0.0235046081455287
0.0311869329672471
-0.0023245000393792
-0.0023881576801154
0.0047126577194747
-0.0092254010214913
-0.0170249722113624
0.0262503732328444
-0.0067718372143328
-0.1070745568328557
0.1138463940472023
-0.0341085519385883
-0.0988503186049531
0.1329588705435122
-0.0393964435511507
0.0991867911575002
-0.0597903476064270
-0.0027111414134609
-0.0015343422658586
0.0042454836793120
0.0951792539847561
0.0432028418054573
-0.1383820957902124
0.0026259857101085
0.1094407484328889
-0.1120667341429704
0.8750870604362123
-0.8385600240948232
-0.0365270363414122
-0.0059593862396696
-0.0074389970246891
0.0133983832643491
-0.0015550697321140
-0.0048025081809540
0.0063575779131136
0.0909064368504549
-0.2735716483564867
0.1826652115060600
-0.1479264232992070
-0.2963950131951259
0.4443214364943062
-0.2340378653827595
-0.1779282208536454
0.4119660862364053
0.0110166468887121
0.0333934998381573
-0.0444101467268879
0.0021174895791546
-0.0288637288519454
0.0267462392727764
0.1197064480373528
-0.1219541560417085
0.0022477080043554
-0.0262890960496941
0.1443472177054826
-0.1180581216557757
-0.1282537538495160
-0.1516277976634860
0.2798815515130211
0.0897006913469064
0.2746753258507816
-0.3643760171976888
-0.0101776026620062
0.1796167947619966
-0.1694391920999652
0.2022236608979389
-0.0563856026655941
-0.1458380582323605
0.0132031437381182
-0.0368837911154566
0.0236806473773274
0.0818243666523450
0.0788335447422496
-0.1606579113945804
-0.0596741311544175
-0.0840781170701547
0.1437522482245665
-0.1667634596797549
0.3239310682477567
-0.1571676085680134
-0.0025378735023518
-0.0246606451071753
0.0271985186095389
-0.1821311630066721
0.0387730898286896
0.1433580731780993
-0.0048237674753764
-0.0248415386753698
0.0296653061507254
-0.0580049697096481
-0.0422004314261003
0.1002054011357342
-0.0013778720923545
-0.0021089172154774
0.0034867893078196
-0.0043665169274697
-0.0025201816752924
0.0068866986027329
0.3142791359233059
-0.0174370839681789
-0.2968420519551220
-0.1452167568892734
-0.0582813266375682
0.2034980835267819
-0.0091643704278791
-0.0071869420193099
0.0163513124471918
-0.0038677653273082
-0.0036559041176185
0.0075236694448997
-0.0053477046080973
-0.0031814103019901
0.0085291149100935
-0.0625563511763168
-0.2247002860815831
0.2872566372578358
-0.0038419707950344
-0.0033881394401264
0.0072301102351537
0.0436743472716789
-0.1563745210907788
0.1127001738191014
-0.0499123542057168
-0.0139344494686268
0.0638468036743911
-0.0126297071306839
-0.0138206979547577
0.0264504050854547
-0.0014525972774716
-0.0036932166709971
0.0051458139484770
-0.0875509604871073
-0.3053688334140842
0.3929197939011965
-0.0052444520199827
-0.0012676736447779
0.0065121256647364
-0.0116321939059303
-0.0064472799231617
0.0180794738290770
-0.0021831097973536
-0.0654414980297194
0.0676246078270761
-0.0699641419392982
-0.0482838493466288
0.1182479912859139
-0.0294544057781492
-0.1256490735906141
0.1551034793686849
-0.0033971096176426
-0.0015010639009075
0.0048981735185320
-0.0798973592404200
0.4032819518132928
-0.3233845925728664
-0.1591974835171811
0.0283236791853658
0.1308738043318515
-0.0776012977269157
0.1866038306506245
-0.1090025329237245
-0.0062224528833701
-0.0032790596855257
0.0095015125688758
-0.0046155627847595
-0.0020048471521767
0.0066204099369676
0.0330996622042295
-0.0189345201934762
-0.0141651420107302
0.3708667447235437
-0.1322652418047343
-0.2386015029188328
0.0497585167553037
0.3569313032150192
-0.4066898199703188
-0.0487178207936264
-0.0204699851006956
0.0691878058943129
0.2172465695535426
-0.0379791418142229
-0.1792674277393315
0.3194975503726457
-0.1809204170077356
-0.1385771333649051
0.1303095346035514
0.0852430255680840
-0.2155525601716176
-0.0801465154685571
-0.1081628020302976
0.1883093174988874
-0.0556347163049936
0.0416842448413319
0.0139504714636610
0.0226784821655653
0.0275139412124205
-0.0501924233779566
0.0848130247842939
0.0389461892807994
-0.1237592140651031
0.0445457170581063
0.0535799932039004
-0.0981257102620051
0.3188447018915703
0.1685508374035857
-0.4873955392951366
0.1578724180452988
0.1889689896715705
-0.3468414077168726
-0.0547570259790516
0.1606765253596988
-0.1059194993806688
-0.0038454457433697
0.0266275049483506
-0.0227820592049576
-0.0276784892859767
-0.0190941857553405
0.0467726750412948
-0.0949926055221674
-0.0479446163678207
0.1429372218899860
0.1103647874501231
0.0617381269040488
-0.1721029143541709
0.4866586338223587
-0.2813432009905767
-0.2053154328317846
-0.0038722993310156
-0.0009045554273181
0.0047768547583086
-0.0016559172465192
-0.0018140300668706
0.0034699473133522
-0.0606408096570799
-0.1560881178212943
0.2167289274783829
-0.0613144624735715
0.4569573455645713
-0.3956428830910460
-0.0014909547442214
-0.0024280273857533
0.0039189821299634
-0.0399971577694435
-0.0034738188403667
0.0434709766097744
-0.0015104383487240
-0.0019791861356786
0.0034896244844009
-0.0232266720471484
-0.0405621847958971
0.0637888568430095
-0.0027358704658666
-0.0041855195969702
0.0069213900628423
-0.0471563881339646
0.0793316280988026
-0.0321752399648418
0.2822490489015454
-0.0933454367882346
-0.1889036121133134
-0.0401313081369553
-0.0205670846713111
0.0606983928082657
-0.0167683441255465
-0.0204715349094688
0.0372398790350184
0.0472735379973764
0.0210885310110220
-0.0683620690083991
-0.0357889641413923
-0.0829055014576847
0.1186944655990824
-0.0482545659796308
0.0274054568376174
0.0208491091420439
-0.0563164496538218
-0.0214269326111905
0.0777433822650004
-0.0529989373096659
-0.0156343911723453
0.0686333284820169
-0.0068726794755747
-0.0282003128933728
0.0350729923689500
-0.0281808584703759
-0.0144264132708940
0.0426072717412809
0.2063808987006157
0.0740393096703653
-0.2804202083709799
-0.0138720196944577
0.0744080228686568
-0.0605360031741973
-0.0011500914943980
-0.0019784074087798
0.0031284989031478
0.2772691429216027
-0.0118114611697667
-0.2654576817518268
-0.0501148452794341
-0.0049429417235190
0.0550577870029384
-0.0484938669388848
-0.0089067125566422
0.0574005794955211
-0.0761758294327698
-0.0769918885193091
0.1531677179520678
-0.1713276581538487
-0.0423426580955473
0.2136703162493362
-0.0139593389202587
-0.0010380861415831
0.0149974250618334
0.2000549599385276
-0.0606443640670806
-0.1394105958714464
-0.0261027448455397
-0.2447802318955957
0.2708829767411410
-0.1098062963447650
0.4682964528030196
-0.3584901564582249
-0.0728459658603789
0.2446023102455251
-0.1717563443851376
-0.0031949081580217
-0.0026432119327760
0.0058381200907703
-0.0010153011921322
-0.0017260564472621
0.0027413576394268
-0.0913998355638992
-0.1024858543970627
0.1938856899609635
-0.0172082587119845
-0.0490464527960627
0.0662547115080421
0.0909064368504549
-0.2735716483564867
0.1826652115060600
-0.1479264232992070
-0.2963950131951259
0.4443214364943062
-0.2340378653827595
-0.1779282208536454
0.4119660862364053
0.0110166468887121
0.0333934998381573
-0.0444101467268879
0.0021174895791546
-0.0288637288519454
0.0267462392727764
0.1197064480373528
-0.1219541560417085
0.0022477080043554
-0.0262890960496941
0.1443472177054826
-0.1180581216557757
-0.1282537538495160
-0.1516277976634860
0.2798815515130211
0.0897006913469064
0.2746753258507816
-0.3643760171976888
-0.0101776026620062
0.1796167947619966
-0.1694391920999652
0.2022236608979389
-0.0563856026655941
-0.1458380582323605
0.0132031437381182
-0.0368837911154566
0.0236806473773274
0.0818243666523450
0.0788335447422496
-0.1606579113945804
-0.0596741311544175
-0.0840781170701547
0.1437522482245665
-0.1667634596797549
0.3239310682477567
-0.1571676085680134
-0.0025378735023518
-0.0246606451071753
0.0271985186095389
-0.1821311630066721
0.0387730898286896
0.1433580731780993
-0.0048237674753764
-0.0248415386753698
0.0296653061507254
-0.0580049697096481
-0.0422004314261003
0.1002054011357342
-0.0013778720923545
-0.0021089172154774
0.0034867893078196
-0.0043665169274697
-0.0025201816752924
0.0068866986027329
0.3142791359233059
-0.0174370839681789
-0.2968420519551220
-0.1452167568892734
-0.0582813266375682
0.2034980835267819
-0.0091643704278791
-0.0071869420193099
0.0163513124471918
-0.0038677653273082
-0.0036559041176185
0.0075236694448997
-0.0053477046080973
-0.0031814103019901
0.0085291149100935
-0.0625563511763168
-0.2247002860815831
0.2872566372578358
-0.0038419707950344
-0.0033881394401264
0.0072301102351537
0.0436743472716789
-0.1563745210907788
0.1127001738191014
-0.0499123542057168
-0.0139344494686268
0.0638468036743911
-0.0126297071306839
-0.0138206979547577
0.0264504050854547
-0.0014525972774716
-0.0036932166709971
0.0051458139484770
-0.0875509604871073
-0.3053688334140842
0.3929197939011965
-0.0052444520199827
-0.0012676736447779
0.0065121256647364
-0.0116321939059303
-0.0064472799231617
0.0180794738290770
-0.0021831097973536
-0.0654414980297194
0.0676246078270761
-0.0699641419392982
-0.0482838493466288
0.1182479912859139
-0.0294544057781492
-0.1256490735906141
0.1551034793686849
-0.0033971096176426
-0.0015010639009075
0.0048981735185320
-0.0798973592404200
0.4032819518132928
-0.3233845925728664
-0.1591974835171811
0.0283236791853658
0.1308738043318515
-0.0776012977269157
0.1866038306506245
-0.1090025329237245
-0.0062224528833701
-0.0032790596855257
0.0095015125688758
-0.0046155627847595
-0.0020048471521767
0.0066204099369676
