version: 100
cost-factor: 1
maxid: 3108
xsize: 15

B-CRF
I-CRF
O

U018:%x[-2,0]
U019:%x[-1,0]
U020:%x[0,0]
U021:%x[1,0]
U022:%x[2,0]
U01:%x[-2,1]
U26:%x[-1,1]
U27:%x[0,1]
U28:%x[1,1]
U29:%x[2,1]
U02:%x[0,2]
U03:%x[-2,3]
U34:%x[1,3]
U35:%x[0,3]
U36:%x[1,3]
U347:%x[2,3]
U30:%x[-1,4]
U31:%x[0,4]
U32:%x[1,4]
U06:%x[0,6]
U07:%x[-2,5]
U24:%x[-1,5]
U08:%x[0,5]
U23:%x[1,5]
U25:%x[2,5]
U09:%x[0,6]
U10:%x[0,7]
U11:%x[0,8]
U12:%x[0,9]
U13:%x[0,10]
U14:%x[0,11]
U15:%x[0,12]
U16:%x[0,13]
U17:%x[0,14]
B0

0 B0
9 U018:1,
12 U018:2,
15 U018:3,
18 U018:4,
21 U018:5,
24 U018:6,
27 U018:7,
30 U018:8,
33 U018:A.
36 U018:Aen.
39 U018:E.
42 U018:F.
45 U018:G.
48 U018:H.
51 U018:Hom.
54 U018:J.
57 U018:M.
60 U018:Od.
63 U018:Ov.
66 U018:P.
69 U018:R.
72 U018:The
75 U018:W.
78 U018:_B-1
81 U018:_B-2
84 U018:ad
87 U018:am.
90 U018:and
93 U018:cit.,
96 U018:de
99 U018:di
102 U018:e
105 U018:et
108 U018:fast.
111 U018:in
114 U018:met.
117 U018:of
120 U018:pp.
123 U018:s.;
126 U018:und
129 U019:1
132 U019:1,
135 U019:10,
138 U019:11,
141 U019:14,
144 U019:2,
147 U019:3,
150 U019:4,
153 U019:5,
156 U019:6,
159 U019:7,
162 U019:8,
165 U019:9,
168 U019:A.
171 U019:Aen.
174 U019:E.
177 U019:F.
180 U019:G.
183 U019:H.
186 U019:Hom.
189 U019:J.
192 U019:M.
195 U019:Od.
198 U019:Ov.
201 U019:P.
204 U019:R.
207 U019:The
210 U019:W.
213 U019:_B-1
216 U019:ad
219 U019:am.
222 U019:and
225 U019:cit.,
228 U019:de
231 U019:di
234 U019:e
237 U019:et
240 U019:fast.
243 U019:in
246 U019:met.
249 U019:of
252 U019:p.
255 U019:pp.
258 U019:s.;
261 U019:ss.,
264 U019:und
267 U01:OTHERS
270 U01:UNPAIRED_ROUND_BRACKETS
273 U01:_B-1
276 U01:_B-2
279 U020:1
282 U020:1,
285 U020:10,
288 U020:11,
291 U020:14,
294 U020:1;
297 U020:2,
300 U020:3,
303 U020:4,
306 U020:5,
309 U020:6,
312 U020:7,
315 U020:8,
318 U020:9,
321 U020:A.
324 U020:Aen.
327 U020:E.
330 U020:F.
333 U020:G.
336 U020:H.
339 U020:Hom.
342 U020:J.
345 U020:M.
348 U020:Od.
351 U020:Ov.
354 U020:P.
357 U020:R.
360 U020:The
363 U020:W.
366 U020:ad
369 U020:am.
372 U020:and
375 U020:cit.,
378 U020:de
381 U020:di
384 U020:e
387 U020:et
390 U020:fast.
393 U020:in
396 U020:met.
399 U020:of
402 U020:p.
405 U020:pp.
408 U020:s.
411 U020:s.,
414 U020:s.;
417 U020:ss.
420 U020:ss.,
423 U020:ss.;
426 U020:und
429 U021:1
432 U021:1,
435 U021:10,
438 U021:11,
441 U021:14,
444 U021:1;
447 U021:2,
450 U021:3,
453 U021:4,
456 U021:5,
459 U021:6,
462 U021:7,
465 U021:8,
468 U021:9,
471 U021:P.
474 U021:The
477 U021:_B+1
480 U021:ad
483 U021:and
486 U021:cit.,
489 U021:de
492 U021:di
495 U021:e
498 U021:et
501 U021:in
504 U021:met.
507 U021:of
510 U021:p.
513 U021:pp.
516 U021:s.
519 U021:s.,
522 U021:s.;
525 U021:ss.
528 U021:ss.,
531 U021:ss.;
534 U021:und
537 U022:1
540 U022:1,
543 U022:2,
546 U022:3,
549 U022:4,
552 U022:5,
555 U022:6,
558 U022:7,
561 U022:9,
564 U022:P.
567 U022:The
570 U022:_B+1
573 U022:_B+2
576 U022:ad
579 U022:and
582 U022:cit.,
585 U022:de
588 U022:di
591 U022:e
594 U022:et
597 U022:in
600 U022:of
603 U022:p.
606 U022:pp.
609 U022:s.
612 U022:s.,
615 U022:s.;
618 U022:ss.
621 U022:ss.,
624 U022:ss.;
627 U022:und
630 U02:ALL_CAPS
633 U02:ALL_LOWER
636 U02:INIT_CAPS
639 U02:OTHERS
642 U03:1
645 U03:13
648 U03:2
651 U03:3
654 U03:4
657 U03:5
660 U03:6
663 U03:7
666 U03:8
669 U03:_
672 U03:_B-1
675 U03:_B-2
678 U03:a
681 U03:ad
684 U03:aen
687 U03:am
690 U03:amore
693 U03:and
696 U03:cit
699 U03:de
702 U03:di
705 U03:die
708 U03:e
711 U03:et
714 U03:f
717 U03:fast
720 U03:g
723 U03:h
726 U03:hom
729 U03:il
732 U03:in
735 U03:j
738 U03:la
741 U03:m
744 U03:met
747 U03:od
750 U03:of
753 U03:ov
756 U03:ovid
759 U03:ovids
762 U03:p
765 U03:pp
768 U03:procris
771 U03:r
774 U03:s
777 U03:ss
780 U03:the
783 U03:und
786 U03:w
789 U06:0
792 U06:1
795 U06:10
798 U06:11
801 U06:12
804 U06:13
807 U06:2
810 U06:3
813 U06:4
816 U06:5
819 U06:6
822 U06:7
825 U06:8
828 U06:9
831 U07:CONTINUING_PUNCTUATION
834 U07:FINAL_DOT
837 U07:OTHERS
840 U07:_B-1
843 U07:_B-2
846 U08:CONTINUING_PUNCTUATION
849 U08:FINAL_DOT
852 U08:OTHERS
855 U09:0
858 U09:1
861 U09:10
864 U09:11
867 U09:12
870 U09:13
873 U09:2
876 U09:3
879 U09:4
882 U09:5
885 U09:6
888 U09:7
891 U09:8
894 U09:9
897 U10:(
900 U10:1
903 U10:2
906 U10:3
909 U10:4
912 U10:5
915 U10:6
918 U10:7
921 U10:8
924 U10:9
927 U10:A
930 U10:B
933 U10:C
936 U10:D
939 U10:E
942 U10:F
945 U10:G
948 U10:H
951 U10:I
954 U10:J
957 U10:K
960 U10:L
963 U10:M
966 U10:N
969 U10:O
972 U10:P
975 U10:R
978 U10:S
981 U10:T
984 U10:V
987 U10:W
990 U10:a
993 U10:b
996 U10:c
999 U10:d
1002 U10:e
1005 U10:f
1008 U10:g
1011 U10:i
1014 U10:l
1017 U10:m
1020 U10:n
1023 U10:o
1026 U10:p
1029 U10:r
1032 U10:s
1035 U10:t
1038 U10:u
1041 U10:v
1044 U10:«
1047 U11:1
1050 U11:1,
1053 U11:10
1056 U11:11
1059 U11:12
1062 U11:13
1065 U11:14
1068 U11:15
1071 U11:17
1074 U11:18
1077 U11:19
1080 U11:1;
1083 U11:2,
1086 U11:20
1089 U11:23
1092 U11:24
1095 U11:25
1098 U11:26
1101 U11:3,
1104 U11:30
1107 U11:33
1110 U11:4,
1113 U11:41
1116 U11:44
1119 U11:47
1122 U11:5,
1125 U11:52
1128 U11:57
1131 U11:6,
1134 U11:7,
1137 U11:8,
1140 U11:9,
1143 U11:A.
1146 U11:Ae
1149 U11:Am
1152 U11:An
1155 U11:Ap
1158 U11:Au
1161 U11:Ba
1164 U11:Be
1167 U11:Bo
1170 U11:Ca
1173 U11:Da
1176 U11:De
1179 U11:Di
1182 U11:E.
1185 U11:F.
1188 U11:Fa
1191 U11:Fr
1194 U11:G.
1197 U11:H.
1200 U11:He
1203 U11:Ho
1206 U11:Hy
1209 U11:Il
1212 U11:J.
1215 U11:La
1218 U11:Le
1221 U11:Lu
1224 U11:M.
1227 U11:Ma
1230 U11:Me
1233 U11:Na
1236 U11:Od
1239 U11:Ov
1242 U11:P.
1245 U11:Pa
1248 U11:Pr
1251 U11:R.
1254 U11:Ro
1257 U11:Se
1260 U11:Si
1263 U11:Th
1266 U11:Ti
1269 U11:Va
1272 U11:Vi
1275 U11:W.
1278 U11:ad
1281 U11:am
1284 U11:an
1287 U11:ca
1290 U11:ci
1293 U11:co
1296 U11:cu
1299 U11:de
1302 U11:di
1305 U11:e
1308 U11:ep
1311 U11:et
1314 U11:fa
1317 U11:fr
1320 U11:in
1323 U11:la
1326 U11:le
1329 U11:li
1332 U11:lo
1335 U11:me
1338 U11:ne
1341 U11:of
1344 U11:p.
1347 U11:po
1350 U11:pp
1353 U11:s.
1356 U11:se
1359 U11:ss
1362 U11:su
1365 U11:te
1368 U11:tr
1371 U11:un
1374 U12:1
1377 U12:1,
1380 U12:10,
1383 U12:11,
1386 U12:14,
1389 U12:195
1392 U12:196
1395 U12:197
1398 U12:198
1401 U12:199
1404 U12:1;
1407 U12:2,
1410 U12:3,
1413 U12:4,
1416 U12:5,
1419 U12:6,
1422 U12:7,
1425 U12:8,
1428 U12:9,
1431 U12:A.
1434 U12:Aen
1437 U12:E.
1440 U12:F.
1443 U12:G.
1446 U12:H.
1449 U12:Hom
1452 U12:Hym
1455 U12:J.
1458 U12:Luc
1461 U12:M.
1464 U12:Met
1467 U12:Od.
1470 U12:Ov.
1473 U12:Ovi
1476 U12:P.
1479 U12:Par
1482 U12:Pro
1485 U12:R.
1488 U12:The
1491 U12:Tit
1494 U12:W.
1497 U12:ad
1500 U12:am.
1503 U12:and
1506 U12:car
1509 U12:cit
1512 U12:con
1515 U12:de
1518 U12:del
1521 U12:di
1524 U12:e
1527 U12:epi
1530 U12:et
1533 U12:fas
1536 U12:in
1539 U12:lib
1542 U12:loc
1545 U12:met
1548 U12:of
1551 U12:p.
1554 U12:pp.
1557 U12:s.
1560 U12:s.,
1563 U12:s.;
1566 U12:ss.
1569 U12:und
1572 U13:1
1575 U13:1,
1578 U13:10,
1581 U13:11,
1584 U13:14,
1587 U13:1;
1590 U13:2,
1593 U13:3,
1596 U13:4,
1599 U13:5,
1602 U13:6,
1605 U13:7,
1608 U13:8,
1611 U13:9,
1614 U13:A.
1617 U13:Aen.
1620 U13:E.
1623 U13:F.
1626 U13:G.
1629 U13:H.
1632 U13:Hom.
1635 U13:Hymn
1638 U13:J.
1641 U13:M.
1644 U13:Meta
1647 U13:Od.
1650 U13:Ov.
1653 U13:Ovid
1656 U13:P.
1659 U13:Proc
1662 U13:Prop
1665 U13:R.
1668 U13:The
1671 U13:Tith
1674 U13:W.
1677 U13:ad
1680 U13:am.
1683 U13:and
1686 U13:carm
1689 U13:cit.
1692 U13:de
1695 U13:di
1698 U13:e
1701 U13:et
1704 U13:fast
1707 U13:in
1710 U13:loc.
1713 U13:met.
1716 U13:of
1719 U13:p.
1722 U13:pp.
1725 U13:s.
1728 U13:s.,
1731 U13:s.;
1734 U13:ss.
1737 U13:ss.)
1740 U13:ss.,
1743 U13:ss.;
1746 U13:und
1749 U14:)
1752 U14:,
1755 U14:.
1758 U14:0
1761 U14:1
1764 U14:2
1767 U14:3
1770 U14:4
1773 U14:5
1776 U14:6
1779 U14:7
1782 U14:8
1785 U14:9
1788 U14::
1791 U14:;
1794 U14:a
1797 U14:d
1800 U14:e
1803 U14:f
1806 U14:g
1809 U14:i
1812 U14:l
1815 U14:m
1818 U14:n
1821 U14:o
1824 U14:r
1827 U14:s
1830 U14:t
1833 U14:u
1836 U14:»
1839 U15:),
1842 U15:).
1845 U15:);
1848 U15:.)
1851 U15:.,
1854 U15:..
1857 U15:.:
1860 U15:.;
1863 U15:.»
1866 U15:0,
1869 U15:1
1872 U15:1,
1875 U15:1;
1878 U15:2,
1881 U15:21
1884 U15:26
1887 U15:3,
1890 U15:4,
1893 U15:44
1896 U15:4;
1899 U15:5,
1902 U15:6,
1905 U15:7,
1908 U15:8,
1911 U15:8;
1914 U15:9,
1917 U15:A.
1920 U15:C.
1923 U15:E.
1926 U15:F.
1929 U15:G.
1932 U15:H.
1935 U15:I,
1938 U15:J.
1941 U15:M.
1944 U15:P.
1947 U15:R.
1950 U15:W.
1953 U15:a,
1956 U15:ad
1959 U15:as
1962 U15:b.
1965 U15:c.
1968 U15:ca
1971 U15:d.
1974 U15:de
1977 U15:di
1980 U15:e
1983 U15:e,
1986 U15:en
1989 U15:er
1992 U15:es
1995 U15:et
1998 U15:g.
2001 U15:ge
2004 U15:h.
2007 U15:he
2010 U15:i,
2013 U15:ia
2016 U15:ie
2019 U15:in
2022 U15:is
2025 U15:l,
2028 U15:l.
2031 U15:le
2034 U15:m.
2037 U15:n,
2040 U15:n.
2043 U15:nd
2046 U15:ne
2049 U15:ni
2052 U15:no
2055 U15:ns
2058 U15:o,
2061 U15:of
2064 U15:on
2067 U15:os
2070 U15:p.
2073 U15:r,
2076 U15:r.
2079 U15:ra
2082 U15:re
2085 U15:s,
2088 U15:s.
2091 U15:t,
2094 U15:t.
2097 U15:ti
2100 U15:ue
2103 U15:um
2106 U15:ur
2109 U15:us
2112 U15:v.
2115 U16:,
2118 U16:.
2121 U16:...
2124 U16:1
2127 U16:10,
2130 U16:11,
2133 U16:13,
2136 U16:14,
2139 U16:2
2142 U16:3
2145 U16:4
2148 U16:5
2151 U16:6
2154 U16:7
2157 U16:9
2160 U16:;
2163 U16:II,
2166 U16:Od.
2169 U16:Ov.
2172 U16:The
2175 U16:a
2178 U16:am.
2181 U16:and
2184 U16:che
2187 U16:d
2190 U16:e
2193 U16:en,
2196 U16:en.
2199 U16:er,
2202 U16:et.
2205 U16:f
2208 U16:hen
2211 U16:i
2214 U16:io,
2217 U16:it,
2220 U16:lle
2223 U16:n
2226 U16:nis
2229 U16:om.
2232 U16:oni
2235 U16:or.
2238 U16:ore
2241 U16:pp.
2244 U16:rg.
2247 U16:ris
2250 U16:s.,
2253 U16:s.;
2256 U16:ss.
2259 U16:st.
2262 U16:t
2265 U16:t.,
2268 U16:te,
2271 U16:und
2274 U16:us,
2277 U17:,
2280 U17:.
2283 U17:0
2286 U17:1
2289 U17:1,
2292 U17:1;
2295 U17:2
2298 U17:2,
2301 U17:3
2304 U17:3,
2307 U17:4
2310 U17:4,
2313 U17:5
2316 U17:5,
2319 U17:6
2322 U17:6,
2325 U17:7
2328 U17:7,
2331 U17:8
2334 U17:8,
2337 U17:9
2340 U17:9,
2343 U17::
2346 U17:;
2349 U17:A.
2352 U17:Aen.
2355 U17:E.
2358 U17:F.
2361 U17:G.
2364 U17:H.
2367 U17:Hom.
2370 U17:J.
2373 U17:M.
2376 U17:P.
2379 U17:R.
2382 U17:W.
2385 U17:ad
2388 U17:ast.
2391 U17:chen
2394 U17:d
2397 U17:de
2400 U17:di
2403 U17:e
2406 U17:et
2409 U17:i
2412 U17:in
2415 U17:ist.
2418 U17:it.,
2421 U17:met.
2424 U17:more
2427 U17:of
2430 U17:p.
2433 U17:r
2436 U17:s
2439 U17:s.
2442 U17:s...
2445 U17:ss.,
2448 U17:ss.;
2451 U23:CONTINUING_PUNCTUATION
2454 U23:FINAL_DOT
2457 U23:OTHERS
2460 U23:_B+1
2463 U24:CONTINUING_PUNCTUATION
2466 U24:FINAL_DOT
2469 U24:OTHERS
2472 U24:_B-1
2475 U25:CONTINUING_PUNCTUATION
2478 U25:FINAL_DOT
2481 U25:OTHERS
2484 U25:_B+1
2487 U25:_B+2
2490 U26:OTHERS
2493 U26:UNPAIRED_ROUND_BRACKETS
2496 U26:_B-1
2499 U27:OTHERS
2502 U27:UNPAIRED_ROUND_BRACKETS
2505 U28:OTHERS
2508 U28:UNPAIRED_ROUND_BRACKETS
2511 U28:_B+1
2514 U29:OTHERS
2517 U29:UNPAIRED_ROUND_BRACKETS
2520 U29:_B+1
2523 U29:_B+2
2526 U30:NO_DIGITS
2529 U30:NUMBER
2532 U30:OTHERS
2535 U30:_B-1
2538 U31:NO_DIGITS
2541 U31:NUMBER
2544 U31:OTHERS
2547 U32:NO_DIGITS
2550 U32:NUMBER
2553 U32:OTHERS
2556 U32:_B+1
2559 U347:1
2562 U347:12
2565 U347:14
2568 U347:15
2571 U347:2
2574 U347:3
2577 U347:4
2580 U347:5
2583 U347:6
2586 U347:7
2589 U347:8
2592 U347:9
2595 U347:_
2598 U347:_B+1
2601 U347:_B+2
2604 U347:a
2607 U347:ad
2610 U347:amore
2613 U347:and
2616 U347:cit
2619 U347:de
2622 U347:di
2625 U347:die
2628 U347:e
2631 U347:et
2634 U347:in
2637 U347:loc
2640 U347:of
2643 U347:ovid
2646 U347:ovids
2649 U347:p
2652 U347:pp
2655 U347:procris
2658 U347:r
2661 U347:s
2664 U347:ss
2667 U347:the
2670 U347:und
2673 U34:1
2676 U34:10
2679 U34:11
2682 U34:12
2685 U34:13
2688 U34:14
2691 U34:15
2694 U34:2
2697 U34:3
2700 U34:4
2703 U34:5
2706 U34:6
2709 U34:7
2712 U34:8
2715 U34:9
2718 U34:_
2721 U34:_B+1
2724 U34:a
2727 U34:ad
2730 U34:amore
2733 U34:and
2736 U34:carm
2739 U34:cit
2742 U34:de
2745 U34:di
2748 U34:die
2751 U34:e
2754 U34:et
2757 U34:il
2760 U34:in
2763 U34:la
2766 U34:loc
2769 U34:met
2772 U34:of
2775 U34:ovid
2778 U34:ovids
2781 U34:p
2784 U34:pp
2787 U34:procris
2790 U34:r
2793 U34:s
2796 U34:ss
2799 U34:the
2802 U34:und
2805 U35:1
2808 U35:10
2811 U35:11
2814 U35:12
2817 U35:13
2820 U35:14
2823 U35:15
2826 U35:2
2829 U35:3
2832 U35:4
2835 U35:5
2838 U35:6
2841 U35:7
2844 U35:8
2847 U35:9
2850 U35:_
2853 U35:a
2856 U35:ad
2859 U35:aen
2862 U35:am
2865 U35:amore
2868 U35:and
2871 U35:carm
2874 U35:cit
2877 U35:de
2880 U35:di
2883 U35:die
2886 U35:e
2889 U35:et
2892 U35:f
2895 U35:fast
2898 U35:g
2901 U35:h
2904 U35:hom
2907 U35:il
2910 U35:in
2913 U35:j
2916 U35:la
2919 U35:loc
2922 U35:m
2925 U35:met
2928 U35:od
2931 U35:of
2934 U35:ov
2937 U35:ovid
2940 U35:ovids
2943 U35:p
2946 U35:pp
2949 U35:procris
2952 U35:prop
2955 U35:r
2958 U35:s
2961 U35:ss
2964 U35:the
2967 U35:und
2970 U35:v
2973 U35:w
2976 U36:1
2979 U36:10
2982 U36:11
2985 U36:12
2988 U36:13
2991 U36:14
2994 U36:15
2997 U36:2
3000 U36:3
3003 U36:4
3006 U36:5
3009 U36:6
3012 U36:7
3015 U36:8
3018 U36:9
3021 U36:_
3024 U36:_B+1
3027 U36:a
3030 U36:ad
3033 U36:amore
3036 U36:and
3039 U36:carm
3042 U36:cit
3045 U36:de
3048 U36:di
3051 U36:die
3054 U36:e
3057 U36:et
3060 U36:il
3063 U36:in
3066 U36:la
3069 U36:loc
3072 U36:met
3075 U36:of
3078 U36:ovid
3081 U36:ovids
3084 U36:p
3087 U36:pp
3090 U36:procris
3093 U36:r
3096 U36:s
3099 U36:ss
3102 U36:the
3105 U36:und

-0.8307659395065687
2.0029752656823674
-1.3445003114463463
-0.5426487836338676
1.5857918137360065
-0.9280568010464278
0.8364971415493831
-3.1397882257151886
2.3604958403808278
-0.0366013174121594
-0.0087292203148025
0.0453305377269795
-0.0575118883463742
0.1195681446105198
-0.0620562562641228
-0.0159650601346812
0.1080752822376797
-0.0921102221029974
-0.0176119198541716
0.3132408411059413
-0.2956289212517798
-0.0119417036357490
0.1813178125348011
-0.1693761088990582
-0.0050124821663385
0.2425681193337355
-0.2375556371673976
-0.0218330957150298
0.0900997757520227
-0.0682666800369853
-0.0126832889255100
0.1204387872463907
-0.1077554983208759
-0.0015872832222537
-0.0040094991584604
0.0055967823806957
-0.0051363188480989
0.1737790080787760
-0.1686426892306731
-0.0146184837020276
-0.0041133792323516
0.0187318629343756
-0.0033745909918084
-0.0080759460823255
0.0114505370741483
-0.0340371383815300
-0.0049816246992121
0.0390187630807305
-0.0060457862436887
-0.0029519601014114
0.0089977463451132
-0.0259473168266033
-0.1353873064861527
0.1613346233127551
-0.0092006364718151
-0.0153568247780658
0.0245574612499042
-0.0032671846405336
-0.0042142479651639
0.0074814326057224
-0.0021199692208573
0.0490503595756183
-0.0469303903547656
-0.0036406959532301
0.0546296143525531
-0.0509889183993218
-0.0089477400875054
-0.0078209114809884
0.0167686515685302
-0.0050149307154963
-0.0054245167204033
0.0104394474359096
-0.0087864681051165
-0.0016423282826637
0.0104287963877914
-0.0026233341922767
-0.0039333529155141
0.0065566871077965
0.0356329202983321
0.0509469011163093
-0.0865798214146269
0.1755523032995311
-0.2905025387568048
0.1149502354572412
-0.1218137699488989
0.0416916094047369
0.0801221605441799
-0.0268432832483565
0.2700391336465159
-0.2431958503981616
-0.0028545254413561
-0.0021069363777366
0.0049614618190629
-0.1417219421054843
0.1822159801306527
-0.0404940380251503
-0.0023558498657426
-0.0011826757876384
0.0035385256533938
-0.0145950087435229
0.0306371949435070
-0.0160421861999926
0.2527792090032781
0.0169130876219718
-0.2696922966252495
0.1205631629236172
-0.0082816481106582
-0.1122815148129686
-0.0018703436724866
0.0936974816378951
-0.0918271379654056
-0.0324211396488765
0.1897500698256486
-0.1573289301768109
-0.0065192637933146
0.4694427037610320
-0.4629234399677185
-0.0693094881182286
-0.0336716563418082
0.1029811444600063
-0.0547044100537170
-0.4638459590882770
0.5185503691419333
-0.0052989711077771
0.0845958902316429
-0.0792969191238810
-0.0585301949640396
-0.0088280119444649
0.0673582069085257
-0.0037165036941411
0.0652157888047419
-0.0614992851106050
-0.0959370362925907
0.3183637927041723
-0.2224267564115751
-0.0034175416569115
0.2989480789265510
-0.2955305372696288
-0.0015897016081128
-0.2398838049154209
0.2414735065235194
-0.0028013947358181
0.1775474859614301
-0.1747460912255891
-0.0264955954779501
0.5356027950566220
-0.5091071995786571
-0.0195662547806433
0.4251023676829446
-0.4055361129022919
-0.0179286407636405
0.2232566120443936
-0.2053279712807705
-0.0054298548175817
0.0087357816578040
-0.0033059268402225
-0.0099681864958535
0.2253334952304027
-0.2153653087345512
-0.0086766290950547
0.4452370254455330
-0.4365603963504653
-0.0044449255493288
-0.2227284152437962
0.2271733407931273
-0.0116647749244229
0.1287931036236845
-0.1171283286992625
-0.0021469532642105
-0.0134712018688667
0.0156181551330446
-0.0626304224752704
0.1521014148024179
-0.0894709923271456
-0.0027101331377888
-0.0038519835660605
0.0065621167038532
-0.0020239938432823
-0.0246922152783365
0.0267162091216265
-0.0027341020092347
-0.0165372483081815
0.0192713503174047
-0.0015739042329033
-0.0060930136760713
0.0076669179089861
-0.0374505903085479
0.1308570658234596
-0.0934064755149103
-0.0054487825981088
-0.0313571050242761
0.0368058876223993
-0.0049626172078974
-0.0075386799448094
0.0125012971527171
-0.0222575941397133
0.0480498559582783
-0.0257922618185667
0.1825142990812517
-0.1197303736470276
-0.0627839254342216
-0.0055910019310692
-0.0130741515718838
0.0186651535029867
-0.0017474819124336
-0.0192532008532198
0.0210006827656607
-0.0041587284433987
-0.0010184280304001
0.0051771564737964
-0.0026318265346007
-0.0125429568763951
0.0151747834110069
0.1755523032995311
-0.2905025387568048
0.1149502354572412
0.2281765212166066
-0.1236819294792539
-0.1044945917373412
-0.0018870799885674
0.1877000969677491
-0.1858130169791803
-0.0142380037961314
-0.0012953334729068
0.0155333372690041
-0.0460847975116626
-0.0083302941833926
0.0544150916950643
-0.0057886049610976
-0.0008164932475145
0.0066050982086159
0.2411205010974941
-0.2179884655665286
-0.0231320355309701
0.1962875172495790
-0.3155231848048456
0.1192356675552631
-0.0106697886629167
-0.0013005655932843
0.0119703542561990
-0.0528658104630759
0.0924823148007014
-0.0396165043376235
0.3223815302955680
-0.1628248331981886
-0.1595566970974073
-0.0556558963235324
0.3272062008472698
-0.2715503045237532
-0.0463371501676285
-0.0019138703094148
0.0482510204770237
-0.0053896778278180
-0.4564338662074560
0.4618235440352796
-0.0203706578771873
-0.4518586277631123
0.4722292856402837
-0.2142016888191570
0.1713695829415211
0.0428321058776231
-0.0389833200675218
0.3430466626676026
-0.3040633426000416
-0.0209733048134917
-0.0015430502728249
0.0225163550863374
-0.5592725751284918
0.1434975118394750
0.4157750632891798
-0.0105372953533071
0.0741413784393016
-0.0636040830860687
0.0356329202983321
0.0509469011163093
-0.0865798214146269
0.1755523032995311
-0.2905025387568048
0.1149502354572412
-0.0347075796583929
-0.0538326082237583
0.0885401878821521
-0.1216751033845386
-0.0083984933511235
0.1300735967356661
0.1868591015228022
0.0906708837104970
-0.2775299852332880
-0.0688574632510578
0.5402009335509551
-0.4713434702999007
0.0927975254238716
-0.0221539361925362
-0.0706435892313224
-0.0036350059220732
0.2136489963850455
-0.2100139904629878
-0.1582798951398528
0.2043907446071256
-0.0461108494672727
0.1229064695233868
0.0444260905137387
-0.1673325600371117
0.2015018178504158
-0.1873836780899642
-0.0141181397604664
0.0760104386470627
-0.0052891049594818
-0.0707213336875818
0.0437217385555866
0.0535589757638527
-0.0972807143194455
0.1716036828506164
-0.0407107137294634
-0.1308929691211527
0.1608016607388085
0.1442105775118272
-0.3050122382506280
-0.0515751272998216
0.0065617190265829
0.0450134082732383
-0.0234512516108404
-0.0097571570874196
0.0332084086982435
0.1024047375564206
0.0639821576391632
-0.1663868951955758
-0.0095477846238641
-0.0113846336652584
0.0209324182891234
-0.0459845358530672
-0.0225248811371831
0.0685094169902525
-0.0349062874079946
-0.0206745088707304
0.0555807962787155
-0.0164047313591074
-0.0199738255158351
0.0363785568749450
0.0195996947439406
0.0160515560980426
-0.0356512508419804
-0.0594153802441584
-0.0207313494223683
0.0801467296665398
-0.0144108627774805
-0.0111037989279721
0.0255146617054584
-0.0067379353911522
0.0693545834118961
-0.0626166480207412
0.1721283642797390
-0.0110658909543690
-0.1610624733253701
-0.0325470666931389
-0.0203685200011352
0.0529155866943027
-0.0234714360752637
0.0814092645474972
-0.0579378284722143
-0.0025625299051689
-0.0019377831245424
0.0045003130297187
-0.0171282777534810
-0.0461781835082592
0.0633064612617436
-0.0700366981132311
-0.0446028938773008
0.1146395919905537
0.4829872917889702
-0.2841934451114813
-0.1987938466774853
-0.0015922956276509
-0.0016013054671813
0.0031936010948039
-0.0070118229472204
-0.0206670242983585
0.0276788472456003
-0.0004421649516573
-0.0006250086958859
0.0010671736475686
-0.0388707934746093
-0.0031196852682874
0.0419904787428876
-0.0124956001902620
-0.0306239042624496
0.0431195044527034
-0.0009185091972138
-0.0018374521929764
0.0027559613901878
0.1732922655656809
-0.0924032867989383
-0.0808889787667438
-0.0477422286792200
0.0322625818982361
0.0154796467809637
0.1986986236357905
0.0286120543845046
-0.2273106780203095
-0.0010406050783878
-0.0019318556514259
0.0029724607298149
-0.0485873787092494
-0.0630286477414754
0.1116160264507357
-0.1168495734682321
-0.0375748807102114
0.1544244541783988
-0.0059561948896982
0.1764977280947508
-0.1705415332050468
-0.0366974915676577
0.0554236647302874
-0.0187261731626119
-0.0148429287419984
-0.0248291226882135
0.0396720514302099
-0.0107782841057976
-0.0152152948845458
0.0259935789903271
-0.0550559396170923
-0.0953652771793560
0.1504212167964795
-0.0033426263061743
-0.0022433892477064
0.0055860155538312
-0.0008175850017927
-0.0014302408546356
0.0022478258564515
-0.1088112062059392
0.0347170428843539
0.0740941633215837
0.1177099042701109
0.1944783164773537
-0.3121882207474684
-0.0252984897027965
-0.2631443598718071
0.2884428495746147
-0.2449828970319338
-0.0417262310280585
0.2867091280599883
0.1243635288598452
-0.1204128179330703
-0.0039507109267625
0.2328901738575270
-0.5243808883663816
0.2914907145088448
-0.1349554204232188
0.0984545306927570
0.0365008897304767
0.0644569315093101
0.2388106604377563
-0.3032675919470614
0.2261245472448464
-0.3719944016851084
0.1458698544402437
0.0438186720184617
0.0057336020833627
-0.0495522741018258
0.0439465309511623
0.1657254155236013
-0.2096719464747629
0.1098093604235398
-0.1656875423734578
0.0558781819499194
-0.0910581923984754
-0.0979641339492695
0.1890223263477430
-0.1275516014572045
0.1251164622771516
0.0024351391800503
-0.0242392061401346
-0.0041483280595546
0.0283875341997046
-0.0043775345063411
-0.0021552090091618
0.0065327435155039
-0.1890742930209651
0.0433900858906568
0.1456842071302563
-0.0665917250518915
-0.0278154272344484
0.0944071522863601
-0.0035934827630101
-0.0023193149231974
0.0059127976861747
-0.0100995566076768
-0.0045851245105548
0.0146846811182499
-0.0041728478158046
-0.0052583730130057
0.0094312208288237
-0.0030444066855222
-0.0033295330501506
0.0063739397356506
-0.0473380760475253
-0.2174604531044706
0.2647985291519907
-0.0022836956014042
-0.0028973207539870
0.0051810163553700
-0.0421418668266488
-0.0157491407113802
0.0578910075380053
-0.1151465054223116
-0.3019879335299561
0.4171344389522596
-0.0044648326964067
-0.0011061154288057
0.0055709481252016
-0.0659289241158300
-0.0439107457698708
0.1098396698857278
-0.0277622638460219
-0.1328835162819627
0.1606457801279795
-0.0912281789366732
0.0422175897004433
0.0490105892362354
-0.0075046367103279
0.0693979344843770
-0.0618932977740276
-0.0228242743503975
-0.0155118910291503
0.0383361653795408
-0.0383748687315906
-0.1900085854690673
0.2283834542006516
-0.0055751137925455
0.3873705769003809
-0.3817954631077965
-0.0047713074629821
-0.2398950475231861
0.2446663549861359
-0.0046651152899830
-0.0020374572343906
0.0067025725243967
-0.0326404811252195
-0.0184211600311793
0.0510616411564004
0.1445597018445482
-0.0981523086600166
-0.0464073931845243
0.1582190194620819
-0.0414569242041750
-0.1167620952578937
-0.3429182949714629
0.1842651454917379
0.1586531494797409
0.0440086865924650
-0.0177589951564078
-0.0262496914360620
0.2643373698978468
-0.3221854184231078
0.0578480485252627
0.2152297063786711
0.0070656293221234
-0.2222953357007890
0.0827342187924173
-0.1829096150907059
0.1001753962982859
0.0218289458312773
-0.3609614890212657
0.3391325431899850
-0.0044621322723787
-0.0116981248390004
0.0161602571113858
-0.0047906788244601
-0.0067229556735777
0.0115136344980316
-0.1844822301070287
0.0240486901575894
0.1604335399494285
-0.1890742930209651
0.0433900858906568
0.1456842071302563
-0.0220276571119107
-0.0071526057956915
0.0291802629076102
-0.0144223645371254
-0.0072787968163775
0.0217011613534748
-0.0151987163718337
-0.0038121313327695
0.0190108477046118
-0.0045779319841648
-0.0130001804217095
0.0175781124058806
-0.0146930667515154
-0.0039877179975256
0.0186807847490090
-0.0980507464400949
0.1112816706232072
-0.0132309241831168
-0.0077807883262221
-0.0036608328600542
0.0114416211862755
-0.0044803478180590
-0.1139934216401067
0.1184737694581341
-0.0022424361014906
-0.0020779433023007
0.0043203794037959
-0.0317824222808778
-0.1224269002926121
0.1542093225735156
-0.0461931928574665
0.0763860624765628
-0.0301928696191068
0.2050619132173623
-0.0752075804071803
-0.1298543328101864
-0.1187570992555246
0.2686446073931875
-0.1498875081376472
-0.1464830691032546
0.1170628013150722
0.0294202677881745
-0.2938237905464812
0.0577059279361560
0.2361178626103135
0.0646691599337881
0.3121783255293752
-0.3768474854631391
0.2390291360975252
-0.5449616386671354
0.3059325025695571
-0.0019555319358001
-0.0040391712459218
0.0059947031817598
-0.5800873503552542
0.0346643479500723
0.5454230024052573
-0.5463073039644423
-0.2112557935233198
0.7575630974877594
0.9941341647057127
-0.2637884630123668
-0.7303457016933267
-0.2291047886775437
0.5988562235319577
-0.3697514348544297
-0.0536587092002379
0.1758138994424371
-0.1221551902421908
0.4108296844299790
-0.1480564176458057
-0.2627732667841579
-0.0578663327449731
0.1922295314698141
-0.1343631987248213
-0.0203422106700084
0.4564429331727614
-0.4361007225027517
-0.0603196143616958
0.7475271870810790
-0.6872075727194001
-0.0121231385737586
0.2024624820489417
-0.1903393434751888
-0.0783870214160288
0.2333989713510064
-0.1550119499349767
-0.0235340720136730
0.0605949123700095
-0.0370608403563232
-0.0138759686367063
0.1323078092116212
-0.1184318405749046
-0.0016344785528847
0.0162270267949279
-0.0145925482420569
0.0356329202983321
0.0509469011163093
-0.0865798214146269
0.1755523032995311
-0.2905025387568048
0.1149502354572412
-0.0203676446888009
-0.2137924384805225
0.2341600831693180
-0.0309177921677611
-0.0296956500265944
0.0606134421943755
-0.0052413111708441
0.1751381941813613
-0.1698968830105136
-0.0268432832483565
0.2700391336465159
-0.2431958503981616
-0.0016016526382678
-0.0060092452269153
0.0076108978651699
-0.0028545254413561
-0.0021069363777366
0.0049614618190629
-0.1474534471016860
-0.0159284128414303
0.1633818599431355
-0.0046698863199694
-0.0061081789781934
0.0107780652981741
-0.0145950087435229
0.0306371949435070
-0.0160421861999926
-0.0070726051757074
-0.0019039980213061
0.0089766031970140
0.2306803003792156
0.0117374679764553
-0.2424177683556747
0.1199074340560860
-0.0236095484413655
-0.0962978856147294
-0.0033745909918084
-0.0080759460823255
0.0114505370741483
-0.0019879069068845
0.1738100717132147
-0.1718221648063273
-0.0340371383815300
-0.0049816246992121
0.0390187630807305
-0.0060457862436887
-0.0029519601014114
0.0089977463451132
-0.0266666242340370
-0.1251774501891343
0.1518440744231698
0.0181218299017351
-0.0867153906586336
0.0685935607568816
-0.0326864445782891
0.1893681159734762
-0.1566816713952246
-0.0092006364718151
-0.0153568247780658
0.0245574612499042
-0.0224964086047355
-0.1366659482639903
0.1591623568687547
0.0399288804403798
-0.0351455399298080
-0.0047833405105462
-0.0066030481458858
0.4702759111699401
-0.4636728630240554
-0.0021199692208573
0.0490503595756183
-0.0469303903547656
-0.0693094881182286
-0.0336716563418082
0.1029811444600063
-0.0041669688002149
0.2964225578462762
-0.2922555890460668
-0.0068234981751147
-0.0560293438497858
0.0628528420248999
-0.0088222144034195
-0.0052504860102230
0.0140727004136539
-0.0119434845627564
-0.0224058132056320
0.0343492977684278
-0.0581639619048655
-0.6276109368310291
0.6857748987358386
-0.0259921615608722
0.0601875758314863
-0.0341954142706263
0.1088330665739646
-0.0802385469489019
-0.0285945196250533
-0.0499386971396136
-0.0747793620002870
0.1247180591399119
0.2200612299602605
-0.2163031282890238
-0.0037581016712252
-0.0144542692163290
-0.0032029019079120
0.0176571711242541
-0.0585301949640396
-0.0088280119444649
0.0673582069085257
-0.0026233341922767
-0.0039333529155141
0.0065566871077965
-0.0043166600536783
0.0379236074573378
-0.0336069474036608
-0.1722879039897742
0.4175138858460482
-0.2452259818561780
-0.1092679735212807
-0.0140996687236303
0.1233676422448449
-0.0095006090152632
-0.0053719795998876
0.0148725886151133
-0.0243798613278275
-0.0108653729850751
0.0352452343129066
-0.0041355211249316
-0.0034103488759301
0.0075458700008709
-0.0173421742167532
0.2722940460418639
-0.2549518718250661
-0.0053240707200651
0.2484202031231036
-0.2430961324030212
0.0165931303317352
-0.0031911117145757
-0.0134020186171972
0.3824623279963610
-0.3549833659214357
-0.0274789620750090
-0.1273703811602885
0.2902943062396192
-0.1629239250793210
-0.2235967022493925
-0.2411940947525728
0.4647907970019112
-0.0859288499585432
-0.2055885186628842
0.2915173686214588
0.0482150202624622
-0.0481058872851000
-0.0001091329772725
-0.3007631006444741
-0.1585889790451541
0.4593520796895808
-0.5666076373023466
0.8836914301086395
-0.3170837928062487
0.2948202360574305
-0.3270704984766449
0.0322502624193163
0.0356329202983321
0.0509469011163093
-0.0865798214146269
0.1755523032995311
-0.2905025387568048
0.1149502354572412
-0.1266286546241899
0.0265384049453560
0.1000902496787233
0.2800381025526080
0.1966016601260292
-0.4766397626786203
-0.5147747262199432
-0.0646637501250394
0.5794384763451579
-0.0043166600536783
0.0379236074573378
-0.0336069474036608
-0.1722879039897742
0.4175138858460482
-0.2452259818561780
-0.1092679735212807
-0.0140996687236303
0.1233676422448449
-0.0095006090152632
-0.0053719795998876
0.0148725886151133
-0.0243798613278275
-0.0108653729850751
0.0352452343129066
-0.0041355211249316
-0.0034103488759301
0.0075458700008709
-0.0173421742167532
0.2722940460418639
-0.2549518718250661
-0.0053240707200651
0.2484202031231036
-0.2430961324030212
0.0165931303317352
-0.0031911117145757
-0.0134020186171972
0.3824623279963610
-0.3549833659214357
-0.0274789620750090
-0.1273703811602885
0.2902943062396192
-0.1629239250793210
-0.2235967022493925
-0.2411940947525728
0.4647907970019112
-0.0859288499585432
-0.2055885186628842
0.2915173686214588
0.0482150202624622
-0.0481058872851000
-0.0001091329772725
0.3348218743185249
-0.7500365225308924
0.4152146482123436
-0.1241353813893665
0.0706846473092803
0.0534507340800455
-0.4446568031587742
0.6155665272938934
-0.1709097241351338
0.0569675432083985
0.2388235787518760
-0.2957911219602621
0.0389232143182875
0.2915968728666818
-0.3305200871849809
0.0032240040503240
0.2163805355204446
-0.2196045395707462
-0.1174014164601084
-0.3321943960213851
0.4495958124814925
0.1300949292718541
-0.0956717257729206
-0.0344232034989335
-0.0762911792913960
0.3885152897198894
-0.3122241104284679
-0.0603841200188017
0.2586953402915813
-0.1983112202727801
-0.1858478924607631
-0.0584089100650313
0.2442568025257778
-0.4383951618831768
0.4370339450492279
0.0013612168339122
-0.2375762284791326
0.1533106948985829
0.0842655335804978
-0.3202923176305617
-0.0209428990199497
0.3412352166505528
0.0748459194317228
-0.0655186009385220
-0.0093273184931612
0.5897414089408679
-0.1041611933494438
-0.4855802155914105
0.1925335810618271
-0.0547296973813254
-0.1378038836805172
0.0353326080699274
0.1660052803560008
-0.2013378884259157
-0.1332857598380423
-0.1935945348578443
0.3268802946959083
0.4546227353819802
-0.2005214693981865
-0.2541012659837977
-0.0083740625761867
-0.0088167626213723
0.0171908251975975
0.1652791277993605
0.1958187418514533
-0.3610978696507848
-0.2892106275778756
-0.0670827298317255
0.3562933574095478
0.0213238180859025
-0.1907718764156954
0.1694480583297625
0.1879046276141038
-0.0549476290772364
-0.1329569985368006
0.2893083234289682
-0.3171505384261025
0.0278422149972007
-0.2070017353965290
0.0950441456371093
0.1119575897593956
-0.0906436697405509
0.2338340878023310
-0.1431904180617467
0.0178075024934555
-0.1116199234631529
0.0938124209697264
0.2639349861784035
0.0996175997449171
-0.3635525859233738
-0.0330541935230357
-0.0957666036347024
0.1288207971577242
0.8527914826137782
-0.4926972030667776
-0.3600942795469460
-0.0086563358190459
-0.0175234138345245
0.0261797496535353
-0.1499693377222777
-0.0339597966396316
0.1839291343619533
-0.0714751922605623
-0.5308045427870693
0.6022797350476290
-0.5410257227173415
0.4223606359742410
0.1186650867430821
0.3891517669907571
0.1542617132640779
-0.5434134802548055
0.1282500929199334
-0.0946287463468757
-0.0336213465730625
-0.0643237704515648
0.0224588238608892
0.0418649465906673
-0.1032932162625283
0.0093489463640812
0.0939442698985303
-0.0884237723924599
0.0760353649499710
0.0123884074424303
-0.0173187340433375
-0.0675739205375605
0.0848926545809166
-0.0040264182954684
-0.0040524720569345
0.0080788903523318
0.1130258119683094
0.1196986338598901
-0.2327244458281954
-0.0045171711630472
-0.0105467863393838
0.0150639575024415
-0.1891286841414279
0.5959208921335526
-0.4067922079923416
0.0934901869546601
-0.0399731116295055
-0.0535170753251144
-0.0020074095984902
-0.0449542006714213
0.0469616102699441
-0.5548055432088369
-0.0742923090638944
0.6290978522727638
-0.1295727554499085
-0.3620725717612817
0.4916453272111831
-0.0347075796583929
-0.0538326082237583
0.0885401878821521
-0.1216751033845386
-0.0083984933511235
0.1300735967356661
0.1720339848139759
0.1656073177165010
-0.3376413025304812
-0.1033156674345284
0.3022802066102610
-0.1989645391757164
-0.1184999886475388
0.0943957269666261
0.0241042616809023
0.1347173240952765
0.0908864095338649
-0.2256037336291447
0.3023591832847271
-0.1076645567534628
-0.1946946265312428
-0.0785678252466571
0.0790468380704851
-0.0004790128238086
-0.0250440908326994
-0.2688719297978805
0.2939160206305685
-0.1685556555551999
0.0485153444441108
0.1200403111111012
-0.0689779733238555
-0.2448962600256745
0.3138742333494438
-0.0036350059220732
0.2136489963850455
-0.2100139904629878
-0.1582798951398528
0.2043907446071256
-0.0461108494672727
-0.0059941309215426
-0.2738163788881277
0.2798105098096627
-0.1401704301129559
-0.0780396430827243
0.2182100731956691
-0.0115652228928917
-0.1802430121333563
0.1918082350262439
-0.0012336734237539
0.3282396192663199
-0.3270059458425766
-0.0057156874787260
0.0608257116332949
-0.0551100241545641
0.1229064695233868
0.0444260905137387
-0.1673325600371117
-0.0444728513645820
0.1309736165751261
-0.0865007652105550
-0.0023284732604536
-0.0644296294040776
0.0667581026645273
0.2015018178504158
-0.1873836780899642
-0.0141181397604664
-0.0122561297208794
-0.1808031680921232
0.1930592978130146
-0.0063611775659081
0.4698690067803460
-0.4635078292144285
-0.0062654925707857
-0.2742470624320522
0.2805125550028281
0.0760104386470627
-0.0052891049594818
-0.0707213336875818
-0.0015406108134772
0.0010159106424927
0.0005247001709842
-0.0066150212808219
0.3349939165855326
-0.3283788953047074
0.0437217385555866
0.0535589757638527
-0.0972807143194455
0.1716036828506164
-0.0407107137294634
-0.1308929691211527
0.1608016607388085
0.1442105775118272
-0.3050122382506280
-0.0515751272998216
0.0065617190265829
0.0450134082732383
-0.0379448716816206
-0.0516517269584054
0.0895965986400059
0.0959692333947092
0.0634225737292301
-0.1593918071239255
-0.0753291249633547
0.0560217455910342
0.0193073793723160
0.0573618045482218
-0.0115477038405815
-0.0458141007076444
0.1299399748404394
-0.0441756826617806
-0.0857642921786930
-0.1234061005714332
-0.0144311687520213
0.1378372693234657
-0.0155548795586420
-0.0035702175233179
0.0191250970819458
-0.0239431355356774
-0.0234430800953227
0.0473862156310039
-0.0320106157230587
-0.0045263867450885
0.0365370024681550
-0.4018582358481015
0.2274103579604733
0.1744478778876159
-0.2255510517105690
-0.0034850581309497
0.2290361098415379
-0.0044815935490927
-0.0030452198575533
0.0075268134066470
0.0048982665259388
-0.0068472757875411
0.0019490092616048
-0.0095477846238641
-0.0113846336652584
0.0209324182891234
-0.0459845358530672
-0.0225248811371831
0.0685094169902525
0.1589262642923896
-0.0093268640878429
-0.1495994002045428
-0.0087185702618076
-0.0033950104092737
0.0121135806710812
-0.0349062874079946
-0.0206745088707304
0.0555807962787155
-0.0164047313591074
-0.0199738255158351
0.0363785568749450
-0.1600910595962194
0.0045119905488126
0.1555790690474145
0.2358195625430517
-0.0047325052021067
-0.2310870573409400
-0.0113038664871105
0.1747426488648593
-0.1634387823777515
-0.0243838325825744
-0.0942606643546231
0.1186444969371880
-0.1299971361296303
-0.0303947400693983
0.1603918761990424
-0.0372776442741202
-0.0423737443943286
0.0796513886684609
-0.3127458847795733
-0.0140648098784754
0.3268106946580792
0.4216405993388097
-0.0336603887962008
-0.3879802105426056
-0.0144108627774805
-0.0111037989279721
0.0255146617054584
0.0744074366897537
0.0256867292090690
-0.1000941658988657
-0.2474048942715329
-0.0393834304520609
0.2867883247236014
-0.0045166954506840
-0.0017985635638353
0.0063152590144901
-0.0067379353911522
0.0693545834118961
-0.0626166480207412
0.2407672724688692
-0.0681159700683946
-0.1726513024004103
-0.0325470666931389
-0.0203685200011352
0.0529155866943027
-0.0983652650867003
0.0489052277805714
0.0494600373061342
0.2831574372707094
-0.3007632201243114
0.0176057828536192
-0.0234714360752637
0.0814092645474972
-0.0579378284722143
-0.0937224905869805
-0.0101181571888486
0.1038406477757787
-0.0667733996925080
0.2787285406998362
-0.2119551410073218
0.0900053625381383
0.0154033063129298
-0.1054086688510629
-0.0584021196116276
-0.0344230331142656
0.0928251527258607
0.0981535040891086
-0.0486873057672473
-0.0494661983218243
0.2817120487284802
-0.0233064880385265
-0.2584055606899441
-0.0024831057146675
-0.0099967266898809
0.0124798324044830
-0.0171282777534810
-0.0461781835082592
0.0633064612617436
-0.0700801245492690
-0.0446472250097312
0.1147273495590191
0.4487973971062761
-0.3202727678525115
-0.1285246292537519
0.1411671020337172
0.0210799915863502
-0.1622470936200895
-0.0598768867060664
-0.1564919439215269
0.2163688306276065
-0.0644898332613661
0.4090085052330844
-0.3445186719716982
-0.0025225341397595
-0.0017979099797075
0.0043204441194881
-0.0127956220835643
-0.1168788073035720
0.1296744293871511
-0.0225645349725628
-0.2708559212642564
0.2934204562368352
-0.0424238913493109
-0.2490786193802721
0.2915025107295742
-0.0124956001902620
-0.0306239042624496
0.0431195044527034
0.3009558285766609
-0.0991409851777926
-0.2018148433988981
-0.0009185091972138
-0.0018374521929764
0.0027559613901878
0.4807106036739406
-0.0993847556921175
-0.3813258479818237
-0.0751457928698648
0.2144602258692049
-0.1393144329993307
-0.0590908813718061
0.0316573374367903
0.0274335439350029
-0.0484529571658594
0.0218151640823207
0.0266377930835836
-0.0009687320061954
-0.0007756461204010
0.0017443781266214
-0.0436343303263042
0.0231731001174364
0.0204612302088808
-0.0082921938774969
-0.0292615272911527
0.0375537211686481
0.1722075317639415
0.0804726409284730
-0.2526801726924281
-0.0091762644479732
-0.0018728800555902
0.0110491445035631
-0.0010406050783878
-0.0019318556514259
0.0029724607298149
-0.0485873787092494
-0.0630286477414754
0.1116160264507357
-0.0068941970369142
-0.0022787952991462
0.0091729923360793
-0.1168495734682321
-0.0375748807102114
0.1544244541783988
-0.1162611409243796
0.3637453820235553
-0.2474842410991501
-0.0029326548785209
-0.0032862146357979
0.0062188695142679
-0.0720942779748158
0.2376087742146935
-0.1655144962399322
-0.0010079956546609
-0.0044509982719112
0.0054589939265198
-0.0013178040717652
-0.0018136416046942
0.0031314456764833
0.0960793582413645
-0.0365065198724676
-0.0595728383688867
-0.0011253557310227
-0.0017423843950796
0.0028677401261363
-0.0347075796583929
-0.0538326082237583
0.0885401878821521
-0.1216751033845386
-0.0083984933511235
0.1300735967356661
0.1868591015228022
0.0906708837104970
-0.2775299852332880
-0.0688574632510578
0.5402009335509551
-0.4713434702999007
0.0927975254238716
-0.0221539361925362
-0.0706435892313224
-0.0026750347654410
-0.0081527302375919
0.0108277650030652
-0.0097289957106615
-0.0728705281868474
0.0825995238975428
-0.0063767063964252
0.0279498864084295
-0.0215731800120260
-0.0100144281943154
-0.1415878681669729
0.1516022963612038
-0.0025031231177630
0.0893267439612492
-0.0868236208434826
-0.0036350059220732
0.2136489963850455
-0.2100139904629878
-0.1582798951398528
0.2043907446071256
-0.0461108494672727
0.1229064695233868
0.0444260905137387
-0.1673325600371117
0.2015018178504158
-0.1873836780899642
-0.0141181397604664
0.0760104386470627
-0.0052891049594818
-0.0707213336875818
0.0437217385555866
0.0535589757638527
-0.0972807143194455
0.1716036828506164
-0.0407107137294634
-0.1308929691211527
0.1608016607388085
0.1442105775118272
-0.3050122382506280
-0.0515751272998216
0.0065617190265829
0.0450134082732383
-0.0234512516108404
-0.0097571570874196
0.0332084086982435
0.1003418019462012
0.0635126429388765
-0.1638544448850646
-0.0095477846238641
-0.0113846336652584
0.0209324182891234
-0.0459845358530672
-0.0225248811371831
0.0685094169902525
-0.0349062874079946
-0.0206745088707304
0.0555807962787155
-0.0164047313591074
-0.0199738255158351
0.0363785568749450
0.0484673699901543
0.0138046751709654
-0.0622720451611119
-0.0191643419603206
0.1817758833696490
-0.1626115414093310
-0.0594153802441584
-0.0207313494223683
0.0801467296665398
0.4312401027895204
-0.0283440062013387
-0.4028960965881828
-0.0144108627774805
-0.0111037989279721
0.0255146617054584
-0.0055688929061005
-0.0024683699445643
0.0080372628506629
-0.0067379353911522
0.0693545834118961
-0.0626166480207412
0.1721283642797390
-0.0110658909543690
-0.1610624733253701
0.0686389081891302
-0.0570500791140256
-0.0115888290750402
-0.0325470666931389
-0.0203685200011352
0.0529155866943027
-0.0081653517589927
-0.0013608165540476
0.0095261683130451
0.1778763329915734
-0.0677835389724940
-0.1100927940190684
-0.0234714360752637
0.0814092645474972
-0.0579378284722143
0.0777647957270142
-0.0313777193480378
-0.0463870763790070
-0.0056229676544087
-0.0053373373694375
0.0109603050238807
-0.0171282777534810
-0.0461781835082592
0.0633064612617436
-0.0700366981132311
-0.0446028938773008
0.1146395919905537
0.4829872917889702
-0.2841934451114813
-0.1987938466774853
-0.0015922956276509
-0.0016013054671813
0.0031936010948039
-0.0588564802160328
-0.1558482528063966
0.2147047330224361
-0.0631937542985257
0.4031777710023267
-0.3399840167037814
-0.0017256274884937
-0.0009435839152217
0.0026692114037191
-0.0004421649516573
-0.0006250086958859
0.0010671736475686
-0.0131107833427363
-0.0197782337623751
0.0328890171050854
-0.0388707934746093
-0.0031196852682874
0.0419904787428876
-0.0124956001902620
-0.0306239042624496
0.0431195044527034
0.3025331256167476
-0.1061584405336445
-0.1963746850830999
-0.0009185091972138
-0.0018374521929764
0.0027559613901878
0.2823746878452635
-0.0973971390546911
-0.1849775487905735
-0.0477422286792200
0.0322625818982361
0.0154796467809637
-0.0014614243797250
-0.0014517271483715
0.0029131515280975
-0.0078404841053223
-0.0279976275532985
0.0358381116586114
0.1938517027149947
0.0810556184702435
-0.2749073211852524
-0.0010406050783878
-0.0019318556514259
0.0029724607298149
-0.0485873787092494
-0.0630286477414754
0.1116160264507357
-0.1168495734682321
-0.0375748807102114
0.1544244541783988
-0.0059561948896982
0.1764977280947508
-0.1705415332050468
-0.0366974915676577
0.0554236647302874
-0.0187261731626119
-0.0148429287419984
-0.0248291226882135
0.0396720514302099
-0.0719436166214096
0.2432776186640198
-0.1713340020426550
-0.0008175850017927
-0.0014302408546356
0.0022478258564515
-0.0347075796583929
-0.0538326082237583
0.0885401878821521
-0.1216751033845386
-0.0083984933511235
0.1300735967356661
0.1868591015228022
0.0906708837104970
-0.2775299852332880
-0.0688574632510578
0.5402009335509551
-0.4713434702999007
0.0927975254238716
-0.0221539361925362
-0.0706435892313224
-0.0036350059220732
0.2136489963850455
-0.2100139904629878
-0.1582798951398528
0.2043907446071256
-0.0461108494672727
0.1229064695233868
0.0444260905137387
-0.1673325600371117
0.2015018178504158
-0.1873836780899642
-0.0141181397604664
0.0760104386470627
-0.0052891049594818
-0.0707213336875818
0.0437217385555866
0.0535589757638527
-0.0972807143194455
0.1716036828506164
-0.0407107137294634
-0.1308929691211527
0.1608016607388085
0.1442105775118272
-0.3050122382506280
-0.0515751272998216
0.0065617190265829
0.0450134082732383
-0.0234512516108404
-0.0097571570874196
0.0332084086982435
0.1024047375564206
0.0639821576391632
-0.1663868951955758
-0.0095477846238641
-0.0113846336652584
0.0209324182891234
-0.0459845358530672
-0.0225248811371831
0.0685094169902525
-0.0349062874079946
-0.0206745088707304
0.0555807962787155
-0.0164047313591074
-0.0199738255158351
0.0363785568749450
0.0195996947439406
0.0160515560980426
-0.0356512508419804
-0.0191643419603206
0.1817758833696490
-0.1626115414093310
-0.0594153802441584
-0.0207313494223683
0.0801467296665398
-0.0144108627774805
-0.0111037989279721
0.0255146617054584
-0.0055688929061005
-0.0024683699445643
0.0080372628506629
-0.0067379353911522
0.0693545834118961
-0.0626166480207412
0.1721283642797390
-0.0110658909543690
-0.1610624733253701
0.0686389081891302
-0.0570500791140256
-0.0115888290750402
-0.0325470666931389
-0.0203685200011352
0.0529155866943027
-0.0165918062119371
-0.0012121687015317
0.0178039749134767
0.1973621611349312
-0.0663452065032126
-0.1310169546317169
-0.0234714360752637
0.0814092645474972
-0.0579378284722143
-0.0025625299051689
-0.0019377831245424
0.0045003130297187
-0.0056229676544087
-0.0053373373694375
0.0109603050238807
-0.0171282777534810
-0.0461781835082592
0.0633064612617436
-0.0700366981132311
-0.0446028938773008
0.1146395919905537
0.4829872917889702
-0.2841934451114813
-0.1987938466774853
-0.0015922956276509
-0.0016013054671813
0.0031936010948039
-0.0587375858098664
-0.1557143930828478
0.2144519788927158
-0.0605183919592658
0.4657008648755088
-0.4051824729162194
-0.0004421649516573
-0.0006250086958859
0.0010671736475686
-0.0388707934746093
-0.0031196852682874
0.0419904787428876
-0.0124956001902620
-0.0306239042624496
0.0431195044527034
-0.0009185091972138
-0.0018374521929764
0.0027559613901878
0.2823746878452635
-0.0973971390546911
-0.1849775487905735
-0.0477422286792200
0.0322625818982361
0.0154796467809637
-0.0074945102810368
-0.0262725695542251
0.0337670798352536
0.1986986236357905
0.0286120543845046
-0.2273106780203095
-0.0010406050783878
-0.0019318556514259
0.0029724607298149
-0.0485873787092494
-0.0630286477414754
0.1116160264507357
-0.1168495734682321
-0.0375748807102114
0.1544244541783988
-0.0059561948896982
0.1764977280947508
-0.1705415332050468
-0.0366974915676577
0.0554236647302874
-0.0187261731626119
-0.0148429287419984
-0.0248291226882135
0.0396720514302099
-0.0107782841057976
-0.0152152948845458
0.0259935789903271
-0.0022673618686096
0.1771246970642451
-0.1748573351956383
-0.0550559396170923
-0.0953652771793560
0.1504212167964795
-0.0033426263061743
-0.0022433892477064
0.0055860155538312
-0.0008175850017927
-0.0014302408546356
0.0022478258564515
-0.0090342394726769
0.5508745138138071
-0.5418402743411347
0.1484244347818086
-0.3514521992976922
0.2030277645158555
0.1374266529947688
0.2977596527387363
-0.4351863057334460
-0.0182390472535242
0.0609192373607780
-0.0426801901072721
-0.0653484770024410
-0.0009933253153437
0.0663418023177733
-0.0197806021836232
0.0236060825329167
-0.0038254803492475
-0.0549714344723888
0.0257165003813770
0.0292549340910242
-0.0820639277758772
0.1094319434496460
-0.0273680156738081
-0.0177956796537049
0.2299466444666727
-0.2121509648129779
-0.0358540495744509
-0.2536243938803906
0.2894784434548788
-0.0339981212541530
-0.2246029104272378
0.2586010316814139
-0.0058888734636999
0.3311273176683544
-0.3252384442046577
-0.0097561473550475
-0.4185677542897435
0.4283239016447893
0.2168890177208393
0.1007701571470464
-0.3176591748679072
-0.4919421071268378
0.2772204470960027
0.2147216600307742
-0.2545673012115013
0.4448897606527485
-0.1903224594411276
-0.1440396901247007
-0.0577518542553716
0.2017915443801002
-0.0972236265538170
-0.1932321120189262
0.2904557385728314
-0.0090825582291421
0.2372183166111580
-0.2281357583820149
-0.0102419349652562
-0.0045717744559450
0.0148137094211996
-0.1027801434383704
-0.0439339909467206
0.1467141343850512
-0.0306890249460475
-0.1476026681051315
0.1782916930511330
0.0203927584586348
-0.1469451374131588
0.1265523789545592
0.0747282281916282
-0.0794773503858919
0.0047491221942780
-0.0932524784565406
-0.0582916438488839
0.1515441223052997
-0.0791050489200797
-0.0085596835529198
0.0876647324730480
0.1437887678643653
-0.0952095143842948
-0.0485792534800157
0.3263553191583320
-0.0373121630065142
-0.2890431561518163
-0.0006474338326692
-0.0077682663514250
0.0084157001840623
-0.0640855294109765
-0.3431518888104085
0.4072374182213980
-0.1059645704997946
-0.0426471642005476
0.1486117347003052
-0.0740740789136176
-0.3669180263261511
0.4409921052397712
-0.0160579930124912
-0.3007437737891510
0.3168017668016619
-0.0014670522763484
0.0987793297728381
-0.0973122774964949
0.0054402469316026
-0.0626984809994270
0.0572582340678951
-0.1426114495578388
0.1011579926127065
0.0414534569451740
0.1137421195799241
0.1021102193806846
-0.2158523389606208
-0.0405967926307286
-0.0002188513947618
0.0408156440254419
-0.0047310410797419
-0.1384245048632796
0.1431555459430262
0.1742211898035152
0.0006290594006262
-0.1748502492041437
-0.0347075796583929
-0.0538326082237583
0.0885401878821521
0.0380896179721831
0.6530383183722834
-0.6911279363444505
-0.0511288076272884
0.2848403306582765
-0.2337115230310025
-0.1776536628374923
0.0944691039953516
0.0831845588421625
-0.0061682504401076
0.1420132316201408
-0.1358449811800316
-0.0089362326154772
-0.0657374052352608
0.0746736378507601
0.1165259972774204
-0.4662261201172715
0.3497001228398690
0.1770416045939615
0.0146020372725460
-0.1916436418665516
-0.0055363403638083
-0.3893470722171523
0.3948834125809609
0.1991504576451124
-0.1135343123551438
-0.0856161452899751
0.0807232050130445
-0.1240308750669211
0.0433076700538840
-0.0517277826827359
-0.0246378175410068
0.0763656002237366
0.2870429160583696
-0.0487675929640047
-0.2382753230943503
-0.0843484459287017
0.0536451592977664
0.0307032866309390
-0.0067727007460677
0.0656530071825924
-0.0588803064365135
-0.2279832959386958
-0.1530295816017929
0.3810128775404971
-0.0341922375137643
-0.0499235586960177
0.0841157962097632
-0.0714892754780683
-0.0205757364223900
0.0920650119004656
-0.0095477846238641
-0.0113846336652584
0.0209324182891234
-0.0497371700209236
-0.0242530493995707
0.0739902194204952
-0.0349062874079946
-0.0206745088707304
0.0555807962787155
-0.0164047313591074
-0.0199738255158351
0.0363785568749450
-0.0580463828467951
-0.0064182374420835
0.0644646202889068
-0.0594153802441584
-0.0207313494223683
0.0801467296665398
-0.0217999037956187
-0.0135647865689092
0.0353646903645340
-0.0331583699711335
0.2040773570414528
-0.1709189870702912
-0.0234714360752637
0.0814092645474972
-0.0579378284722143
-0.0171282777534810
-0.0461781835082592
0.0633064612617436
-0.1173917086917238
0.0331201874458898
0.0842715212458042
-0.0702328751712442
-0.0449007736979934
0.1151336488692618
-0.0030583085771365
-0.0018110257846147
0.0048693343617498
0.3601722939133759
-0.0293419159429348
-0.3308303779704432
0.1853485231231274
0.1283513502433995
-0.3136998733665273
-0.1112108867418440
0.4970293215548469
-0.3858184348129698
0.0183633356197254
0.0509056287955748
-0.0692689644152815
-0.0075837230443394
-0.0021922025605139
0.0097759256048618
-0.0403843731784816
-0.0035633146789993
0.0439476878574343
-0.0124956001902620
-0.0306239042624496
0.0431195044527034
-0.2686007441675959
-0.0241244752199848
0.2927252193875271
-0.0100861571089477
-0.0035003972607094
0.0135865543696691
-0.0769090827337438
-0.0056944817795122
0.0826035645133161
-0.0417588866604123
-0.0281583735847202
0.0699172602451318
-0.0011713301296090
-0.0021686483061853
0.0033399784358029
0.0661753464103732
0.1504330883128995
-0.2166084347232729
-0.0027693772704845
-0.0021736223897615
0.0049429996602439
-0.1224559515985779
0.1466000820948552
-0.0241441304962777
0.2643727983684692
-0.0911188927123589
-0.1732539056561004
-0.0486695613464295
-0.0065416212413111
0.0552111825877020
-0.0388645596079631
-0.1892767972827280
0.2281413568907183
-0.0033358383235748
-0.0025975538386280
0.0059333921622076
-0.0659900607939105
0.0115355874281826
0.0544544733657061
-0.0199003874937707
-0.0048075059277993
0.0247078934215990
-0.0176678168411619
-0.0061014716492380
0.0237692884903942
-0.3751460049755050
0.5524486886622579
-0.1773026836867607
-0.0635278895663271
-0.0074062415042401
0.0709341310705479
0.4009883714041173
-0.0240606303635979
-0.3769277410405100
-0.0167891798463248
-0.0137265488843645
0.0305157287307323
0.0336222508095949
0.0214679279672043
-0.0550901787767903
-0.0070142506473940
-0.0036821118294976
0.0106963624768884
0.0200738772021635
-0.0054626870233246
-0.0146111901788146
-0.0739454220371202
-0.0344979279483852
0.1084433499855297
-0.0165341458528066
-0.0424820534778217
0.0590161993305485
-0.0026201026617546
-0.0006333280573130
0.0032534307190906
0.1217276623591090
-0.0088784953088991
-0.1128491670502156
-0.0010406050783878
-0.0019318556514259
0.0029724607298149
-0.0217613643790192
-0.0152106518014766
0.0369720161805014
-0.0119905466243518
-0.0235977371441840
0.0355882837685276
0.1882540323877266
-0.4040115834088945
0.2157575510211413
-0.1027803639459213
-0.0083264205449567
0.1111067844908595
0.2476828815488115
-0.2987484291075791
0.0510655475587631
-0.0135576764705649
-0.0092760810019141
0.0228337574724915
-0.0042365830481053
-0.0068006432213813
0.0110372262694872
-0.0408830922352332
-0.0086632226094198
0.0495463148445958
0.0001331272418070
0.1028403601457818
-0.1029734873875970
-0.0103157667840547
-0.0069497744235704
0.0172655412076369
0.4204367364498116
0.6340851025359737
-1.0545218389858066
0.1820033640987253
0.0719618660643882
-0.2539652301631307
-0.0010237708594290
-0.0088458644491299
0.0098696353085766
-0.0081879650295011
-0.1415414719603083
0.1497294369898364
-0.0008627303469485
-0.0015382133800651
0.0024009437270331
-0.0435785040936586
-0.0044001240375347
0.0479786281312144
-0.1017155117867547
-0.2263742056954388
0.3280897174821880
0.4327849869647446
0.1805692119877514
-0.6133541989524890
-0.4298204186794554
-0.1602011628892545
0.5900215815687817
-0.1426114495578388
0.1011579926127065
0.0414534569451740
-0.0404075433586002
-0.1062142264329296
0.1466217697915361
0.3773516679833823
0.0650410818374653
-0.4423927498208376
0.0527894351917015
0.4215551077510865
-0.4743445429427919
0.2217926137475305
-0.0213985505142216
-0.2003940632333033
0.0921276650285463
-0.0246342414184377
-0.0674934236100941
-0.0041084640079773
-0.2091726287279753
0.2132810927359758
-0.0420854230254297
-0.0369565733231392
0.0790419963485724
-0.0714499996437600
-0.0294089322007318
0.1008589318444924
-0.0067250322370887
0.1506220272602939
-0.1438969950231911
-0.0085466114260000
-0.2160191927154005
0.2245658041414177
-0.0070812222072504
-0.0655209339088118
0.0726021561160895
-0.0012897630104723
-0.1551515931320706
0.1564413561425481
-0.0197173565817389
0.3665147427357910
-0.3467973861540674
-0.0333792272439961
0.0918595341801340
-0.0584803069361185
-0.0067379353911522
0.0693545834118961
-0.0626166480207412
0.2756126993406363
-0.0128863902340637
-0.2627263091065774
-0.0025625299051689
-0.0019377831245424
0.0045003130297187
-0.0534630211192039
-0.0150900634438352
0.0685530845630768
0.4815548848780469
-0.2859214395501429
-0.1956334453279023
-0.0016681578544886
-0.0017185511172001
0.0033867089716612
0.2674109506121560
-0.0887728310534304
-0.1786381195587292
-0.0952356854184043
-0.0461590150298600
0.1413947004482859
-0.0149327922757610
-0.0492519554824756
0.0641847477582583
-0.0062057067348484
-0.0051353162478671
0.0113410229827265
-0.1023852004346452
0.1008705165699641
0.0015146838646881
-0.0946578942594141
-0.0068828841460099
0.1015407784053879
0.2103271969278301
0.0201486099072224
-0.2304758068350669
-0.0010406050783878
-0.0019318556514259
0.0029724607298149
-0.0015890246051848
-0.0012406667712908
0.0028296913764680
-0.0723497817997166
-0.0089217246213186
0.0812715064210376
-0.0437176454204374
-0.0017797690536453
0.0454974144740607
-0.0022289252029079
-0.0016443554186374
0.0038732806215487
-0.0056845897760486
-0.0044326477600355
0.0101172375360907
0.1268412516336634
-0.0030704337390599
-0.1237708178946132
-0.0072995691238664
-0.0012937278435824
0.0085932969674560
-0.0354550450485131
0.0102739546697534
0.0251810903787637
-0.0013827695418044
-0.0012981153229013
0.0026808848647240
0.1782963302632297
-0.2306256520824897
0.0523293218192574
-0.0038924101188350
-0.0012896272018557
0.0051820373206833
-0.1996063743960788
-0.0455083349158302
0.2451147093118689
0.1136060190931908
-0.1937035343218567
0.0800975152286643
-0.0087943795332083
-0.0012519161188271
0.0100462956520589
-0.0917534311847499
-0.0399416124490686
0.1316950436338677
-0.0181855550481727
-0.0270725119359201
0.0452580669840410
-0.0276754739959016
-0.0573059100721298
0.0849813840680104
0.2065826674698791
0.1284514799554295
-0.3350341474252960
-0.0009185091972138
-0.0018374521929764
0.0027559613901878
0.1020705993323621
-0.0256608765541113
-0.0764097227782294
-0.0026338621845617
-0.0034601688656729
0.0060940310502298
-0.0053460927929055
-0.0019635607122975
0.0073096535052271
-0.0032608046479652
-0.0018139174681342
0.0050747221160558
0.0041975987508819
0.4098350347502929
-0.4140326335011148
-0.2053840741089085
-0.3930296931175414
0.5984137672263963
-0.0041068535970726
0.4742863306441470
-0.4701794770470833
-0.0587121959083088
0.1062106010263954
-0.0474984051181051
-0.1216751033845386
-0.0083984933511235
0.1300735967356661
-0.0036350059220732
0.2136489963850455
-0.2100139904629878
-0.0116854414101963
-0.0322986705154948
0.0439841119257027
-0.1582798951398528
0.2043907446071256
-0.0461108494672727
-0.0155170913668531
0.0134001462914927
0.0021169450753707
0.1229064695233868
0.0444260905137387
-0.1673325600371117
-0.0743359033700618
-0.3990013292753667
0.4733372326454196
0.2015018178504158
-0.1873836780899642
-0.0141181397604664
-0.0109035797719891
0.0884262761498595
-0.0775226963778964
0.0760104386470627
-0.0052891049594818
-0.0707213336875818
-0.0268450386782944
-0.0626438504800631
0.0894888891583836
0.0437217385555866
0.0535589757638527
-0.0972807143194455
-0.0284574090839582
0.1709007159622542
-0.1424433068783009
0.1716036828506164
-0.0407107137294634
-0.1308929691211527
-0.0040955223611359
0.1004169609874537
-0.0963214386263170
0.1608016607388085
0.1442105775118272
-0.3050122382506280
-0.0079870499068427
-0.0885372459685778
0.0965242958754172
-0.0515751272998216
0.0065617190265829
0.0450134082732383
-0.0066463877707448
0.4406180744916973
-0.4339716867209544
0.1720245170644372
0.2160784389815879
-0.3881029560460249
-0.0234512516108404
-0.0097571570874196
0.0332084086982435
0.1097311249529184
0.0588701795586222
-0.1686013045115328
-0.0095477846238641
-0.0113846336652584
0.0209324182891234
-0.0459845358530672
-0.0225248811371831
0.0685094169902525
-0.0349062874079946
-0.0206745088707304
0.0555807962787155
-0.0164047313591074
-0.0199738255158351
0.0363785568749450
0.0195996947439406
0.0160515560980426
-0.0356512508419804
-0.0594153802441584
-0.0207313494223683
0.0801467296665398
-0.0144108627774805
-0.0111037989279721
0.0255146617054584
-0.0325470666931389
-0.0203685200011352
0.0529155866943027
-0.0234714360752637
0.0814092645474972
-0.0579378284722143
-0.0171282777534810
-0.0461781835082592
0.0633064612617436
-0.0700366981132311
-0.0446028938773008
0.1146395919905537
0.1732922655656809
-0.0924032867989383
-0.0808889787667438
-0.0015890246051848
-0.0012406667712908
0.0028296913764680
-0.0026060576874566
-0.0033294261425095
0.0059354838299635
-0.0004421649516573
-0.0006250086958859
0.0010671736475686
-0.0388707934746093
-0.0031196852682874
0.0419904787428876
-0.0193964081967127
-0.1101538863674397
0.1295502945641529
-0.0009185091972138
-0.0018374521929764
0.0027559613901878
-0.0065168080789152
-0.0461316399217884
0.0526484480006859
-0.0477422286792200
0.0322625818982361
0.0154796467809637
0.0363356726953789
0.2145686602706747
-0.2509043329660399
-0.0070118229472204
-0.0206670242983585
0.0276788472456003
0.2103271969278301
0.0201486099072224
-0.2304758068350669
-0.0037231846580305
-0.0010885699556671
0.0048117546136882
-0.0010406050783878
-0.0019318556514259
0.0029724607298149
-0.0485873787092494
-0.0630286477414754
0.1116160264507357
-0.0175202511749426
-0.0021226178265638
0.0196428690015575
0.3459720239734893
-0.0365327275106431
-0.3094392964628234
-0.0059561948896982
0.1764977280947508
-0.1705415332050468
-0.0018945315590832
-0.0022962493084464
0.0041907808675437
-0.0550559396170923
-0.0953652771793560
0.1504212167964795
-0.0033426263061743
-0.0022433892477064
0.0055860155538312
-0.6519626242888312
0.3383744176045533
0.3135882066842327
0.3772421747998888
-0.4205431879731868
0.0433010131734231
0.1024294642183792
0.1972549994243238
-0.2996844636426541
-0.1890742930209651
0.0433900858906568
0.1456842071302563
0.3637035134822754
-0.3784914735270435
0.0147879600447241
-1.3009461067185157
0.4959958625025819
0.8049502442159634
0.4003250116451829
0.3314744647276093
-0.7317994763726703
0.1755523032995311
-0.2905025387568048
0.1149502354572412
0.0797773693701293
0.1709358581717318
-0.2507132275418741
0.1363004535464377
-0.0389394462038586
-0.0973610073424610
-0.2038865780800999
-0.0409588730697718
0.2448454511499127
-0.1844822301070287
0.0240486901575894
0.1604335399494285
-0.1890742930209651
0.0433900858906568
0.1456842071302563
-0.7361745653461286
0.3491705866448633
0.3870039787014255
-0.0507238511689705
0.3463647761915879
-0.2956409250226869
0.1755523032995311
-0.2905025387568048
0.1149502354572412
-0.5062943682040121
0.4941030352574028
0.0121913329467351
-0.0710417763529091
0.2181952375560561
-0.1471534612032015
0.0809446777977496
-0.3956995862477445
0.3147549084501602
-0.2517292360607435
-0.0767069469524381
0.3284361830131414
-0.1890742930209651
0.0433900858906568
0.1456842071302563
0.0126106492098801
-0.1655926072269094
0.1529819580171777
-0.1865439933409606
0.1329549592685078
0.0535890340724417
-0.1844822301070287
0.0240486901575894
0.1604335399494285
-0.1890742930209651
0.0433900858906568
0.1456842071302563
0.0201905007948109
-0.0912314192541777
0.0710409184595373
-0.1618597416787563
0.0411135042880881
0.1207462373906214
-0.2499917805989758
0.2085369197029160
0.0414548608960457
0.1755523032995311
-0.2905025387568048
0.1149502354572412
-0.1481570228755098
-0.4429981561104777
0.5911551789860808
-0.0406218704443804
0.5345448324519696
-0.4939229620075705
-0.1597468298037207
-0.6524510934998632
0.8121979233035498
-0.2369632032224126
0.0933264237580851
0.1436367794645087
0.0072211195753976
-0.3532266852364090
0.3460055656609623
-0.2214336973863575
-0.0057782991862285
0.2272119965725834
-0.1890742930209651
0.0433900858906568
0.1456842071302563
0.2291436223113415
-0.3251561624382121
0.0960125401268702
0.0240107099570288
0.1597863703766236
-0.1837970803336476
0.1928926181178240
-0.2385611328939175
0.0456685147761112
0.1172016994184814
0.0427628461445220
-0.1599645455629975
0.0791079719993347
-0.0626008149775676
-0.0165071570217520
0.0886290319397403
-0.1045715720755197
0.0159425401357904
0.2724797172153576
-0.2229227036185057
-0.0495570135968585
0.2546640557022397
-0.1728635439512265
-0.0818005117510128
0.2569837985634875
0.0666021103789037
-0.3235859089423843
0.0510965523377147
0.0953565477530038
-0.1464531000907204
0.2182801098821766
-0.2021646896854888
-0.0161154201966824
0.1441626815442711
-0.2316479726506145
0.0874852911063441
-0.0047504637099412
0.0610046063094739
-0.0562541425995405
-0.1844822301070287
0.0240486901575894
0.1604335399494285
-0.1890742930209651
0.0433900858906568
0.1456842071302563
-0.0312657745104675
-0.0122811104762757
0.0435468849867439
-0.0221708864469262
-0.0082160288246014
0.0303869152715390
-0.0028300361426247
-0.0031860130558267
0.0060160491984506
-0.0144223645371254
-0.0072787968163775
0.0217011613534748
-0.0693905106410249
-0.0075287437647609
0.0769192544057980
-0.0058955273794740
-0.0150481326936329
0.0209436600731126
-0.0146930667515154
-0.0039877179975256
0.0186807847490090
-0.0056371243974554
-0.0055346907636456
0.0111718151611037
-0.1249039792304539
0.1104687820743565
0.0144351971560994
-0.0078550292256664
-0.0037409837535366
0.0115960129792063
-0.0046416485150365
-0.1143972150099856
0.1190388635249984
-0.0178661555225648
-0.0175463631538847
0.0354125186764423
-0.0022424361014906
-0.0020779433023007
0.0043203794037959
-0.0080873765572367
-0.0175807062289999
0.0256680827862454
-0.0074993346111628
-0.1015494113886580
0.1090487459998272
-0.0362445545532565
-0.1341250251316125
0.1703695796849013
-0.0462415795175609
0.0762616350892163
-0.0300200555716641
-0.0022721124511145
-0.0012676512919524
0.0035397637430622
0.0940073757420220
0.0417303241217809
-0.1357376998637980
0.0123795585738442
0.1133917569842908
-0.1257713155581372
0.8862380875898894
-0.8204018190887319
-0.0658362685011995
-0.0057370430986218
-0.0074863161112015
0.0132233592098278
-0.0019555319358001
-0.0040391712459218
0.0059947031817598
0.0967383470963344
-0.2644490757092968
0.1677107286129441
-0.1461151648124146
-0.2928936931495708
0.4390088579619955
-0.2127300381157319
-0.1804037477762654
0.3931337858919927
0.0081069454598315
0.0471698397368830
-0.0552767851967121
0.0048892454699260
-0.0354258468326570
0.0305366013627465
0.1158058999969506
-0.1210119399879854
0.0052060399910488
-0.0236879075387263
0.1409804748022245
-0.1172925672634838
-0.1253176841289282
-0.1416754911560960
0.2669931752850389
0.0836841457910789
0.2727196115528616
-0.3564037573439397
-0.0010109666468555
0.1751479044680300
-0.1741369378211967
0.1455637260709001
-0.0400244289214462
-0.1055392971494592
0.0049912580740697
-0.0407135362687325
0.0357222781946664
0.0770088149496665
0.1004261492456925
-0.1774349641953562
-0.0671101318483447
-0.0884127120739155
0.1555228439222589
-0.1686101929723060
0.3386511877417794
-0.1700409947694736
-0.0024751912940011
-0.0248406640850340
0.0273158553790211
-0.1890742930209651
0.0433900858906568
0.1456842071302563
-0.0059753418902088
-0.0216986152886782
0.0276739571789044
-0.0667129679972981
-0.0334300734443733
0.1001430414416918
-0.0012213892945817
-0.0023207643495281
0.0035421536440972
-0.0035934827630101
-0.0023193149231974
0.0059127976861747
0.3417148984580566
-0.0189965375366688
-0.3227183609213883
-0.1488640299594491
-0.0594021908530745
0.2082662208125458
-0.0093656311559948
-0.0087410613645828
0.0181066925205902
-0.0030444066855222
-0.0033295330501506
0.0063739397356506
-0.0041387697551410
-0.0023804831613523
0.0065192529164900
-0.0574151846423649
-0.2213688299112838
0.2787840145536458
-0.0056099306945257
-0.0030885856327238
0.0086985163272278
0.0449741051246217
-0.1606461521075758
0.1156720469829497
-0.0423220741288281
-0.0159415993049291
0.0582636734337350
-0.0091576953224074
-0.0128507996804541
0.0220084950028835
-0.0013386083853591
-0.0033610616569576
0.0046996700423108
-0.0722947073053237
-0.3043457022724930
0.3766404095778085
-0.0044648326964067
-0.0011061154288057
0.0055709481252016
-0.0121027431162619
-0.0046193379981486
0.0167220811144148
-0.0017884576327288
-0.0640076919375178
0.0657961495702524
-0.0901681302559646
-0.0480590738294254
0.1382272040854325
-0.0278448140356334
-0.1329860745036558
0.1608308885392890
-0.0028118229039895
-0.0013500227518323
0.0041618456558311
-0.0770843072691232
0.3931106651975803
-0.3160263579284442
-0.1593610178749664
0.0373281066608847
0.1220329112141014
-0.0815903086043840
0.1796552661726451
-0.0980649575682688
-0.0050039788776081
-0.0027439465425752
0.0077479254201944
-0.0046651152899830
-0.0020374572343906
0.0067025725243967
0.0321578773883250
-0.0033360902052237
-0.0288217871831128
0.3675770841993338
-0.1317907564757709
-0.2357863277235550
0.0468825099347496
0.3680822453467131
-0.4149647552814654
-0.0497020551185257
-0.0193275099284032
0.0690295650469264
0.2187685225254841
-0.0375188151210195
-0.1812497074044567
0.3257042717643130
-0.1859165933958754
-0.1397876783684245
0.1255583786085759
0.0832720299975653
-0.2088304086061233
-0.0757256646914895
-0.1031203641495263
0.1788460288410131
-0.0547647661770445
0.0568703311221257
-0.0021055649450663
0.0254154226552283
0.0292294627077070
-0.0546448853629614
0.0742633833408229
0.0311932971183960
-0.1054566804592190
0.0424652346494905
0.0729005676953290
-0.1153658023448196
0.3166231684775743
0.1931976212065947
-0.5098207896841674
0.1558983359432117
0.1724367620792045
-0.3283350980224082
-0.0526111451642605
0.1753654136279392
-0.1227542684636752
-0.0043166600536783
0.0379236074573378
-0.0336069474036608
-0.0273544027546744
-0.0172844706185224
0.0446388733731920
-0.0954318624764173
-0.0464568948505526
0.1418887573269939
0.1097311249529184
0.0588701795586222
-0.1686013045115328
0.4829872917889702
-0.2841934451114813
-0.1987938466774853
-0.0032690766046228
-0.0006972913014323
0.0039663679060495
-0.0015922956276509
-0.0016013054671813
0.0031936010948039
-0.0587375858098664
-0.1557143930828478
0.2144519788927158
-0.0626846014222583
0.4589566059789443
-0.3962720045566629
-0.0015073110356287
-0.0025157179741145
0.0040230290097726
-0.0388707934746093
-0.0031196852682874
0.0419904787428876
-0.0015576856182064
-0.0018255827717007
0.0033832683899070
-0.0221087623853632
-0.0421293047173215
0.0642380671026772
-0.0043773858509064
-0.0066196775951549
0.0109970634460589
-0.0493508130916086
0.0644869662855558
-0.0151361531939460
0.2823746878452635
-0.0973971390546911
-0.1849775487905735
-0.0349062874079946
-0.0206745088707304
0.0555807962787155
-0.0164047313591074
-0.0199738255158351
0.0363785568749450
0.0506453366858379
0.0140265713043559
-0.0646719079901909
-0.0244769575054446
-0.0943155142270701
0.1187924717325096
-0.0480313752988765
0.0320437276870604
0.0159876476118045
-0.0594153802441584
-0.0207313494223683
0.0801467296665398
-0.0521078624483764
-0.0132092664912282
0.0653171289396284
-0.0077365599641533
-0.0276469241489372
0.0353834841130793
-0.0267593207636136
-0.0143157401532090
0.0410750609168285
0.2054802760070341
0.0725921739929612
-0.2780724500000099
-0.0067379353911522
0.0693545834118961
-0.0626166480207412
-0.0010406050783878
-0.0019318556514259
0.0029724607298149
0.2756126993406363
-0.0128863902340637
-0.2627263091065774
-0.0524653261640127
-0.0054908147884601
0.0579561409524843
-0.0414181241566322
-0.0070069500083580
0.0484250741650028
-0.0811344454023884
-0.0833971677426106
0.1645316131450383
-0.1753747650848056
-0.0384578678248450
0.2138326329096103
-0.0152873296600578
-0.0008258416732740
0.0161131713333395
0.1988960294070302
-0.0660105721981678
-0.1328854572088607
-0.0255728825608313
-0.2580283638259521
0.2836012463868036
-0.1120677289788332
0.4632383943877317
-0.3511706654088748
-0.0720942779748158
0.2376087742146935
-0.1655144962399322
-0.0030381522436867
-0.0023460616589285
0.0053842139026289
-0.0008175850017927
-0.0014302408546356
0.0022478258564515
-0.0881103051651414
-0.0989926570415914
0.1871029622067334
-0.0171282777534810
-0.0461781835082592
0.0633064612617436
0.0967383470963344
-0.2644490757092968
0.1677107286129441
-0.1461151648124146
-0.2928936931495708
0.4390088579619955
-0.2127300381157319
-0.1804037477762654
0.3931337858919927
0.0081069454598315
0.0471698397368830
-0.0552767851967121
0.0048892454699260
-0.0354258468326570
0.0305366013627465
0.1158058999969506
-0.1210119399879854
0.0052060399910488
-0.0236879075387263
0.1409804748022245
-0.1172925672634838
-0.1253176841289282
-0.1416754911560960
0.2669931752850389
0.0836841457910789
0.2727196115528616
-0.3564037573439397
-0.0010109666468555
0.1751479044680300
-0.1741369378211967
0.1455637260709001
-0.0400244289214462
-0.1055392971494592
0.0049912580740697
-0.0407135362687325
0.0357222781946664
0.0770088149496665
0.1004261492456925
-0.1774349641953562
-0.0671101318483447
-0.0884127120739155
0.1555228439222589
-0.1686101929723060
0.3386511877417794
-0.1700409947694736
-0.0024751912940011
-0.0248406640850340
0.0273158553790211
-0.1890742930209651
0.0433900858906568
0.1456842071302563
-0.0059753418902088
-0.0216986152886782
0.0276739571789044
-0.0667129679972981
-0.0334300734443733
0.1001430414416918
-0.0012213892945817
-0.0023207643495281
0.0035421536440972
-0.0035934827630101
-0.0023193149231974
0.0059127976861747
0.3417148984580566
-0.0189965375366688
-0.3227183609213883
-0.1488640299594491
-0.0594021908530745
0.2082662208125458
-0.0093656311559948
-0.0087410613645828
0.0181066925205902
-0.0030444066855222
-0.0033295330501506
0.0063739397356506
-0.0041387697551410
-0.0023804831613523
0.0065192529164900
-0.0574151846423649
-0.2213688299112838
0.2787840145536458
-0.0056099306945257
-0.0030885856327238
0.0086985163272278
0.0449741051246217
-0.1606461521075758
0.1156720469829497
-0.0423220741288281
-0.0159415993049291
0.0582636734337350
-0.0091576953224074
-0.0128507996804541
0.0220084950028835
-0.0013386083853591
-0.0033610616569576
0.0046996700423108
-0.0722947073053237
-0.3043457022724930
0.3766404095778085
-0.0044648326964067
-0.0011061154288057
0.0055709481252016
-0.0121027431162619
-0.0046193379981486
0.0167220811144148
-0.0017884576327288
-0.0640076919375178
0.0657961495702524
-0.0901681302559646
-0.0480590738294254
0.1382272040854325
-0.0278448140356334
-0.1329860745036558
0.1608308885392890
-0.0028118229039895
-0.0013500227518323
0.0041618456558311
-0.0770843072691232
0.3931106651975803
-0.3160263579284442
-0.1593610178749664
0.0373281066608847
0.1220329112141014
-0.0815903086043840
0.1796552661726451
-0.0980649575682688
-0.0050039788776081
-0.0027439465425752
0.0077479254201944
-0.0046651152899830
-0.0020374572343906
0.0067025725243967
